static const float actor_encoder_self_encoder_0_weight[18][64] = {{0.08596254885196686,-0.042778246104717255,-0.08718951791524887,-0.21066324412822723,-0.0729878842830658,-0.10802383720874786,-0.2642121911048889,-0.24692460894584656,-0.2918173372745514,-0.1374157816171646,-0.23828794062137604,-0.14645303785800934,0.11786602437496185,0.5139425992965698,-0.4584192633628845,0.0015694745816290379,-0.29177066683769226,0.3565788269042969,0.34249019622802734,0.1535187065601349,-0.4080218970775604,0.0051837642677128315,0.04770882427692413,0.027172628790140152,-0.08892794698476791,0.014822122640907764,0.2639995515346527,0.07485256344079971,-0.05939013138413429,0.18327286839485168,0.49790745973587036,0.21873168647289276,-0.10339010506868362,0.39185380935668945,-0.03228744864463806,0.19968794286251068,-0.30561143159866333,0.21858814358711243,0.17537455260753632,-0.1915677934885025,-0.19914604723453522,0.45053765177726746,-0.26342177391052246,-0.38954684138298035,-0.06743091344833374,0.10125716030597687,-0.051988065242767334,0.2619572877883911,-0.0680408701300621,0.04850895702838898,-0.11341322958469391,0.28094759583473206,-0.1417793482542038,0.030651452019810677,0.2625008821487427,0.12711851298809052,0.08538266271352768,-0.05271218344569206,0.0845990851521492,0.011422148905694485,0.014901235699653625,-0.12523452937602997,0.31552383303642273,0.20428897440433502},{0.08566994220018387,0.2208266705274582,-0.05957329645752907,0.052798930555582047,-0.05040894076228142,0.05860193073749542,0.1960277408361435,-0.31390541791915894,-0.08096785843372345,0.30082952976226807,-0.27181488275527954,0.04930815100669861,0.09066977351903915,0.3037579357624054,0.13196507096290588,-0.011472483165562153,0.13907285034656525,-0.3286588490009308,-0.2828870117664337,-0.25764548778533936,-0.707863986492157,-0.15740369260311127,-0.028906967490911484,0.29604241251945496,0.08787116408348083,-0.16521309316158295,0.15795136988162994,0.2764340043067932,0.12830066680908203,-0.036970581859350204,-0.17729459702968597,0.10736896842718124,0.0589265301823616,-0.02902505174279213,0.009830005466938019,-0.08584640920162201,0.08702361583709717,0.08059561252593994,-0.19718243181705475,-0.13553722202777863,-0.03646567091345787,0.2612736225128174,0.05777641758322716,0.1600664258003235,0.1763603389263153,-0.28343838453292847,-0.19782300293445587,-0.14123068749904633,-0.06816358119249344,0.37441205978393555,0.24202948808670044,0.11209090054035187,0.08159320801496506,0.35124754905700684,0.02526828646659851,-0.11543362587690353,0.01602187566459179,-0.1469806283712387,-0.036877285689115524,0.33975547552108765,-0.029102841392159462,0.4651481807231903,-0.17136864364147186,0.30288931727409363},{-0.16890087723731995,0.17808572947978973,0.22297993302345276,-0.3005062937736511,0.005648450460284948,0.01618383452296257,0.26030439138412476,-0.24920234084129333,-0.12742844223976135,-0.09997237473726273,0.403818279504776,0.4421769976615906,-0.7008292078971863,-0.11715608835220337,-0.4384972155094147,-0.05735369026660919,-0.014496492221951485,0.357817143201828,-0.12604013085365295,0.3091011047363281,-0.5475863218307495,-0.7210050821304321,0.5260359048843384,0.5132543444633484,0.07692611962556839,0.1306268274784088,-0.13222238421440125,0.26233971118927,-0.06160794571042061,0.2124774008989334,-0.07402782887220383,-0.8267510533332825,0.7072396874427795,-0.3925970494747162,-0.17732977867126465,0.05892327427864075,0.21624116599559784,0.4430699050426483,-0.23846067488193512,0.32586202025413513,0.08060481399297714,0.01698550023138523,-0.057248953729867935,0.2686386704444885,0.03922918066382408,0.0011995250824838877,-0.020674873143434525,0.552082896232605,0.2930136024951935,-0.22260643541812897,-0.1254018247127533,0.2942052483558655,0.4073612689971924,0.10169569402933121,-0.38889312744140625,0.24315305054187775,-0.4686703383922577,0.07370751351118088,-0.12909242510795593,-0.4040031433105469,0.17868775129318237,-0.4777117371559143,0.1921207159757614,0.01643502339720726},{-0.03304236754775047,0.05002947524189949,0.04972947761416435,-0.2589758336544037,0.11929088085889816,0.020741254091262817,-0.322622150182724,0.06477384269237518,-0.2262333482503891,-0.1571987271308899,-0.33974581956863403,-0.22351638972759247,0.03695802390575409,0.28725263476371765,-0.33580419421195984,-0.04251665621995926,-0.12463829666376114,0.32193440198898315,0.3501797318458557,0.08949961513280869,-0.21039250493049622,-0.018494540825486183,-0.09927768260240555,0.14284513890743256,-0.2082746922969818,-0.07270719856023788,0.016644645482301712,-0.00463501363992691,-0.03705816715955734,0.2118152379989624,0.19622929394245148,0.2181227058172226,-0.14741426706314087,0.13657177984714508,-0.023684462532401085,0.1343984454870224,-0.2225307822227478,0.20017610490322113,0.015881668776273727,0.03777643293142319,0.06169770285487175,0.4334449768066406,-0.30767905712127686,-0.1475640833377838,-0.14787325263023376,0.1141921654343605,-0.1168418601155281,0.04799267277121544,-0.0646916851401329,0.10150615125894547,-0.09378976374864578,0.19741344451904297,-0.050039928406476974,-0.08146458119153976,0.038961660116910934,0.000525999756064266,0.007068261504173279,-0.07733036577701569,0.047459494322538376,0.06107671558856964,-0.052801501005887985,-0.06698351353406906,0.38208094239234924,0.15281972289085388},{-0.07695750892162323,0.25234106183052063,-0.03976075351238251,0.091298408806324,-0.06479200720787048,-0.07123225927352905,0.01681472174823284,-0.05812611058354378,0.1547039896249771,0.27567586302757263,-0.15245822072029114,-0.039569344371557236,0.13518930971622467,-0.00973495189100504,-0.07829587161540985,-0.09486396610736847,-0.09249483048915863,-0.26616349816322327,-0.23210737109184265,-0.19113823771476746,-0.43541020154953003,-0.1864507496356964,-0.22593215107917786,0.3361201882362366,-0.02741166017949581,-0.15644367039203644,0.16225667297840118,0.26469239592552185,0.028097622096538544,0.1491558700799942,-0.3133920431137085,-0.012408120557665825,0.049916092306375504,0.13064642250537872,0.01445755548775196,-0.03859351575374603,-0.037878457456827164,0.08056209981441498,-0.27879801392555237,-0.1431335061788559,0.04999781399965286,0.20134307444095612,0.09905695915222168,0.038417331874370575,0.017991317436099052,-0.2799351215362549,-0.2913896441459656,-0.14391440153121948,0.024224625900387764,-0.018292918801307678,0.057550668716430664,-0.01801147125661373,0.013602012768387794,0.267959326505661,-0.05087825655937195,-0.22459332644939423,0.08547919988632202,-0.034245871007442474,0.0830591470003128,0.17289204895496368,0.19289061427116394,0.28275880217552185,-0.02797737717628479,0.1451205164194107},{0.058184802532196045,0.047683656215667725,0.0788382962346077,-0.1260327249765396,0.06726747006177902,-0.011075234971940517,-0.006227205507457256,0.030710389837622643,-0.03738689422607422,-0.07864360511302948,0.3491160273551941,0.1592283695936203,-0.34392857551574707,-0.14298413693904877,-0.14440111815929413,-0.025255264714360237,0.08159425854682922,0.15982091426849365,0.06582436710596085,0.06513144075870514,-0.17401844263076782,-0.43847745656967163,0.10643830895423889,0.3539406359195709,0.043447814881801605,0.10572049021720886,0.05989706143736839,0.050443049520254135,0.0010911797871813178,0.02969195879995823,-0.21461012959480286,-0.5004780292510986,0.3378516435623169,-0.08985040336847305,-0.07308180630207062,-0.11311588436365128,0.08485995978116989,0.20714381337165833,-0.03067437931895256,0.24946850538253784,0.12130071967840195,0.1899934709072113,0.0014840352814644575,0.0655708760023117,0.05186190828680992,-0.037357356399297714,-0.11096934974193573,0.2753872573375702,0.09656023979187012,0.09675958007574081,-0.23324546217918396,0.21982526779174805,0.2254798859357834,0.0038631160277873278,-0.26388871669769287,0.15131302177906036,-0.10879017412662506,0.06536553055047989,0.0925799086689949,-0.06503584235906601,-0.11454567313194275,-0.10415511578321457,0.018210969865322113,-0.06635648012161255},{0.027646515518426895,0.12262116372585297,0.06661933660507202,-0.17865240573883057,0.2134881317615509,0.20297488570213318,0.10892321914434433,-0.22769944369792938,-0.09468944370746613,0.4442605972290039,-0.12706266343593597,0.32059362530708313,0.11877873539924622,-0.1541823446750641,0.1864703744649887,0.11301131546497345,-0.3160402774810791,-0.0635097548365593,0.01359485648572445,0.2667354941368103,0.03923659399151802,0.05275948345661163,0.19949422776699066,0.011339069344103336,-0.009482908993959427,0.10667882114648819,0.2334817349910736,0.12612281739711761,-0.30645644664764404,-0.18712672591209412,-0.2764611840248108,0.28186091780662537,0.1547398716211319,-0.1358414590358734,-0.1380951851606369,0.15964099764823914,0.23623816668987274,-0.21251296997070312,0.1359027624130249,0.008598043583333492,0.24456904828548431,0.08591101318597794,0.029444316402077675,-0.018777823075652122,0.0664142519235611,0.16339416801929474,-0.27477508783340454,-0.11644716560840607,0.3331977427005768,0.23847906291484833,0.2042388767004013,-0.08068156242370605,-0.33487972617149353,-0.07042115926742554,-0.15472154319286346,0.1378316432237625,0.1795967072248459,-0.051512736827135086,-0.10671179741621017,0.209657222032547,0.32970747351646423,-0.05349407345056534,-0.07039402425289154,0.1160629615187645},{-0.08671700954437256,-0.2773095667362213,-0.13798655569553375,0.15089841187000275,0.016914596781134605,0.0399642251431942,0.13113103806972504,0.08931448310613632,-0.0775805190205574,-0.008895800448954105,-0.1966543197631836,0.10668326914310455,-0.004463531542569399,0.08829791843891144,0.17849141359329224,-0.2157849818468094,0.05788453295826912,0.15094488859176636,0.18104287981987,0.03301045671105385,-0.15531067550182343,-0.11742507666349411,-0.24068555235862732,0.1981484293937683,-0.18575610220432281,-0.018139690160751343,0.21020041406154633,0.06507368385791779,-0.21513786911964417,0.056639622896909714,-0.16973340511322021,-0.07516928017139435,-0.19784313440322876,-0.11076667159795761,-0.2966616451740265,-0.06784891337156296,0.006885918788611889,-0.48324713110923767,-0.17757195234298706,-0.2144630402326584,-0.10477093607187271,0.20697146654129028,-0.37136176228523254,0.17601314187049866,-0.17696817219257355,-0.417356938123703,0.12913544476032257,-0.027309367433190346,0.01291582453995943,0.059114355593919754,0.2335253655910492,0.09097778797149658,-0.11807269603013992,0.14673161506652832,-0.15236753225326538,-0.21971233189105988,0.1298142522573471,0.11067639291286469,0.19283418357372284,0.19155171513557434,-0.15501360595226288,-0.09258145093917847,0.07346068322658539,-0.09553059190511703},{-0.1332237422466278,-0.15309138596057892,0.15288352966308594,-0.314599871635437,-0.044952813535928726,0.03144599497318268,0.2956153452396393,0.16853424906730652,0.07650397717952728,0.16936755180358887,0.08195443451404572,-0.17599034309387207,0.004416131880134344,0.0808737576007843,0.05742858350276947,-0.11796383559703827,-0.1797228902578354,-0.008231532759964466,-0.11983571201562881,0.6051730513572693,0.11169158667325974,-0.029716582968831062,-0.08289541304111481,-0.04230776056647301,-0.2966584265232086,0.2036624401807785,0.09528219699859619,0.2926657795906067,-0.2633906602859497,-0.11906121671199799,0.01634274795651436,-0.0678708478808403,-0.207297220826149,0.4531856179237366,-0.11232954263687134,-0.22486887872219086,0.014909757301211357,0.12457426637411118,-0.04980916529893875,-0.31037503480911255,-0.28720247745513916,0.10212604701519012,0.3446710407733917,0.101242296397686,-0.27642711997032166,-0.06447359919548035,0.01580415852367878,-0.495141863822937,-0.2041672021150589,0.2385055124759674,-0.009792515076696873,0.14287994801998138,0.191093310713768,-0.20723384618759155,0.09044147282838821,0.007505088113248348,0.01563730649650097,-0.3139384686946869,0.0973253846168518,-0.03565153479576111,-0.12499655038118362,-0.3304700255393982,-0.38187384605407715,-0.11588124930858612},{0.16809529066085815,0.06303894519805908,-0.061514150351285934,0.023675329983234406,-0.10860979557037354,0.20783832669258118,0.0832732543349266,-0.10200633108615875,-0.09170709550380707,-0.1302817314863205,-0.05833585560321808,-0.18806180357933044,-0.09821983426809311,-0.22782504558563232,-0.1705503910779953,-0.2786087393760681,0.22929349541664124,-0.05790194123983383,0.22389422357082367,-0.18838617205619812,-0.11492932587862015,0.20425182580947876,-0.21930812299251556,0.0433768555521965,0.0018137588631361723,-0.27132999897003174,-0.0017176540568470955,0.2880988121032715,0.1070573478937149,-0.06820804625749588,0.030167274177074432,0.10871993005275726,-0.20258066058158875,0.08243607729673386,0.2955571413040161,0.09932370483875275,-0.1087663322687149,0.037279024720191956,-0.23658372461795807,0.06775698810815811,-0.14775797724723816,-0.02128470130264759,0.4317724108695984,0.25273123383522034,-0.029097016900777817,0.37598347663879395,-0.04044794663786888,-0.04969553276896477,0.24520795047283173,0.05149359256029129,-0.016514554619789124,-0.053546663373708725,-0.2022067755460739,-0.02327585034072399,0.045867670327425,-0.2129778265953064,0.08678615838289261,0.10626067966222763,-0.03787529096007347,-0.15466755628585815,-0.1428147554397583,0.21927431225776672,-0.0647629052400589,0.4329391419887543},{-0.2614331543445587,-0.2372155487537384,0.1264260709285736,0.03125971555709839,-0.07665722072124481,-0.2634580731391907,-0.1422506421804428,0.057805582880973816,0.07322686910629272,0.5351592898368835,-0.14826294779777527,0.117188960313797,0.14750471711158752,0.3253934681415558,-0.18898850679397583,-0.18932169675827026,0.14945608377456665,-0.137040376663208,-0.10943445563316345,-0.1596287488937378,-0.01084265299141407,-0.04722173139452934,-0.24735116958618164,0.18789242208003998,0.018067069351673126,-0.20395135879516602,0.30010122060775757,-0.06127168610692024,-0.30373114347457886,0.24283304810523987,-0.12115888297557831,-0.1722094863653183,-0.1313256174325943,-0.13923271000385284,-0.088594950735569,-0.20024703443050385,0.020198339596390724,0.0026691157836467028,-0.0438007228076458,0.2237197458744049,-0.2857254147529602,0.1480097472667694,0.3470895290374756,-0.1783013939857483,-0.06655465066432953,-0.0075269644148647785,0.11849766224622726,0.31092414259910583,0.44755157828330994,0.24517127871513367,0.214970201253891,0.00842484924942255,-0.10424859076738358,0.1371050924062729,-0.02798161469399929,-0.07093873620033264,0.120672807097435,0.0795193538069725,0.25912779569625854,0.058220457285642624,0.05759822949767113,-0.1832338571548462,0.15972454845905304,-0.260807067155838},{-0.23859967291355133,0.14720813930034637,0.35197514295578003,-0.24867525696754456,-0.1935262382030487,0.261360764503479,-0.16970720887184143,0.16439181566238403,0.0007956978515721858,-0.14305052161216736,-0.11881467700004578,0.0254933200776577,0.1887136846780777,-0.07062992453575134,0.11928503215312958,-0.16969583928585052,-0.06876480579376221,0.030607422813773155,-0.4813733696937561,0.24858804047107697,0.2773926258087158,0.10596121102571487,-0.07265584170818329,-0.013555564917623997,0.26265668869018555,-0.25301793217658997,-0.145851731300354,0.25774887204170227,0.10632836073637009,-0.1399516463279724,0.24524563550949097,0.11765874922275543,0.023531025275588036,0.10863737016916275,-0.11595417559146881,-0.24528682231903076,-0.15512308478355408,-0.060913484543561935,0.4478822946548462,-0.19902418553829193,0.3600887358188629,0.17279481887817383,0.016362447291612625,0.145394966006279,0.01692133955657482,0.5855808854103088,0.202826127409935,0.19264276325702667,-0.07141850143671036,-0.014622136950492859,0.23167827725410461,0.2866317927837372,-0.218479722738266,0.08377456665039062,0.12892591953277588,-0.21361421048641205,-0.15954197943210602,0.055622443556785583,-0.041553378105163574,0.2859492897987366,-0.07652677595615387,0.07242628931999207,-0.07074954360723495,-0.23672263324260712},{-0.4944741725921631,-0.5884702801704407,-0.1647845059633255,0.42407867312431335,0.13063892722129822,0.21143335103988647,0.33735379576683044,-0.35921621322631836,0.3154759705066681,-0.4532284140586853,-0.29500439763069153,0.12856830656528473,-0.2791531980037689,0.015955116599798203,-0.4533756375312805,-0.4802512228488922,-0.14663124084472656,0.1450212299823761,-0.30969560146331787,-0.12662450969219208,0.1822689026594162,-0.3656691908836365,-0.34213146567344666,0.09274732321500778,0.051291245967149734,-0.5131713151931763,-0.3345801532268524,-0.3972107768058777,0.19874486327171326,-0.10449899733066559,-0.28050047159194946,0.03295932710170746,0.19199667870998383,-0.0676964521408081,0.5696607828140259,-0.5282074809074402,-0.38543057441711426,0.1129375472664833,0.17716848850250244,0.3215009868144989,0.15127573907375336,-0.21850711107254028,-0.36590832471847534,0.2510415315628052,-0.20266957581043243,-1.0076416730880737,0.49404728412628174,0.04143015295267105,0.658387303352356,-0.3343043625354767,-0.45444753766059875,0.38240954279899597,-0.4374554455280304,-0.4971189796924591,0.05530203878879547,-0.28644511103630066,0.3919570744037628,0.5463705658912659,0.4701302945613861,-0.2988257110118866,-0.32856643199920654,-0.09880509972572327,-0.34290286898612976,0.43821457028388977},{0.6631364226341248,0.07852231711149216,-0.02797102928161621,-0.298291951417923,0.35508662462234497,-0.13575410842895508,-0.27382126450538635,-0.7827986478805542,-0.17615504562854767,0.5793770551681519,-0.29774776101112366,0.03699246793985367,0.3090996742248535,0.14925622940063477,-0.3028428852558136,0.548273503780365,0.12696997821331024,-0.13889500498771667,0.0917319804430008,-0.17416878044605255,0.12737315893173218,-0.08295480906963348,0.30593177676200867,-0.22569260001182556,-0.6516294479370117,-0.1848086416721344,-0.4890167713165283,-0.2266077697277069,0.1952580064535141,0.7158738374710083,0.02677037939429283,0.1998143345117569,0.26105862855911255,-0.49972760677337646,0.4179030954837799,-0.5354689955711365,-0.37018632888793945,0.4051993787288666,-0.29006069898605347,-0.10654103755950928,-0.012187296524643898,0.042379748076200485,0.7480098605155945,-0.08041629940271378,-0.7004525065422058,-0.7349943518638611,0.6504653096199036,0.45776090025901794,-0.47899550199508667,-0.2608976364135742,0.21097314357757568,-0.19840508699417114,-0.061775486916303635,0.4150223433971405,-0.1299111545085907,0.5544904470443726,-0.44933703541755676,-0.04468660056591034,-0.2058163732290268,-0.16594864428043365,-0.4679459035396576,-0.05258410796523094,0.18579821288585663,-0.7658941149711609},{-0.038623977452516556,-0.21504537761211395,0.26012882590293884,-0.16237899661064148,0.32375121116638184,-0.1311454325914383,0.0366678312420845,-0.16982541978359222,0.0033933413214981556,0.5275024175643921,0.1503499299287796,-0.23391643166542053,0.09604695439338684,-0.006573472172021866,0.18876789510250092,0.04627726972103119,-0.10634012520313263,0.22339597344398499,0.07982321083545685,-0.02133697271347046,-0.1619688868522644,-0.11159486323595047,-0.009039266966283321,0.13336139917373657,-0.12372468411922455,-0.3028477728366852,-0.23378632962703705,-0.21371722221374512,0.22044722735881805,0.15590128302574158,0.03619220480322838,0.09846984595060349,-0.23547334969043732,0.002693159505724907,0.05329669639468193,0.019020510837435722,-0.08817855268716812,-0.34505030512809753,0.06605459004640579,-0.18128687143325806,-0.29509204626083374,-0.12165173888206482,0.27268436551094055,0.04345735162496567,0.025050338357686996,0.45545798540115356,0.06906270980834961,-0.0439460352063179,0.17280595004558563,-0.14293356239795685,0.12804372608661652,0.041275568306446075,-0.1039223000407219,-0.23137728869915009,0.09415729343891144,0.022627897560596466,0.08246250450611115,0.37707147002220154,0.08117223531007767,0.08520789444446564,0.07480907440185547,0.03225288912653923,0.03190292418003082,0.24964161217212677},{0.06635406613349915,0.0024754416663199663,-0.10132303088903427,-0.04747184365987778,0.02217778004705906,-0.012583241797983646,0.05314434692263603,-0.09049402922391891,-0.04361838847398758,-0.01591425947844982,0.35006415843963623,-0.1278703510761261,-0.08242873102426529,0.0758821964263916,-0.09035293012857437,0.018602702766656876,-0.0334363728761673,0.216172456741333,0.10586699098348618,-0.15142740309238434,-0.0903259888291359,-0.050704363733530045,0.06467276066541672,-0.24249903857707977,-0.11405157297849655,0.015724971890449524,-0.025185197591781616,0.049859385937452316,0.0004585422284435481,0.08399077504873276,-0.005631851963698864,0.14578749239444733,-0.07994336634874344,-0.11634171009063721,0.019467119127511978,-0.06251488626003265,-0.20579618215560913,-0.07677267491817474,0.1281600445508957,0.08951066434383392,-0.1062399297952652,0.07526908069849014,0.042378779500722885,0.13905802369117737,-0.06596191227436066,-0.033049918711185455,0.04070455953478813,-0.09038539230823517,-0.015404258854687214,-0.04068688303232193,0.059019315987825394,-0.05842674523591995,0.019697021692991257,-0.06677910685539246,-0.12172015756368637,0.06503826379776001,-0.07344405353069305,-0.024272354319691658,-0.031748730689287186,0.004285394214093685,-0.007153254933655262,-0.22298039495944977,-0.14286741614341736,-0.06882485747337341},{0.04129190370440483,0.08930511027574539,0.04092817381024361,-0.09527858346700668,-0.011022839695215225,0.08779555559158325,-0.08340974152088165,0.10227005183696747,0.02153163030743599,-0.0009194037411361933,0.05938826873898506,-0.15984441339969635,-0.02216521091759205,-0.1871570199728012,0.04581955820322037,0.0761060044169426,0.10106904804706573,0.28713539242744446,-0.03945291414856911,0.1440422683954239,-0.13695579767227173,-0.08534789085388184,-0.04022044315934181,0.06561045348644257,-0.12377025187015533,-0.0077827805653214455,-0.004338166210800409,0.15860767662525177,-0.040163490921258926,0.034100987017154694,0.11200959980487823,0.12421213090419769,-0.19268746674060822,0.1911754459142685,-0.03703497722744942,0.06150081753730774,-0.11075851321220398,0.0064856987446546555,-0.0528889037668705,0.04383952543139458,0.08752084523439407,-0.11334692686796188,-0.019850749522447586,-0.03745914250612259,-0.0585501529276371,0.03125965595245361,-0.051087621599435806,0.005654845852404833,-0.028334934264421463,0.0657159611582756,0.04620033875107765,-0.07192406058311462,-5.260044054011814e-05,0.12335508316755295,-0.1344129741191864,0.1403007209300995,0.08102086186408997,-0.03628901019692421,-0.1169702410697937,0.1546403169631958,0.0673002153635025,0.09457874298095703,-0.17636482417583466,-0.0025659438688308},{0.06965772062540054,0.022327739745378494,0.00039391565951518714,-0.20774729549884796,-0.28982487320899963,0.026075461879372597,-0.2736909091472626,-0.10203082859516144,0.3227674961090088,0.024144455790519714,0.20373760163784027,-0.3215349316596985,-0.025541353970766068,0.22693853080272675,-0.18048447370529175,0.061049312353134155,0.260324090719223,-0.03941385820508003,0.32338207960128784,0.2534925043582916,-0.25512418150901794,-0.14257745444774628,0.3948613405227661,-0.16344153881072998,-0.16976462304592133,0.18677805364131927,-0.10813307017087936,-0.1348201185464859,0.34241580963134766,-0.17717884480953217,-0.15274035930633545,0.0799049437046051,-0.10378457605838776,0.09116686880588531,0.10222958773374557,-0.019294092431664467,0.4432770013809204,0.049571726471185684,0.31748950481414795,-0.0035028441343456507,0.061836179345846176,-0.3858528137207031,-0.07069113105535507,0.4352101981639862,-0.010017672553658485,0.014702754095196724,-0.161014586687088,-0.24344925582408905,0.05429791286587715,0.11293088644742966,-0.012867053970694542,-0.014374716207385063,-0.036344241350889206,-0.10980119556188583,-0.12593430280685425,-0.14829391241073608,0.2568909525871277,0.061235323548316956,0.34086695313453674,0.14142271876335144,0.10176538676023483,-0.17893101274967194,0.2473495900630951,0.01670837216079235}};
static const float actor_encoder_self_encoder_2_weight[64][64] = {{0.015683434903621674,0.16792480647563934,0.01993006095290184,-0.055002354085445404,-0.17981187999248505,-0.060396187007427216,0.024819161742925644,-0.10711754858493805,0.10864147543907166,0.18013545870780945,-0.228048175573349,-0.04364348202943802,-0.06626737117767334,0.12692825496196747,0.172868549823761,0.14722713828086853,0.07787755131721497,-0.044826723635196686,0.13565093278884888,0.14767765998840332,-0.17271201312541962,0.36818572878837585,0.09891866147518158,0.10890480130910873,-0.1245289072394371,0.008802724070847034,-0.07429023832082748,0.02617936208844185,0.21577470004558563,-0.0655597373843193,0.060094818472862244,-0.05970146507024765,0.03160114958882332,-0.18149492144584656,-0.2188854068517685,0.062281589955091476,-0.0481361448764801,0.15257003903388977,-0.19367489218711853,-0.1607116162776947,-0.01721913553774357,0.21497751772403717,-0.1918606460094452,0.011750414036214352,0.07012353092432022,-0.07114111632108688,-0.1141323447227478,0.02342001348733902,-0.11461273580789566,0.16708822548389435,0.040957752615213394,0.16429683566093445,-0.026791654527187347,0.02132076770067215,-0.04067621007561684,-0.11303966492414474,-0.17593729496002197,0.04007843881845474,-0.1889166235923767,0.17443443834781647,-0.1916949301958084,-0.1409996598958969,0.13222451508045197,-0.09018629789352417},{0.17764095962047577,-0.05946377292275429,0.11418042331933975,-0.16527868807315826,0.055400289595127106,-0.009071717970073223,-0.10885966569185257,-0.09837774187326431,0.3094581961631775,0.1997978389263153,0.0735393837094307,-0.056578196585178375,-0.037070874124765396,-0.08435438573360443,-0.11292459070682526,-0.08531967550516129,0.21195976436138153,0.0063460348173975945,0.1018400564789772,0.20067788660526276,0.04781721904873848,0.17637129127979279,-0.14829829335212708,0.1645459085702896,-0.06450270861387253,-0.20539714395999908,-0.008182830177247524,-0.07051198184490204,-0.12239651381969452,0.018204214051365852,0.03932499140501022,-0.09371993690729141,0.15334759652614594,-0.19713334739208221,-0.18194006383419037,-0.21621277928352356,0.07603174448013306,-0.07567741721868515,-0.01270290743559599,-0.15772008895874023,-0.18505440652370453,0.23016825318336487,0.05299881100654602,-0.15346325933933258,-0.0018168569076806307,0.07451760768890381,0.05936393886804581,-0.20828624069690704,-0.2571110427379608,0.053252167999744415,-0.11347173899412155,-0.10129158943891525,0.07921238243579865,-0.10438532382249832,0.001124103437177837,-0.10078181326389313,0.04716993495821953,-0.014884592965245247,-0.03738488629460335,0.03866606205701828,0.09964164346456528,-0.16419219970703125,-0.15168921649456024,0.02306344360113144},{0.2057020664215088,-0.023226387798786163,0.10174097865819931,0.05421394482254982,-0.20186932384967804,0.2669397294521332,0.1151733472943306,-0.011452206410467625,0.1084093227982521,-0.038973886519670486,-0.10154914110898972,0.2656812071800232,-0.14550985395908356,-0.12796886265277863,-0.14275479316711426,0.15339922904968262,0.016440818086266518,0.30562296509742737,0.12101743370294571,-0.044843580573797226,0.04480532929301262,-0.2137943059206009,-0.13054826855659485,-0.19229325652122498,-0.0308502446860075,-0.13235491514205933,-0.19398759305477142,0.05823945999145508,0.02956257574260235,0.13339070975780487,0.09773684293031693,0.034312594681978226,0.15153373777866364,-0.1641915887594223,-0.0334930457174778,-0.05854876711964607,0.07486104965209961,0.2737483084201813,0.025385163724422455,-0.07896152138710022,0.015060622245073318,0.15278476476669312,0.0366608165204525,-0.16146376729011536,-0.09294675290584564,0.09934259206056595,0.10186683386564255,-0.1619902104139328,0.13089677691459656,0.05803908035159111,0.19286547601222992,-0.1581771820783615,0.10203945636749268,-0.12758949398994446,0.11427020281553268,-0.04107265546917915,-0.06705891340970993,0.08389563113451004,-0.041639816015958786,-0.1323188841342926,-0.008217019960284233,-0.13169866800308228,0.009451317600905895,-0.10804606229066849},{0.14448195695877075,-0.028144391253590584,0.1925675868988037,-0.13602164387702942,-0.09625855088233948,-0.10911037027835846,0.09571847319602966,0.05396970361471176,0.11352532356977463,0.10470278561115265,0.2074078619480133,0.09436291456222534,0.1208854615688324,-0.1902589499950409,0.008679211139678955,-0.12361115962266922,-0.10521430522203445,-0.2335990071296692,0.0799345150589943,0.23748737573623657,-0.11487141251564026,-0.046818558126688004,0.1279844492673874,-0.11631973087787628,0.17813515663146973,0.18512748181819916,-0.1324157565832138,-0.04290538281202316,0.12330228835344315,-0.09615882486104965,0.13950149714946747,-0.026892520487308502,-0.12797077000141144,0.1524151861667633,-0.15105290710926056,-0.11682768911123276,0.12698012590408325,-0.14952842891216278,0.23976244032382965,0.06700639426708221,0.05942991375923157,-0.0262248944491148,-0.16513904929161072,0.08096763491630554,-0.1823662370443344,-0.009361735545098782,-0.10768015682697296,-0.09189124405384064,-0.008898487314581871,-0.020042244344949722,-0.11089260131120682,-0.09095542877912521,-0.018499664962291718,0.15847665071487427,-0.1292380392551422,0.17042842507362366,0.02744053490459919,0.018468771129846573,-0.020954443141818047,-0.175803542137146,0.0759817510843277,-0.05230206623673439,-0.07740547508001328,-0.0020128805190324783},{0.08975321054458618,-0.06993888318538666,-0.10411182045936584,-0.1500258445739746,-0.10729918628931046,0.2118147313594818,-0.16063715517520905,0.4053002595901489,0.05266159400343895,0.12924544513225555,0.00927568320184946,0.08424825966358185,-0.15773677825927734,-0.07764369994401932,-0.08853478729724884,-0.19488273561000824,-0.09140574932098389,0.3266738951206207,-0.185911625623703,0.03160005807876587,-0.015898369252681732,-0.22680914402008057,0.004499179311096668,-0.17454540729522705,-0.09567137807607651,0.16604401171207428,0.0769643634557724,0.12740302085876465,-0.053145650774240494,0.01890709437429905,0.04612983390688896,0.17238914966583252,0.14264678955078125,-0.1265840083360672,-0.14908818900585175,0.022034071385860443,-0.2169727236032486,0.16375313699245453,0.2468399703502655,-0.13500481843948364,0.011929458938539028,-0.11776898801326752,0.10465600341558456,-0.11995315551757812,0.002264569513499737,0.01430539321154356,0.05277194082736969,-0.07388681173324585,0.0997738242149353,-0.21770067512989044,0.17001892626285553,0.23756279051303864,-0.030330829322338104,0.006485972087830305,0.10089635848999023,-0.025988835841417313,0.0712679997086525,0.03611535206437111,0.014239131473004818,0.25703346729278564,0.018541032448410988,-0.03786969184875488,-0.21572279930114746,-0.20959007740020752},{-0.12612201273441315,-0.04843297228217125,0.10184109956026077,0.06653278321027756,0.06398871541023254,-0.28030070662498474,-0.03158789873123169,-0.21746785938739777,-0.10788010060787201,0.07547231763601303,-0.04009063169360161,0.07933376729488373,0.04648381099104881,0.1949346661567688,0.12280135601758957,-0.14171577990055084,-0.17531338334083557,-0.21863998472690582,0.26886487007141113,-0.1584024876356125,0.04976096749305725,0.07504396140575409,0.006874353624880314,0.012760682962834835,-0.150113046169281,0.1788226068019867,0.11828051507472992,0.11012034118175507,0.031412381678819656,0.11498521268367767,0.17888621985912323,0.23932938277721405,-0.17658154666423798,0.16043208539485931,-0.26461732387542725,0.14550113677978516,-0.12393336743116379,-0.2447797954082489,-0.04043358191847801,-0.1372811496257782,0.18761207163333893,0.12231417745351791,-0.031923290342092514,0.040585678070783615,-0.029464971274137497,0.051800210028886795,0.027234472334384918,-0.035611946135759354,0.11094710975885391,-0.11762750893831253,-0.07449813932180405,-0.2150648981332779,0.0780266523361206,0.018934741616249084,-0.14495159685611725,0.1555415242910385,0.04100541025400162,0.039492394775152206,-0.08467314392328262,-0.03479438275098801,0.12270782887935638,0.1300535351037979,-0.16044433414936066,-0.05900251492857933},{-0.12657999992370605,-0.010821647942066193,-0.14940884709358215,-0.16690167784690857,0.1419832855463028,0.280849814414978,-0.04918871074914932,-0.0130130834877491,-0.009046289138495922,0.10403943806886673,0.22879548370838165,-0.14110729098320007,0.10116996616125107,-0.06707866489887238,-0.026418009772896767,-0.23723722994327545,0.11563817411661148,0.09083496034145355,-0.19393247365951538,-0.036651499569416046,0.05846300721168518,-0.16154974699020386,-0.20285136997699738,0.11383070796728134,0.0015936543932184577,-0.05907374992966652,0.049373824149370193,-0.009150483645498753,-0.02453237771987915,0.020105818286538124,-0.005149003118276596,0.1657043844461441,0.14540734887123108,-0.1182030662894249,0.1241203173995018,-0.23638750612735748,0.08096949011087418,-0.10449562966823578,0.04204156622290611,-0.12013475596904755,-0.050107259303331375,0.004256999585777521,-0.16669605672359467,-0.009124605916440487,0.24312260746955872,-0.10557427257299423,0.09374711662530899,0.018418706953525543,-0.16423197090625763,0.10591912269592285,0.1127009242773056,0.07982217520475388,-0.12308987230062485,0.26000887155532837,-0.06897110491991043,-0.03816843405365944,0.008808346465229988,0.006038600113242865,0.05328300595283508,0.06479097157716751,-0.15157316625118256,0.18694241344928741,-0.16653527319431305,-0.03683498874306679},{-0.1950298547744751,0.1280393749475479,0.00533958338201046,0.15611083805561066,-0.06018289551138878,-0.09394877403974533,0.010825403966009617,-0.2478414624929428,-0.010401733219623566,-0.09947910904884338,0.015943467617034912,0.09085723012685776,0.008725632913410664,0.09782920777797699,-0.020878635346889496,0.11853493750095367,0.11069192737340927,-0.17179308831691742,0.0616861991584301,-0.020136019214987755,0.14847436547279358,-0.13133710622787476,0.13787433505058289,0.03501506522297859,0.14392174780368805,0.1634790599346161,-0.10250186920166016,-0.12966546416282654,-0.024511145427823067,-0.061787199229002,-0.15338590741157532,-0.05290805175900459,0.1908852756023407,0.061280351132154465,-0.2030285894870758,0.04179178550839424,0.03990783169865608,-0.01606976054608822,-0.04757866635918617,-0.1539478898048401,0.03589341416954994,-0.149907648563385,-0.011929786764085293,-0.16680751740932465,0.08103696256875992,-0.12720519304275513,0.23355156183242798,0.14759686589241028,0.17229685187339783,-0.13920840620994568,-0.15176081657409668,0.027103004977107048,-0.15869323909282684,0.11239755898714066,-0.1534016877412796,-0.08463350683450699,-0.00925946794450283,-0.15530838072299957,0.03557373210787773,0.1884385198354721,-0.1704602986574173,-0.18980886042118073,0.19190102815628052,0.08383749425411224},{0.07022607326507568,0.08081012964248657,0.06798829138278961,-0.14261259138584137,0.061760108917951584,0.05414159223437309,0.07355872541666031,-0.12515012919902802,0.014043746516108513,-0.06496132165193558,0.06290474534034729,-0.024173347279429436,0.1038563922047615,0.06671161204576492,0.055760324001312256,-0.06361164152622223,0.03082662634551525,-0.1580628603696823,0.1357092708349228,0.0036848336458206177,-0.13588961958885193,-0.015296852216124535,-0.022927062585949898,-0.15355567634105682,-0.15737201273441315,0.002186237368732691,0.18783636391162872,-0.070594921708107,0.10960317403078079,0.05607353895902634,0.07123463600873947,-0.07851846516132355,-0.09540083259344101,0.05175652727484703,0.12838639318943024,0.08690989762544632,0.19543933868408203,-0.0725882351398468,-0.10087668895721436,-0.06048297509551048,0.04158027097582817,0.10029496252536774,-0.1369103044271469,-0.09763770550489426,0.11059551686048508,-0.11243198812007904,0.02045362815260887,0.13469518721103668,-0.05976589396595955,0.12293632328510284,0.17672555148601532,-0.28305819630622864,-0.030671501532197,0.12199205905199051,-0.13844871520996094,0.1681421846151352,-0.15792568027973175,-0.11063439399003983,-0.020412283018231392,-0.010225614532828331,0.18238458037376404,0.24606944620609283,0.0546930767595768,-0.13283322751522064},{-0.09866062551736832,-0.24719691276550293,0.20429447293281555,-0.00727490009739995,-0.011560015380382538,0.4020392596721649,0.07095469534397125,0.36180052161216736,-0.08014296740293503,-0.03239624947309494,-0.22852367162704468,0.14362598955631256,0.09340354800224304,-0.018965858966112137,-0.19353555142879486,0.04311243072152138,0.16201673448085785,0.029331233352422714,-0.056915029883384705,-0.24556131660938263,-0.08337093144655228,0.15765875577926636,0.13715417683124542,0.21178512275218964,0.08120664209127426,0.2167808562517166,0.2118753343820572,0.15854783356189728,0.11485761404037476,0.06302609294652939,0.08131268620491028,-0.16844895482063293,0.10948343575000763,-0.2680509388446808,0.05476706102490425,0.16710206866264343,-0.17779609560966492,-0.027878478169441223,-0.07044270634651184,-0.14994700253009796,0.22686418890953064,-0.10473761707544327,-0.02526104263961315,-0.13771852850914001,-0.060321204364299774,-0.027279580011963844,0.1684892475605011,0.19814981520175934,0.12003542482852936,-0.11213764548301697,0.082055002450943,-0.11329033970832825,-0.07148993015289307,0.049521952867507935,-0.07187509536743164,-0.15928833186626434,0.08221402764320374,0.12781311571598053,-0.11000410467386246,-0.23483717441558838,0.1579972803592682,-0.0326191745698452,0.04044264927506447,-0.2672155499458313},{-0.04785221442580223,-0.05023862421512604,0.0897306576371193,0.08245977759361267,0.12301551550626755,0.2588103711605072,0.11001086980104446,-0.05658304691314697,-0.10522288829088211,-0.010547678917646408,0.08606760203838348,-0.18571650981903076,0.03305956721305847,0.023186178877949715,-0.12402993440628052,-0.21041730046272278,-0.1720314770936966,-0.2217366248369217,-0.05347248911857605,-0.05786924064159393,-0.029514934867620468,-0.024942385032773018,0.03603803366422653,0.10141099244356155,0.2349684238433838,-0.061943214386701584,0.1056775152683258,-0.11433836072683334,0.039366066455841064,0.014666489325463772,0.054722025990486145,0.12132604420185089,-0.03977468982338905,-0.23971711099147797,0.01102383155375719,-0.05302629619836807,-0.026302890852093697,0.15561212599277496,0.2409854233264923,-0.10530399531126022,-0.050781238824129105,-0.08946292847394943,-0.037749942392110825,0.05610992759466171,0.05291864648461342,-0.07801306247711182,0.038987595587968826,0.13767607510089874,0.11948134750127792,-0.05228728801012039,0.020731084048748016,-0.15090163052082062,-0.059465307742357254,0.1776207685470581,0.181942418217659,-0.09622704982757568,0.20312298834323883,0.06546280533075333,0.11168845742940903,-0.12913891673088074,-0.17441534996032715,-0.025256525725126266,0.059642158448696136,0.20114830136299133},{-0.008361982181668282,-0.15217602252960205,-0.18204165995121002,-0.12135731428861618,-0.10450316965579987,-0.17089255154132843,0.2955534756183624,0.1165420189499855,0.16008354723453522,0.036575350910425186,-0.07736174762248993,0.04199349880218506,-0.1087857037782669,-0.17027387022972107,-0.08623307943344116,0.0735318660736084,0.1829196810722351,0.016918128356337547,-0.15540017187595367,0.11851312965154648,-0.013840051367878914,-0.20044957101345062,0.2516089677810669,0.12915591895580292,0.05273699015378952,-0.23225757479667664,-0.14944887161254883,0.086113341152668,0.054693955928087234,0.0751667246222496,0.01530191395431757,-0.06479467451572418,0.014784738421440125,0.11308787018060684,-0.17375017702579498,0.12843334674835205,-0.06581634283065796,0.0656205266714096,0.05617634207010269,0.13620665669441223,-0.16484524309635162,0.056584954261779785,-0.3071165680885315,-0.1400231420993805,0.10181523114442825,0.14655794203281403,-0.04032321274280548,-0.2095034122467041,0.11287683993577957,0.19925189018249512,-0.0021945652551949024,-0.09684654325246811,-0.09851258993148804,-0.1845398247241974,0.15753628313541412,0.07477359473705292,-0.13138510286808014,-0.05487356334924698,-0.19045120477676392,-0.15425843000411987,0.04058559611439705,0.23071995377540588,-0.19712068140506744,0.12273672223091125},{-0.02587118372321129,0.14034698903560638,-0.21629561483860016,0.10424358397722244,0.0021036129910498857,0.20651817321777344,0.02822570502758026,0.19032935798168182,0.15037336945533752,-0.0913681909441948,-0.17524652183055878,0.004938269965350628,-0.0998195931315422,0.006397416349500418,0.10186354070901871,0.08346232771873474,0.18198837339878082,0.0636046901345253,-0.20868317782878876,-0.03552008047699928,0.05092562362551689,0.00981468427926302,-0.08775872737169266,0.05043435096740723,-0.09336712956428528,0.24692969024181366,-0.16280479729175568,-0.022131433710455894,-0.010740791447460651,-0.17006629705429077,-0.21318703889846802,-0.094960056245327,0.04022952914237976,0.027375293895602226,0.17534226179122925,0.026725120842456818,0.2906537353992462,-0.3892795443534851,0.03374854475259781,-0.04079121723771095,0.041583720594644547,-0.08020181953907013,-0.03202123939990997,0.01899186335504055,-0.005162250250577927,0.2561127245426178,0.0021605512592941523,-0.12478478997945786,-0.027881503105163574,0.07746654003858566,0.1808905154466629,0.28363022208213806,-0.1457832157611847,0.12744326889514923,0.15740744769573212,-0.09323356300592422,0.10741424560546875,0.17685525119304657,0.14511604607105255,0.0985637903213501,-0.2083965241909027,-0.08350261300802231,0.2707256078720093,-0.13020312786102295},{0.11085592955350876,0.048200350254774094,-0.02440355159342289,0.18586409091949463,0.1579204499721527,0.02939644642174244,0.06260009109973907,0.08384614437818527,0.11325763911008835,-0.13601528108119965,-0.08046823740005493,-0.1236734464764595,0.05673958361148834,-0.05284477397799492,-0.18002568185329437,0.1887860894203186,0.03991762921214104,0.09539465606212616,0.22251954674720764,-0.14041034877300262,0.056580863893032074,0.11185814440250397,-0.15378355979919434,-0.09699150174856186,-0.0912008211016655,-0.1053413525223732,-0.15228459239006042,-0.22152669727802277,-0.0996001660823822,-0.09992019832134247,-0.08229821920394897,0.08968313038349152,-0.014745435677468777,0.13003584742546082,-0.007094485219568014,0.15613171458244324,0.20213483273983002,0.14417880773544312,-0.008948649279773235,0.10265227407217026,0.18327409029006958,-0.013600763864815235,-0.13615572452545166,-0.0787956640124321,0.06706475466489792,-0.18818224966526031,0.14456728100776672,-0.20421825349330902,0.14198020100593567,-0.10626569390296936,-0.05091661587357521,-0.07444305717945099,-0.02620667964220047,-0.03520408645272255,-0.09518146514892578,-0.22989138960838318,0.2636529207229614,0.058248765766620636,-0.1689378321170807,-0.14427141845226288,-0.0433102548122406,-0.14507335424423218,0.15108032524585724,-0.04950213432312012},{-0.1905410885810852,0.07423408329486847,-0.0016935942694544792,0.0646405965089798,-0.16696521639823914,0.4006156921386719,-0.07665909081697464,-0.21191740036010742,0.12627707421779633,-0.0851341038942337,0.09635284543037415,0.11167366057634354,-0.09968361258506775,-0.03854544833302498,0.2392652928829193,0.06234709918498993,0.16274230182170868,-0.3193622827529907,0.21338428556919098,0.16966097056865692,0.09977458417415619,-0.047800928354263306,-0.2000841200351715,-0.026368681341409683,-0.048690151423215866,0.2589966654777527,-0.08605033904314041,-0.13799792528152466,-0.04718494415283203,0.06695325672626495,0.2342909276485443,-0.10326112806797028,-0.023448521271348,0.017937542870640755,-0.11935397237539291,0.10763544589281082,0.016956953331828117,-0.24386659264564514,-0.04486321285367012,0.060562290251255035,-0.14255177974700928,0.2785674035549164,-0.15291890501976013,0.19342292845249176,-0.2237725555896759,0.01026173122227192,-0.07741373777389526,0.014298118650913239,0.046651691198349,0.03688831254839897,-0.08545110374689102,0.04528367519378662,0.111113041639328,0.25324493646621704,0.26807957887649536,-0.08990761637687683,0.052505869418382645,0.007478640414774418,0.07429566234350204,0.09750491380691528,0.09114436060190201,0.16611546277999878,-0.08259108662605286,0.11852181702852249},{0.124587282538414,-0.14641140401363373,0.26477837562561035,0.09869136661291122,0.1668773889541626,0.3048258423805237,0.17672479152679443,0.3556996285915375,0.13873425126075745,-0.16707062721252441,-0.0951954573392868,-0.13280674815177917,0.22142864763736725,0.08616577833890915,-0.04189812019467354,-0.15058758854866028,0.3181402385234833,-0.1516207605600357,-0.09613482654094696,-0.07175654917955399,0.13885857164859772,-0.1787617951631546,0.13210801780223846,0.17386683821678162,-0.08507132530212402,-0.18266257643699646,0.1178673729300499,0.25033506751060486,-0.020924994722008705,0.023978276178240776,-0.10991217195987701,-0.07522819936275482,-0.025357358157634735,-0.045547693967819214,-0.009201006963849068,-0.06871690601110458,-0.14541304111480713,-0.11538748443126678,-0.006815881002694368,-0.01728222891688347,0.14609688520431519,0.2783896028995514,0.007051142398267984,0.00018050381913781166,-0.1485593169927597,0.17486046254634857,0.00692589720711112,0.026084398850798607,0.0018426749156787992,-0.08406973630189896,-0.003887825645506382,-0.0221993550658226,0.18837271630764008,0.19801339507102966,0.1475217640399933,0.10595998913049698,0.06564631313085556,0.010456936433911324,0.13378623127937317,0.14204490184783936,0.19382762908935547,0.08995629101991653,0.07395094633102417,-0.0869583785533905},{0.0035820812918245792,-0.17422547936439514,0.0027201515622437,0.051925912499427795,0.10737340152263641,-0.09763606637716293,-0.07216798514127731,-0.07566812634468079,-0.059348657727241516,0.04779842495918274,-0.06047859787940979,0.07196370512247086,-0.08856530487537384,-0.2450791746377945,-0.08469042181968689,-0.13969972729682922,0.16648520529270172,-0.04261082038283348,0.17636477947235107,0.21620437502861023,-0.2035164088010788,-0.06633681803941727,-0.06650251895189285,-0.16913358867168427,0.15313565731048584,-0.07591676712036133,-0.08275487273931503,-0.0029648062773048878,-0.021099362522363663,0.18705935776233673,-0.20711685717105865,-0.0359141081571579,0.15970711410045624,-0.23156562447547913,0.10154785215854645,-0.09109582751989365,0.023130686953663826,-0.08788520097732544,-0.018513670191168785,-0.031227482482790947,0.16288527846336365,0.02729615569114685,0.001818921067751944,-0.005371073726564646,-0.1220829114317894,0.019596343860030174,-0.06841156631708145,-0.1350826770067215,-0.04497747868299484,0.05293026939034462,-0.0583270899951458,0.09667462110519409,-0.1172521635890007,-0.08198558539152145,0.15015535056591034,-0.11287780106067657,0.0659007802605629,-0.1073879525065422,0.017817554995417595,-0.1246974989771843,0.18472632765769958,0.06575167924165726,0.06302273273468018,0.18269632756710052},{0.1538850963115692,-0.1505962312221527,0.1770528107881546,-0.10475160926580429,-0.062065962702035904,-0.03131930157542229,0.17942030727863312,0.10169126093387604,-0.2269996702671051,0.13050462305545807,-0.215109184384346,0.027645166963338852,-0.1513664871454239,-0.23131154477596283,0.08607034385204315,0.07755690813064575,0.02771911770105362,0.08179598301649094,0.1541135311126709,0.1296725571155548,-0.1746601164340973,-0.08530794829130173,-0.14998212456703186,0.25750723481178284,-0.05570189654827118,0.2360123246908188,-0.11183121800422668,-0.04466036334633827,-0.07217664271593094,-0.09405572712421417,-0.044777896255254745,0.012378295883536339,-0.08046022802591324,0.10558152198791504,-0.09636193513870239,0.06585828214883804,-0.039886463433504105,0.2518751919269562,0.0022746443282812834,0.15818655490875244,-0.21437431871891022,-0.20648443698883057,0.12243659049272537,0.17842450737953186,-0.1374499350786209,0.12881726026535034,0.004411100409924984,-0.09771466255187988,0.10370732843875885,0.06490763276815414,-0.0058767287991940975,-0.08378788083791733,0.13620543479919434,-0.07200322300195694,0.1865154355764389,0.13399209082126617,0.0660434365272522,0.08275395631790161,-0.07918141782283783,0.04941973090171814,0.1614130735397339,0.11578746885061264,-0.2231621891260147,-0.10738170892000198},{-0.12312286347150803,-0.13120639324188232,-0.12134238332509995,-0.04854973033070564,0.020837154239416122,-0.013752555474638939,0.11278119683265686,0.10185479372739792,0.09744591265916824,-0.005545720458030701,-0.1784553974866867,0.12208058685064316,-0.22546453773975372,0.11650118976831436,0.022329822182655334,0.02063467912375927,0.15942899882793427,0.12165716290473938,0.06548028439283371,-0.15363579988479614,0.11555261164903641,0.21157272160053253,0.20634356141090393,-0.025944700464606285,0.012155040167272091,-0.23298776149749756,0.17742961645126343,-0.021749598905444145,0.12338293343782425,0.2516089975833893,-0.09547300636768341,0.14227157831192017,0.07767564058303833,0.14785659313201904,-0.035072289407253265,0.09045662730932236,-0.2202404886484146,0.0036269216798245907,0.2799854576587677,0.03532440587878227,-0.24674010276794434,-0.2564208209514618,0.27910077571868896,-0.043612491339445114,-0.047521479427814484,-0.024978457018733025,-0.16430523991584778,0.08457353711128235,0.020891213789582253,0.03198733925819397,0.12103129178285599,-0.11644043773412704,-0.05533517897129059,0.11399251967668533,-0.14721418917179108,-0.05629509314894676,-0.10415519773960114,0.11042404174804688,-0.27055877447128296,-0.03456694260239601,-0.0026540213730186224,-0.07190670073032379,0.2712138891220093,0.043854475021362305},{-0.1431383341550827,-0.01876934990286827,0.21935655176639557,0.07986482977867126,-0.12625765800476074,-0.039828427135944366,0.09426066279411316,-0.030080268159508705,-0.14693373441696167,-0.11471182107925415,0.11610129475593567,-0.25265729427337646,-0.09539276361465454,0.050732582807540894,0.00545462965965271,0.17771898210048676,0.1430010199546814,-0.02668646164238453,-0.044219084084033966,0.06408161669969559,-0.0705212652683258,-0.25813308358192444,0.014642840251326561,0.024495098739862442,-0.040774665772914886,-0.20218905806541443,-0.11975929886102676,0.21618500351905823,0.10882411152124405,-0.046696737408638,0.1277817338705063,0.1447848081588745,-0.10855510830879211,-0.07629900425672531,0.17617446184158325,-0.05742371082305908,0.057373255491256714,0.14594009518623352,-0.09702550619840622,-0.07719515264034271,0.191257506608963,-0.10783399641513824,-0.18007558584213257,0.11354167759418488,-0.09257423132658005,-0.08326677232980728,-0.08690997213125229,0.22690267860889435,0.16274720430374146,-0.0813731700181961,0.042941007763147354,-0.1756024807691574,-0.21510130167007446,-0.3100188970565796,0.06769727170467377,-0.08257858455181122,-0.05840470641851425,0.05863434448838234,-0.12858299911022186,0.12355852127075195,-0.03046366199851036,-0.19421057403087616,0.016544612124562263,-0.014783255755901337},{-0.1499907523393631,-0.01209525391459465,-0.010513290762901306,0.18552951514720917,0.06497649848461151,0.12377288192510605,0.0751839205622673,-0.2788212299346924,-0.1660481095314026,0.007329192943871021,0.08165271580219269,-0.09919968992471695,-0.0014348695985972881,-0.1684688776731491,0.020860372111201286,-0.17963746190071106,-0.2290107011795044,-0.11136656999588013,-0.09750456362962723,-0.007081617601215839,-0.03457876294851303,-0.2236987203359604,-0.10367503017187119,0.1490136682987213,-0.020490167662501335,-0.18680541217327118,-0.1818816363811493,0.08083409070968628,-0.1219005137681961,0.19858317077159882,-0.233846515417099,-2.064387808786705e-05,0.08638259023427963,-0.1446734368801117,0.07604373246431351,0.06549470871686935,-0.14003324508666992,-0.11435344815254211,0.14599309861660004,0.13603073358535767,-0.14335264265537262,0.22534459829330444,-0.04328184947371483,-0.038981493562459946,-0.10531897842884064,-0.09139719605445862,-0.12567289173603058,0.2197587639093399,0.11766190081834793,-0.02344333380460739,0.3012208938598633,0.12028159946203232,0.09812501072883606,-0.0300400760024786,-0.04248369485139847,-0.11029166728258133,0.11716710031032562,-0.020142734050750732,-0.13957056403160095,0.2878399193286896,0.3120269477367401,-0.24211110174655914,0.04930543154478073,-0.3003685176372528},{-0.0934697836637497,-0.17492002248764038,-0.1267167180776596,0.03023233823478222,0.0694756731390953,-0.022646430879831314,-0.013874114491045475,-0.17978699505329132,0.023105239495635033,0.030334530398249626,-0.10559901595115662,-0.027460360899567604,-0.12291175127029419,0.10769811272621155,0.061733391135931015,0.05612761527299881,-0.05054893717169762,-0.008706696331501007,0.04796748235821724,-0.23372888565063477,-0.08353190124034882,-0.06647956371307373,-0.04674115031957626,-0.08364781737327576,-0.00017406696861144155,0.027573149651288986,0.014223668724298477,-0.11893091350793839,-0.16803255677223206,0.142261803150177,-0.10493289679288864,-0.08907897770404816,0.04935339093208313,0.08741268515586853,0.0019117809133604169,0.0339079387485981,0.19085080921649933,-0.2965517044067383,0.2072337120771408,0.188555046916008,0.005551218055188656,-0.0017247193027287722,-0.07242267578840256,-0.002583541674539447,-0.2362171858549118,0.07675838470458984,0.13492129743099213,-0.1780845671892166,0.06456848233938217,-0.039916522800922394,0.11386973410844803,0.2697814404964447,0.22693587839603424,0.1159844622015953,0.006488197948783636,-0.054709818214178085,-0.16333924233913422,-0.052406083792448044,-0.10694602876901627,0.21928022801876068,-0.05963268131017685,-0.16067615151405334,0.19963981211185455,0.06980102509260178},{-0.0660272017121315,0.13286669552326202,-0.03486882895231247,-0.11551936715841293,-0.002568348776549101,0.020860588178038597,-0.05518781766295433,0.11438474804162979,-0.10326579958200455,0.03052329272031784,-0.10321415960788727,0.14186128973960876,-0.18514660000801086,-0.14573737978935242,0.21579663455486298,0.15040788054466248,0.1299830973148346,-0.1428583860397339,0.10750093311071396,0.05074898153543472,-0.12234541028738022,-0.06726536154747009,-0.13072620332241058,0.08524545282125473,-0.09169387817382812,-0.25441133975982666,0.18128064274787903,0.02572677657008171,-0.10577855259180069,-0.1034572422504425,-0.010192516259849072,0.007963544689118862,0.03772509843111038,0.03216882050037384,-0.09450600296258926,0.09248369932174683,0.006509640719741583,0.11732825636863708,-0.017788812518119812,0.0008500625262968242,-0.12372596561908722,0.1488398164510727,0.06783416122198105,0.03299013152718544,-0.052639082074165344,-0.0689789280295372,-0.19238264858722687,0.1467769891023636,0.12967845797538757,-0.1423717439174652,-0.20430026948451996,-0.2011346071958542,-0.02772574871778488,-0.08540129661560059,-0.12291331589221954,-0.03019857592880726,-0.08400604873895645,-0.1189872995018959,-0.17837810516357422,-0.15966138243675232,-0.19080248475074768,0.14132250845432281,0.11390431225299835,0.1632918417453766},{-0.09529560804367065,0.09652061760425568,-0.07864648848772049,-0.03728219121694565,-0.0324581116437912,0.23496271669864655,0.024117641150951385,0.2811288833618164,-0.207350954413414,-0.0675358697772026,0.24472607672214508,-0.1323043704032898,0.03552382439374924,-0.02149137295782566,0.21481366455554962,-0.1734222173690796,0.01055174320936203,0.07692599296569824,-0.06475111842155457,-0.016157038509845734,-0.15010038018226624,0.04593389108777046,-0.06952404230833054,0.21003291010856628,-0.11353099346160889,-0.0779157355427742,-0.13813520967960358,-0.10537019371986389,0.1402915120124817,-0.04097459465265274,-0.11731180548667908,-0.02267136238515377,-0.04435611516237259,0.12101492285728455,0.1315690577030182,-0.1459392011165619,-0.19525660574436188,0.2240256816148758,-0.23484459519386292,0.1708870530128479,0.19054801762104034,0.09226860851049423,0.14620119333267212,0.06509338319301605,0.209222212433815,-0.16791187226772308,0.019035400822758675,0.1637619286775589,-0.1419920027256012,0.13384942710399628,-0.1004456877708435,-0.1819961965084076,0.038814790546894073,-0.18601103127002716,-0.03266729786992073,0.07906182110309601,-0.15866722166538239,0.05323696509003639,-0.10584930330514908,-0.2086542546749115,-0.15814395248889923,0.09796592593193054,-0.10578656941652298,0.3122260868549347},{-0.06291530281305313,0.12636518478393555,0.09703591465950012,-0.03438582271337509,-0.212723046541214,-0.1728277951478958,0.02284167893230915,-0.2671700417995453,-0.1117222011089325,-0.0044991676695644855,-0.1128302589058876,0.0978577584028244,-0.12967810034751892,0.1456090807914734,-0.002913573058322072,0.09738586843013763,-0.3000373840332031,-0.1956183910369873,0.09525617957115173,-0.01126945298165083,0.12658073008060455,-0.06495819240808487,0.13596320152282715,-0.18201464414596558,0.002117529511451721,0.1380550116300583,-0.20915962755680084,0.050337351858615875,0.1385861337184906,0.11856991797685623,0.10079284012317657,-0.21034125983715057,-0.11590096354484558,0.21878445148468018,-0.19059111177921295,0.16288405656814575,0.036363229155540466,-0.01988770067691803,-0.030008692294359207,-0.04078797250986099,0.003160762367770076,-0.10458684712648392,0.2729296386241913,-0.09194370359182358,-0.2140364646911621,-0.20632128417491913,0.09170857071876526,-0.12762856483459473,-0.07328961789608002,-0.0512109138071537,0.11780004948377609,-0.11541742086410522,-0.06742996722459793,0.07764068990945816,-0.0271882563829422,0.01758578233420849,-0.039705827832221985,0.19938290119171143,-0.030399691313505173,-0.018981734290719032,-0.22433754801750183,0.05297970771789551,-0.08282151073217392,0.18029001355171204},{-0.09580808132886887,-0.18906831741333008,0.09303023666143417,0.05862368270754814,-0.1852360963821411,-0.02429147996008396,-0.1590173989534378,-0.3968912959098816,0.03764403238892555,-0.0577838234603405,-0.24875542521476746,0.046743910759687424,-0.08221041411161423,-0.16086329519748688,0.011294270865619183,0.18006348609924316,0.16775020956993103,-0.3946255147457123,-0.056481800973415375,-0.19665612280368805,-0.13678908348083496,0.17790937423706055,0.04806575924158096,-0.04040338471531868,0.23245851695537567,-0.18899869918823242,0.010538841597735882,-0.09349068999290466,-0.1275036782026291,0.22577054798603058,-0.03079921193420887,-0.013850332237780094,0.25935694575309753,0.20594146847724915,0.06312792748212814,-0.06160980463027954,0.07960781455039978,0.20621860027313232,0.07198940962553024,-0.04327230155467987,0.08877769857645035,0.12484535574913025,-0.17560383677482605,0.18111607432365417,0.03410693258047104,0.05586467683315277,0.11008600145578384,-0.02751097083091736,-0.09477077424526215,0.1711072474718094,0.1629931479692459,-0.06878843903541565,0.12467735260725021,-0.05427603796124458,0.008019497618079185,-0.17598001658916473,0.006265345029532909,0.07227842509746552,-0.038432374596595764,0.12785586714744568,0.18921154737472534,0.07608868181705475,-0.15272241830825806,-0.1692732870578766},{-0.10344862937927246,-0.21892952919006348,0.2400551736354828,0.07555056363344193,-0.11432266235351562,-0.011637164279818535,0.08282870799303055,-0.2405899465084076,0.12222624570131302,0.0645766630768776,-0.18355171382427216,-0.029273731634020805,0.14187583327293396,0.1897660195827484,0.051782120019197464,0.045165229588747025,-0.0850059986114502,-0.1933351308107376,-0.05038664862513542,0.027556942775845528,0.24572442471981049,-0.08601108193397522,-0.17829474806785583,-0.14611272513866425,-0.0874038115143776,0.18045642971992493,0.008112721145153046,0.08804385364055634,-0.11574843525886536,-0.04340386763215065,0.16729849576950073,0.22822251915931702,0.10129379481077194,0.35628175735473633,-0.021293504163622856,-0.10389577597379684,-0.24839724600315094,-0.17351512610912323,-0.18326367437839508,-0.1661282777786255,0.029042406007647514,-0.1673823744058609,0.014864792115986347,-0.21316614747047424,-0.19767004251480103,0.17789216339588165,0.18232575058937073,0.041273996233940125,-0.19156421720981598,-0.19092676043510437,0.031603436917066574,0.18337704241275787,0.004469649400562048,-0.027484430000185966,0.04315321892499924,-0.07657928764820099,0.1330307424068451,0.01931622438132763,0.019825272262096405,-0.006368822418153286,0.17431598901748657,-0.0030368545558303595,-0.11271845549345016,-0.007539154961705208},{0.1426319032907486,-0.10248690843582153,-0.05527300387620926,0.11074921488761902,0.04433780163526535,-0.13654421269893646,0.0837845504283905,-0.29443052411079407,0.05481445789337158,-0.10435722768306732,-0.1968761831521988,0.1335722655057907,0.23648570477962494,0.17060860991477966,-0.07088146358728409,-0.049563344568014145,0.19887782633304596,-0.00015186589735094458,-0.15781377255916595,0.06260760128498077,-0.11469963937997818,0.18958112597465515,0.08179175853729248,0.1266900897026062,-0.010205662809312344,0.16898781061172485,0.042249586433172226,0.14984756708145142,0.16001757979393005,-0.1515074074268341,-0.21962720155715942,-0.15901780128479004,-0.04064325988292694,0.14424943923950195,-0.17243440449237823,0.11180063337087631,-0.18835213780403137,0.04007188230752945,-0.14275220036506653,0.1755012422800064,0.10412731021642685,-0.06282193213701248,-0.04438095912337303,-0.08335535228252411,0.22707507014274597,0.022399507462978363,0.09048700332641602,0.022525014355778694,-0.2625427544116974,-0.16771452128887177,0.10380057245492935,-0.10839249193668365,-0.2350040078163147,-0.2033999115228653,0.14836138486862183,0.024447590112686157,0.02602432481944561,-0.02976471558213234,-0.09114313870668411,-0.0348614901304245,-0.2121129035949707,0.13856232166290283,-0.16504156589508057,0.022048411890864372},{0.2560756206512451,-0.1424160748720169,0.15321898460388184,0.1687144637107849,0.14799681305885315,-0.15405741333961487,0.013570643961429596,-0.11879073828458786,0.16579878330230713,-0.0547536201775074,0.23691554367542267,0.08499106764793396,0.16779515147209167,-0.11730976402759552,0.04472533240914345,0.12663227319717407,0.17336755990982056,0.13947026431560516,-0.12030073255300522,0.0313858725130558,-0.12978637218475342,0.24525666236877441,-0.14341318607330322,-0.1568715125322342,0.0007714136736467481,0.018680380657315254,0.007432518992573023,-0.03628743067383766,0.13701075315475464,-0.2240755409002304,-0.17731539905071259,0.07063230127096176,0.19358600676059723,-0.13487288355827332,-0.18984203040599823,-0.1222323551774025,0.22703492641448975,0.03853517770767212,-0.06724042445421219,-0.013598738238215446,0.22781839966773987,0.10614465922117233,0.17433665692806244,-0.0012276036432012916,-0.2655312120914459,-0.08138725161552429,-0.04277653619647026,0.1951563060283661,-0.006862280424684286,0.15872754156589508,0.15936072170734406,0.11593273282051086,-0.01703689992427826,0.10980148613452911,-0.028974192216992378,0.003223687643185258,0.0381433367729187,-0.10110720992088318,-0.05540056526660919,0.08717953413724899,-0.2604365050792694,0.05016675591468811,0.08070528507232666,0.1403885930776596},{-0.0400390662252903,0.2137327492237091,-0.19814984500408173,0.08303365111351013,0.08247913420200348,0.023864906281232834,-0.05052022263407707,0.4161898195743561,0.1072344183921814,-0.07902859896421432,-0.11706747859716415,0.013962037861347198,-0.1674794703722,-0.07798986881971359,0.13825786113739014,0.02834077924489975,0.07716837525367737,0.15377262234687805,0.12839291989803314,0.22137808799743652,-0.06758935749530792,0.058377139270305634,0.06886795163154602,0.18723441660404205,0.05311356857419014,0.11871840059757233,-0.13509850203990936,0.07035748660564423,0.10580231249332428,0.07162581384181976,-0.15627789497375488,0.05357322469353676,-0.15939506888389587,-0.21925769746303558,0.07583285868167877,0.06530129909515381,-0.22111830115318298,0.0006123103084973991,0.1648532599210739,-0.13406898081302643,0.12563179433345795,-0.23123382031917572,-0.08597294986248016,-0.04559902101755142,-0.09884931892156601,-0.12889260053634644,-0.11570034921169281,0.17113974690437317,-0.03641243278980255,-0.09247221052646637,-0.21253137290477753,0.10709404200315475,0.043576695024967194,0.0020632902160286903,0.044243305921554565,0.10376755893230438,0.11440186947584152,0.04727785661816597,-0.0024145925417542458,-0.05969177931547165,-0.1999482661485672,0.15325994789600372,-0.1601938158273697,0.26799464225769043},{-0.2635583281517029,-0.11899018287658691,0.01610235497355461,-0.12075208127498627,0.04362817481160164,-0.059245165437459946,0.006038533058017492,0.11507468670606613,0.15730497241020203,-0.1338285207748413,0.045342519879341125,-0.08298436552286148,-0.044121596962213516,-0.07283079624176025,-0.02227960340678692,0.19964715838432312,0.12694570422172546,-0.001381553360261023,-0.028270654380321503,-0.03276277333498001,0.14884613454341888,-0.20054562389850616,0.22882577776908875,0.2808535695075989,-0.0149068683385849,0.15857942402362823,0.1418915092945099,0.041939422488212585,0.08495688438415527,0.1729958951473236,0.11209550499916077,-0.2703402638435364,0.1788872331380844,0.06773954629898071,-0.06748976558446884,-0.13997133076190948,-0.14618119597434998,-0.0012364095309749246,-0.1687615066766739,0.039476122707128525,0.19409479200839996,-0.31736862659454346,0.28127118945121765,0.023635156452655792,0.07441756874322891,0.05021354556083679,0.08734467625617981,0.045256804674863815,-0.02227010950446129,0.020121099427342415,0.10451210290193558,-0.14488692581653595,-0.08176584541797638,-0.13363666832447052,-0.15627621114253998,-0.1516551822423935,-0.020352736115455627,0.08085350692272186,-0.03991839662194252,-0.1638728231191635,0.17480504512786865,-0.30794137716293335,-0.18467195332050323,-0.018108971416950226},{-0.05486452206969261,0.2378389984369278,-0.1550815999507904,0.06624606996774673,0.14568082988262177,-0.14136408269405365,0.004365349188446999,-0.009321275167167187,0.16532379388809204,-0.1399407684803009,-0.008073288016021252,0.06433076411485672,-0.139460951089859,-0.048078522086143494,0.15884970128536224,-0.1478201150894165,0.06741134822368622,0.07520315796136856,-0.06621598452329636,0.27716535329818726,0.22318197786808014,0.25657156109809875,0.1291321963071823,-0.01915593631565571,0.19267190992832184,0.28189027309417725,0.07152819633483887,-0.12093481421470642,0.1695697009563446,0.08384352922439575,0.010279810056090355,-0.1738903671503067,-0.24931170046329498,0.0770956501364708,-0.09944891929626465,0.01786153018474579,0.19621390104293823,-0.3065420687198639,-0.0629233568906784,0.01481997687369585,0.20385001599788666,0.07618054002523422,-0.11793161183595657,-0.07509750872850418,-0.22730611264705658,-0.041204050183296204,-0.07121116667985916,0.1971079260110855,0.2024410218000412,0.1416620910167694,0.23187290132045746,0.2930385172367096,-0.1584995537996292,-0.16692133247852325,0.19286637008190155,0.0901874229311943,-0.1163623034954071,-0.14952445030212402,-0.07169439643621445,0.2026200294494629,-0.1003146544098854,-0.33160123229026794,0.2884101867675781,-0.28394800424575806},{0.0319538414478302,0.01633945293724537,-0.029298823326826096,0.04804743081331253,0.1090107336640358,-0.17806266248226166,-0.20056882500648499,-0.1711397022008896,-0.02889995463192463,-0.05531337112188339,-0.08296559005975723,0.15208308398723602,0.2483871877193451,-0.14345306158065796,0.09241471439599991,-0.005009496118873358,-0.12649130821228027,-0.04348408058285713,0.04109245166182518,0.18943452835083008,-0.16141927242279053,0.19945214688777924,-0.0821675956249237,0.16918210685253143,0.11754175275564194,-0.10960235446691513,0.1125362291932106,0.05116903781890869,-0.10417001694440842,-0.16797299683094025,-0.08097879588603973,-0.07789662480354309,-0.0005879628588445485,0.010458752512931824,-0.08389636874198914,-0.04115518927574158,-0.19923362135887146,0.24923573434352875,0.1562940925359726,-0.09525924175977707,0.18105058372020721,0.16937458515167236,0.00848894938826561,-0.06837791949510574,0.13224433362483978,-0.04277549684047699,-0.13066421449184418,-0.08278032392263412,-0.18973103165626526,-0.02028731442987919,-0.20077556371688843,-0.011313632130622864,-0.009376905858516693,0.14401476085186005,0.19624663889408112,-0.1336551010608673,-0.01729626953601837,-0.16209468245506287,0.12031003087759018,0.06193225830793381,-0.07684079557657242,0.16547009348869324,0.05502869933843613,0.27755507826805115},{-0.25198104977607727,0.004301794804632664,-0.12372956424951553,-0.1669238954782486,-0.15642420947551727,-0.1545395851135254,-0.04140530154109001,-0.028928637504577637,0.12877289950847626,-0.015662437304854393,-0.04856058955192566,-0.005145633593201637,0.02309948392212391,-0.11049172282218933,-0.12903545796871185,-0.06258523464202881,0.01788715086877346,0.045583393424749374,-0.013061659410595894,-0.053864140063524246,0.05973614752292633,-0.16516639292240143,-0.2208222895860672,0.1411755532026291,0.1194525733590126,-0.11106398701667786,-0.14869971573352814,0.00322693376801908,-0.13735969364643097,-0.03162098303437233,0.02804996632039547,0.010421044193208218,0.00835817214101553,-0.05542068928480148,0.1296643316745758,-0.006887404248118401,0.10113943368196487,-0.003250505542382598,-0.14317382872104645,0.13296234607696533,0.12386612594127655,-0.21597200632095337,-0.020978301763534546,0.005795275792479515,0.08922355622053146,0.0005706452066078782,0.13029076159000397,0.10801233351230621,0.07093833386898041,0.1220274269580841,0.049829669296741486,0.1602967232465744,-0.18779641389846802,-0.2198406457901001,-0.009147075936198235,0.015584340319037437,-0.12435217201709747,-0.14340995252132416,-0.15523330867290497,-0.1659306436777115,0.20674920082092285,0.12286324054002762,0.03422835096716881,-0.20234695076942444},{-0.11057814210653305,-0.12915517389774323,0.0513840951025486,0.12029603868722916,0.1694098263978958,-0.14024800062179565,0.03435313701629639,0.23101527988910675,-0.19267798960208893,0.08841763436794281,0.025750529021024704,-0.07280062139034271,-0.09922261536121368,0.0651758685708046,0.3199861943721771,-0.2077728509902954,-0.1887446641921997,0.14473290741443634,0.014755929820239544,-0.22815465927124023,0.04806363955140114,0.15991882979869843,0.03905315324664116,-0.20058010518550873,0.1700998693704605,0.2015646994113922,-0.02950989082455635,0.13418802618980408,-0.07591225951910019,0.12101039290428162,-0.03701818361878395,0.1527460813522339,-0.09749973565340042,-0.2847350537776947,0.14151419699192047,0.050502028316259384,0.2387777715921402,0.0780998095870018,0.1018776074051857,0.027010971680283546,0.010022114962339401,0.19247768819332123,0.055135104805231094,0.12298388034105301,-0.15720325708389282,0.1575736552476883,0.06501621007919312,-0.07605742663145065,0.06881137192249298,-0.15974539518356323,-0.07774195075035095,-0.03804222121834755,0.13353540003299713,-0.07339923828840256,0.0732559934258461,0.044138647615909576,0.08201948553323746,0.08278856426477432,-0.14003823697566986,0.048174504190683365,0.060138605535030365,0.1414925456047058,0.005085689481347799,0.028771717101335526},{0.10741201788187027,0.045229315757751465,-0.18431781232357025,-0.054871566593647,-0.2065664529800415,0.1409919410943985,0.24994580447673798,-0.11340083181858063,-0.03750937059521675,-0.026075152680277824,-0.16231419146060944,-0.07276703417301178,0.14049243927001953,0.18125633895397186,0.015186459757387638,-0.13096915185451508,0.11623399704694748,0.09082923829555511,-0.026321055367588997,0.14034590125083923,-0.2166173756122589,0.07405110448598862,-0.14629371464252472,0.1688503473997116,0.18449418246746063,-0.1935548186302185,-0.1604519486427307,-0.3257049322128296,-0.1671556830406189,-0.2039090096950531,0.1777985841035843,-0.1815054714679718,-0.22014126181602478,-0.20474998652935028,0.041370365768671036,-0.152725487947464,-0.04395616054534912,0.05679231509566307,0.2458331286907196,-0.09422124922275543,-0.18793030083179474,0.19173376262187958,0.329802006483078,0.06307360529899597,-0.033527273684740067,-0.10576189309358597,0.08733806014060974,-0.1562192440032959,0.06374053657054901,0.17996536195278168,0.0954795628786087,0.04957673326134682,0.07607526332139969,-0.1025676503777504,-0.02086389809846878,0.03267482668161392,-0.1138242781162262,-0.04114847257733345,-0.0844767764210701,-0.12675513327121735,0.27201375365257263,0.04506553336977959,0.13498859107494354,-0.03170238435268402},{0.07159577310085297,0.04802784323692322,0.0040502180345356464,-0.2199535369873047,0.014326234348118305,0.060656752437353134,-0.06809868663549423,0.07570434361696243,-0.06644561141729355,0.06321750581264496,0.006656742189079523,-0.12355237454175949,-0.15558236837387085,0.09293863922357559,0.01460325438529253,0.08842936903238297,0.14281006157398224,-0.20565807819366455,-0.1185208261013031,-0.04681164398789406,0.032368309795856476,-0.23859575390815735,-0.02396048605442047,-0.20766308903694153,0.08808109164237976,-0.2424057275056839,0.17339494824409485,-0.1062842532992363,0.057296108454465866,-0.058038461953401566,-0.17200542986392975,0.12104033678770065,0.16359812021255493,0.11278713494539261,-0.013114781118929386,-0.003750248346477747,0.003115961328148842,0.15865647792816162,-0.1750349998474121,-0.1654680073261261,-0.13231545686721802,0.16284139454364777,-0.11697648465633392,0.11230982840061188,0.05179508775472641,-0.045436132699251175,-0.16028176248073578,0.08157645165920258,-0.11173799633979797,0.07121161371469498,0.12760551273822784,0.0797153189778328,0.1072750836610794,-0.1494198888540268,-0.16147267818450928,0.06888782978057861,-0.01844259910285473,-0.05241752788424492,-0.15246203541755676,0.13903531432151794,0.06132722273468971,0.24363499879837036,0.24024508893489838,0.052667971700429916},{0.08153463155031204,-0.22503401339054108,-0.06377121806144714,-0.04548441991209984,0.1163204163312912,-0.31910574436187744,-0.013222535140812397,0.025241900235414505,-0.02236103266477585,0.14120864868164062,0.03308075666427612,-0.03903014585375786,0.07233503460884094,-0.024704698473215103,-0.23987750709056854,0.26413288712501526,0.01787150651216507,-0.082639679312706,-0.10274583101272583,-0.24465546011924744,-0.004022927489131689,0.2234877347946167,0.054601412266492844,0.18660712242126465,0.0342150442302227,0.1599934697151184,0.014959460124373436,0.1706760674715042,-0.02726747840642929,-0.18414726853370667,0.20492959022521973,0.19769404828548431,0.1770637035369873,-0.01563243754208088,-0.004519520327448845,0.19471873342990875,-0.204206183552742,0.2662867307662964,-0.1490112692117691,0.1519632190465927,0.14950984716415405,0.14324380457401276,-0.2081017792224884,0.1684887856245041,0.08472369611263275,-0.05030326172709465,0.11174067854881287,0.08587079495191574,-0.06060829386115074,0.05573095381259918,0.09022750705480576,-0.24676597118377686,0.07602617144584656,-0.17624148726463318,-0.11333554983139038,0.06868206709623337,0.22051985561847687,0.08306518197059631,0.011716406792402267,-0.11631611734628677,-0.1428838074207306,-0.026599586009979248,-0.07431153208017349,-0.012477886863052845},{0.19839473068714142,0.11431694030761719,-0.2021007239818573,-0.03769955784082413,-0.143715038895607,0.21307137608528137,0.08831531554460526,-0.07976191490888596,0.02744118683040142,0.2334093153476715,-0.10628972202539444,-0.060800544917583466,0.12484291195869446,0.16985470056533813,-0.08050628006458282,0.19462521374225616,0.008846355602145195,0.3541363477706909,-0.09810952097177505,-0.17773418128490448,-0.02027403935790062,-0.2424917221069336,-0.07878009229898453,-0.0029671592637896538,0.06068441644310951,-0.1282806396484375,0.2340748906135559,0.025202414020895958,0.021152092143893242,-0.19947589933872223,-0.041972462087869644,-0.09460630267858505,0.058059267699718475,0.030686190351843834,0.12508048117160797,0.04373357445001602,0.09188886731863022,0.10784150660037994,0.15995995700359344,0.00035156888770870864,0.16244418919086456,-0.09047078341245651,0.18776461482048035,-0.15517564117908478,0.03547731041908264,0.016958771273493767,0.08967722952365875,0.049728330224752426,0.2518826425075531,-0.03921542689204216,0.17986322939395905,-0.10210387408733368,0.020235484465956688,0.21411406993865967,-0.09474735707044601,0.020425941795110703,-0.18160128593444824,-0.07265419512987137,-0.15822534263134003,-0.05554785951972008,-0.17255569994449615,0.1763315349817276,0.2205885946750641,-0.21072036027908325},{-0.10438690334558487,0.0567937009036541,-0.034133587032556534,0.13026270270347595,0.18335051834583282,-0.09760196506977081,-0.03637683391571045,-0.11944856494665146,-0.014451002702116966,-0.060137249529361725,-0.22739876806735992,0.12632425129413605,0.18058891594409943,0.05859062820672989,0.16138401627540588,0.2156461626291275,-0.21993309259414673,0.11494074761867523,-0.018417775630950928,-0.06980220973491669,-0.11998045444488525,-0.21773764491081238,-0.05216377228498459,-0.10755867511034012,0.19309775531291962,0.03209758922457695,0.029166951775550842,-0.06232128664851189,-0.10688568651676178,-0.1456717699766159,0.0019898724276572466,0.05136225000023842,-0.07982375472784042,0.13129928708076477,0.11790917068719864,-0.04091484844684601,-0.16034328937530518,0.1815972626209259,0.13136442005634308,0.04305732622742653,-0.10634885728359222,-0.1561114639043808,-0.20845690369606018,0.050167378038167953,0.12274649739265442,-0.18226973712444305,-0.05480661988258362,-0.2576373815536499,0.09308093041181564,0.03144204616546631,-0.029523231089115143,-0.08383208513259888,-0.08253680169582367,0.15875165164470673,0.031096335500478745,0.11946587264537811,0.06863126158714294,0.07883868366479874,0.016254574060440063,0.04258912801742554,0.25413668155670166,0.21057233214378357,-0.03955187276005745,-0.011289790272712708},{0.013961252756416798,-0.1541595607995987,-0.13705852627754211,-0.02382255159318447,0.22325755655765533,-0.16456641256809235,0.10050351917743683,-0.24573169648647308,0.10480301082134247,0.16993556916713715,-0.09069868922233582,-0.21416935324668884,0.0005813756142742932,-0.01184271089732647,0.07557909190654755,-0.21462492644786835,-0.08805423974990845,-0.18947625160217285,0.1337524950504303,-0.12739987671375275,0.019836468622088432,0.07203809916973114,0.0011681534815579653,0.1908092349767685,0.03589806705713272,-0.09458780288696289,0.11480049788951874,-0.027357010170817375,-0.014309227466583252,0.1717870831489563,-0.050895340740680695,-0.17440170049667358,-0.016276223585009575,0.10301065444946289,0.07662978768348694,0.12993037700653076,0.023243483155965805,-0.16072949767112732,-0.1642785221338272,0.14517329633235931,0.04411449283361435,0.10808467119932175,-0.13623939454555511,-0.13701701164245605,-0.028452133759856224,-0.023735567927360535,-0.1779140681028366,0.019528832286596298,-0.17414289712905884,0.04947685822844505,-0.09605216979980469,-0.1362001597881317,0.162968248128891,0.04871587082743645,-0.10535117983818054,-0.11071718484163284,0.11051122844219208,0.18540439009666443,0.06739015132188797,-0.15783560276031494,0.19744999706745148,0.08418116718530655,0.07683119922876358,0.12194384634494781},{-0.18223652243614197,-0.16356875002384186,0.044362880289554596,0.03228059783577919,0.031924206763505936,-0.1605382114648819,0.03420647978782654,0.08108460158109665,-0.17735080420970917,-0.09702938050031662,0.06765750050544739,0.014196176081895828,0.19146578013896942,-0.04565912112593651,0.011443665251135826,0.10351633280515671,0.03841106966137886,0.06919924914836884,-0.09817221760749817,0.07622174918651581,-0.2249053716659546,0.2980976402759552,-0.20861929655075073,0.1528029441833496,0.21709272265434265,0.2134915441274643,-0.07557948678731918,0.03642193600535393,0.030380140990018845,-0.2214006930589676,-0.053076013922691345,-0.16623929142951965,-0.0014278254238888621,0.25130248069763184,0.011732751503586769,0.20340406894683838,-0.11149273812770844,-0.12281011790037155,0.14386719465255737,-0.05570688098669052,0.18927393853664398,0.05868018418550491,0.08326621353626251,0.13374830782413483,0.04400375112891197,0.039148733019828796,0.058480169624090195,-0.15697526931762695,0.14925643801689148,0.15561114251613617,0.01491369865834713,0.11264923959970474,-0.008372378535568714,-0.22656935453414917,-0.03479703143239021,-0.14572204649448395,-0.12280207872390747,-0.047243159264326096,-0.1755882352590561,-0.21098168194293976,-0.14262665808200836,0.1377725750207901,-0.10159184038639069,0.10947539657354355},{0.06502857804298401,0.018049832433462143,0.1770455688238144,0.21374855935573578,0.14865463972091675,0.11223872750997543,0.044623441994190216,0.27873826026916504,-0.10151000320911407,-0.0714823380112648,-0.16138599812984467,-0.0793754979968071,-0.19591538608074188,0.39679786562919617,-0.06866063177585602,0.10452818870544434,0.09391895681619644,0.18318675458431244,0.14578744769096375,-0.027888575568795204,0.08088841289281845,0.17099525034427643,-0.07338301837444305,0.10552036017179489,-0.016264935955405235,-0.0982448011636734,-0.0721675381064415,-0.21628116071224213,-0.004525444936007261,0.18054194748401642,0.1322258710861206,-0.1780046969652176,0.13896451890468597,-0.3078177571296692,-0.017184996977448463,0.240366593003273,-0.22280235588550568,0.045822873711586,0.17117349803447723,-0.09426642209291458,-0.2144491970539093,0.1260937601327896,0.029858240857720375,0.28568655252456665,0.041908424347639084,-0.13406340777873993,-0.09375202655792236,0.12331575900316238,-0.21188984811306,0.08531251549720764,-0.171225905418396,-0.1004650816321373,0.09874031692743301,-0.07460232824087143,-0.057866983115673065,-0.21545810997486115,0.06095772609114647,-0.08881159871816635,-0.1990884393453598,-0.1624113768339157,-0.1574488878250122,0.09597913175821304,0.15486590564250946,0.015435067936778069},{0.04070241376757622,-0.04348291456699371,0.010974227450788021,0.21165111660957336,0.14330151677131653,-0.0007142391405068338,-0.020016534253954887,-0.008734923787415028,-0.12570305168628693,-0.1099613755941391,0.15194617211818695,0.10990534722805023,0.18888550996780396,0.06828507781028748,0.1454484462738037,-0.226683109998703,0.22955068945884705,-0.1365634649991989,0.0216415636241436,0.08650640398263931,-0.01841123402118683,-0.05274233967065811,0.025683002546429634,-0.12407176941633224,-0.024387717247009277,0.05594959110021591,-0.028121929615736008,0.17450417578220367,0.047974225133657455,0.0844515785574913,0.0590103454887867,-0.015000337734818459,0.19049222767353058,-0.087740458548069,-0.05060528963804245,0.11226754635572433,0.1382075846195221,0.04241892322897911,-0.21715596318244934,-0.18418823182582855,-0.164866641163826,-0.1087920218706131,-0.033489469438791275,-0.026513027027249336,0.06640727072954178,0.15090875327587128,0.0687021017074585,0.05949283391237259,-0.0450274683535099,0.02263399213552475,-0.04552987962961197,0.06437557190656662,0.015717338770627975,0.05532439425587654,0.03662171587347984,-0.07568950951099396,0.025550642982125282,0.06854339689016342,0.12985756993293762,-0.2548576295375824,0.18581277132034302,0.07419214397668839,0.11127498000860214,0.2351444512605667},{0.12663406133651733,0.08741524070501328,-0.11886732280254364,0.24815726280212402,0.14336371421813965,0.19980983436107635,0.11422351002693176,0.005229884292930365,0.05474213510751724,-0.11186491698026657,0.1152818500995636,-0.020576879382133484,0.10726363211870193,0.10599524527788162,0.09801659733057022,-0.1991371512413025,-0.017533687874674797,0.2730152904987335,-0.09491856396198273,0.03550858795642853,-0.07400055974721909,-0.0768873542547226,0.17674803733825684,-0.010797509923577309,0.08075804263353348,0.08174694329500198,-0.004153641872107983,0.005369079764932394,-0.02513222023844719,0.12558916211128235,-0.1863451898097992,0.24385075271129608,-0.08890987187623978,-0.1299237310886383,0.1375599056482315,-0.13114865124225616,-0.052316028624773026,-0.031236104667186737,-0.109393410384655,0.11149578541517258,-0.16831675171852112,0.1333143413066864,0.2708573043346405,-0.009939400479197502,0.07421311736106873,0.054426077753305435,-0.043770305812358856,-0.10819414258003235,-0.06979665160179138,-0.034131310880184174,-0.15767738223075867,0.23633688688278198,-0.05831877142190933,-0.01725837215781212,0.20977377891540527,-0.08220956474542618,0.06888429075479507,0.10596638172864914,-0.016309252008795738,-0.017224889248609543,-0.003053826978430152,-0.031154125928878784,-0.11828511208295822,0.016114911064505577},{-0.09953849762678146,-0.16553862392902374,0.06731477379798889,-0.34851962327957153,-0.27033448219299316,0.5351424217224121,-0.026536911725997925,-0.13061030209064484,0.08383183181285858,-0.06778492778539658,-0.18166671693325043,-0.1891055852174759,0.16906316578388214,-0.0932331383228302,0.022319089621305466,0.10840499401092529,-0.09704709053039551,0.2598951458930969,0.13178537786006927,0.10791517794132233,0.18622951209545135,-0.2640841603279114,-0.08346179872751236,0.12395987659692764,-0.09394285827875137,-0.08742166310548782,0.031054917722940445,0.14065763354301453,0.15309174358844757,-0.17328865826129913,-0.10933519154787064,-0.0732930526137352,0.1925724744796753,-0.3073279857635498,-0.15731002390384674,-0.2628737688064575,0.043956201523542404,0.027545256540179253,-0.15766791999340057,0.20115888118743896,0.26661887764930725,-0.01709253154695034,0.42580607533454895,0.12476939707994461,-0.1545993983745575,0.10719354450702667,0.15299323201179504,0.03339299559593201,-0.21605494618415833,-0.09847080707550049,-0.24949273467063904,-0.15481328964233398,-0.18886832892894745,0.008562515489757061,0.08505221456289291,-0.14470748603343964,0.09043241292238235,-0.18375657498836517,0.0014457700308412313,0.1608518660068512,0.24180474877357483,0.06659601628780365,-0.1942290961742401,0.1613873541355133},{-0.13047456741333008,-0.20181825757026672,-0.1486516147851944,0.01803308166563511,0.19187401235103607,-0.16680920124053955,-0.11553362756967545,0.13897036015987396,-0.16492371261119843,0.12103966623544693,0.14660145342350006,0.11106638610363007,0.26184919476509094,0.11156442016363144,0.04621196165680885,-0.04406393691897392,0.14419904351234436,-0.24770772457122803,0.052009787410497665,-0.2149658203125,0.0638417899608612,-0.18345801532268524,-0.17972013354301453,0.10180255025625229,0.1606716811656952,-0.0019120776560157537,-0.08114154636859894,0.03884927183389664,0.12967972457408905,-0.0974670946598053,-0.11543352901935577,-0.1866965889930725,-0.22273333370685577,-0.3792899250984192,0.10746924579143524,0.06883445382118225,-0.21210840344429016,-0.10501056909561157,-0.08350091427564621,0.23406784236431122,-0.0038497585337609053,-0.15523980557918549,-0.16708864271640778,0.022655196487903595,0.18569393455982208,-0.15507347881793976,0.11236607283353806,-0.1601577252149582,-0.05156461521983147,0.14270643889904022,0.22884482145309448,0.0691983625292778,0.10602718591690063,0.2118188589811325,-0.06061675027012825,-0.004843839909881353,0.23329365253448486,-0.18317720293998718,0.08543745428323746,0.049796249717473984,0.0616644024848938,-0.010435942560434341,0.15459710359573364,-0.19033236801624298},{-0.0298428013920784,0.06097513064742088,0.07772202044725418,0.09089820832014084,0.21026833355426788,-0.07476676255464554,-0.030137954279780388,0.2094544619321823,-0.09561627358198166,0.0344514437019825,-0.21142524480819702,0.024719353765249252,-0.06256003677845001,0.034732699394226074,0.05507110431790352,-0.03373568505048752,0.19085602462291718,0.18246465921401978,0.11097696423530579,0.06307706981897354,0.02531099133193493,-0.16797225177288055,-0.0378618948161602,-0.08674360811710358,-0.17631973326206207,-0.15836311876773834,-0.09137261658906937,-0.06640490889549255,0.06974905729293823,-0.08392710983753204,-0.11558139324188232,-0.015898657962679863,-0.21425262093544006,-0.09723809361457825,0.1780778020620346,-0.16554173827171326,-0.16434159874916077,0.0039556678384542465,0.09469709545373917,0.05179469287395477,0.15711750090122223,0.11507289111614227,0.24638541042804718,-0.05734149366617203,0.17637977004051208,-0.08461152017116547,0.023705344647169113,-0.02718115597963333,0.02914240211248398,-0.12054816633462906,0.1989249736070633,0.055907562375068665,-0.07003581523895264,0.013012368232011795,-0.27751147747039795,-0.06414836645126343,-0.02102111466228962,0.018998008221387863,0.051446110010147095,0.06815242767333984,0.08669223636388779,0.01438927836716175,-0.24182520806789398,0.21389254927635193},{0.21169355511665344,-0.0036916995886713266,0.03737125173211098,0.2107585072517395,0.13368958234786987,0.26517316699028015,0.10662891715765,0.16960857808589935,0.13523389399051666,-0.17313431203365326,0.16435888409614563,-0.00978805124759674,0.03932327777147293,-0.15122881531715393,0.1750035136938095,-0.16110529005527496,-0.19951729476451874,0.367937296628952,0.020242149010300636,-0.12190297991037369,-0.02089531533420086,-0.2993268370628357,0.11316058784723282,-0.10795627534389496,0.11235340684652328,-0.1605374813079834,-0.09916888177394867,-0.08881422132253647,-0.001221942831762135,0.03596237674355507,-0.07197175920009613,-0.027908187359571457,-0.022452324628829956,-0.21126750111579895,-0.08700819313526154,0.12965792417526245,0.0032989613246172667,0.1846884787082672,0.005402674898505211,0.092751644551754,-0.011874312534928322,0.15844722092151642,-0.16719406843185425,0.09291869401931763,-0.08062821626663208,0.19669806957244873,0.11012531816959381,-0.1670771837234497,-0.1327175796031952,0.207886204123497,0.06949574500322342,-0.15698984265327454,0.1833229511976242,0.11864897608757019,0.03766467422246933,0.07583755999803543,0.06833759695291519,-0.0017926127184182405,0.14250317215919495,0.2093648612499237,-0.10387208312749863,0.1003912165760994,-0.020207855850458145,0.19486230611801147},{0.09415678679943085,0.0813860148191452,-0.0023346254602074623,-0.09663218259811401,-0.07483832538127899,-0.037052497267723083,0.16392183303833008,0.06797530502080917,-0.06626920402050018,0.1543559730052948,-0.12042934447526932,-0.017022322863340378,0.1016581729054451,0.08515990525484085,0.006137300748378038,-0.13507966697216034,-0.047227900475263596,0.08277059346437454,-0.060562290251255035,0.0792192742228508,0.04190463945269585,-0.02289486862719059,-0.05735822021961212,0.15197637677192688,-0.08368336409330368,0.09504754841327667,0.15553152561187744,0.0075441449880599976,0.10602796822786331,-0.05789701268076897,0.06820296496152878,-0.07815075665712357,-0.1694711297750473,0.2067669928073883,0.09309408813714981,-0.08146139234304428,0.13648439943790436,-0.05115317553281784,-0.15858972072601318,0.20826977491378784,-0.08636839687824249,0.1002034991979599,-0.06123340129852295,-0.00041507204878143966,0.09361348301172256,0.08381450176239014,0.026622537523508072,0.16248220205307007,-0.22180217504501343,-0.09233327209949493,-0.18386860191822052,0.10050796717405319,-0.12433010339736938,-0.1744697242975235,-0.10689418017864227,0.24741187691688538,-0.12407741695642471,-0.1367194950580597,0.1055358499288559,0.05325818806886673,0.017427917569875717,-0.19089142978191376,0.15986360609531403,0.14612601697444916},{-0.011750195175409317,-0.10173992067575455,0.06830946356058121,0.03503365069627762,0.00836690329015255,0.1706935614347458,0.09985879808664322,0.2625621259212494,0.13340850174427032,-0.08207226544618607,-0.08468443155288696,-0.1777878999710083,0.16322468221187592,0.16919325292110443,-0.10759579390287399,-0.2274325042963028,0.19764934480190277,0.02085956744849682,-0.09077413380146027,0.0021794091444462538,-0.11995156854391098,-0.1367873251438141,0.02992589771747589,-0.09051577001810074,0.18479610979557037,-0.06932415068149567,-0.08503697067499161,0.13558968901634216,-0.1485128551721573,0.1513446718454361,-0.001616158289834857,0.04453125223517418,0.16726462543010712,-0.0526338666677475,-0.01876797527074814,0.16672515869140625,0.13638810813426971,-0.11200658231973648,-0.10394294559955597,0.16949911415576935,-0.04784989729523659,-0.046510566025972366,-0.07464494556188583,0.17403565347194672,0.005065978970378637,-0.04056749492883682,0.0548785999417305,0.09069681167602539,0.07718188315629959,0.16040688753128052,-0.12350665777921677,-0.03174809738993645,-0.14008395373821259,-0.19975242018699646,-0.11719916760921478,-0.05764693766832352,-0.19589871168136597,0.16528180241584778,0.07245892286300659,-0.00229416461661458,-0.09043248742818832,-0.19865041971206665,-0.1821495145559311,0.0938582792878151},{0.10654686391353607,0.11654514074325562,-0.09723836183547974,0.029199928045272827,0.1505582630634308,0.042574431747198105,-0.0174835454672575,0.1907871812582016,-0.12297595292329788,0.04548880457878113,0.22997432947158813,0.11746471375226974,0.17836619913578033,0.06168143078684807,-0.15507224202156067,-0.026940088719129562,0.10190746188163757,0.083389051258564,0.14899928867816925,0.0361814983189106,-0.13806374371051788,-0.1618000864982605,-0.03558726608753204,0.1849568486213684,-0.03377925232052803,-0.1341468095779419,0.14965692162513733,-0.09419930726289749,-0.03673218935728073,-0.07256843149662018,0.11332716047763824,-0.22801877558231354,-0.23435291647911072,0.1477799117565155,-0.1970040500164032,0.15353268384933472,0.016678383573889732,0.0719417855143547,-0.14718571305274963,-0.006854632869362831,0.17678092420101166,-0.24884483218193054,0.2760043144226074,0.13863025605678558,0.08447740226984024,-0.0696587935090065,-0.11155062913894653,0.18033605813980103,0.2132844477891922,0.17995411157608032,0.2313365489244461,-0.1195216104388237,0.049753010272979736,-0.12605196237564087,0.12672224640846252,0.08486182242631912,0.16876277327537537,0.018991807475686073,0.049832142889499664,0.1350724846124649,-0.19339030981063843,-0.15670377016067505,-0.2148926556110382,-0.027613071724772453},{0.0018233208684250712,0.06034998223185539,0.18659625947475433,-0.26599395275115967,0.14974218606948853,-0.022278619930148125,0.13389666378498077,-0.20165102183818817,0.23112747073173523,-0.11887239664793015,0.1511211097240448,-0.09154096245765686,0.07877609878778458,0.046381961554288864,0.07942844182252884,-0.21227936446666718,0.23369784653186798,-0.14379119873046875,0.03930724784731865,0.0037580078933387995,0.11913065612316132,0.1632634401321411,0.108921580016613,-0.007552120368927717,0.19221366941928864,-0.1851438730955124,0.15481305122375488,0.07839804887771606,-0.005668881814926863,0.14259326457977295,-0.10076761990785599,-0.17620989680290222,-0.050786469131708145,-0.07226073741912842,0.13974423706531525,0.14422735571861267,-0.19113989174365997,0.23202435672283173,-0.189166858792305,0.056509241461753845,0.1438727080821991,0.03816432133316994,0.1020415797829628,-0.16645929217338562,-0.03468168154358864,0.11913008987903595,0.19841808080673218,-0.003068526741117239,-0.20186689496040344,-0.15229956805706024,-0.16662593185901642,0.06010635197162628,0.09922494739294052,0.011557585559785366,0.17891167104244232,-0.1401640772819519,-0.1557028591632843,-0.2046641856431961,-0.10832656919956207,0.08007095754146576,0.019836360588669777,-0.05741577222943306,0.05311118811368942,0.11246460676193237},{0.172430619597435,-0.21109804511070251,-0.19138140976428986,-0.01688852347433567,-0.1434294432401657,-0.04305977374315262,-0.1569545567035675,-0.03453166037797928,0.19337888062000275,0.22043053805828094,-0.1696353554725647,-0.029056591913104057,0.19955730438232422,0.12649953365325928,0.1863582730293274,-0.12555186450481415,-0.08276350796222687,-0.3383423388004303,0.11495295912027359,-0.10782893747091293,0.1482013463973999,0.22288411855697632,-0.14019477367401123,-0.0700833797454834,0.1432148516178131,0.047943878918886185,0.07710029184818268,0.031998828053474426,-0.048386070877313614,0.093414306640625,-0.14009907841682434,0.13229110836982727,0.09603238105773926,0.18185211718082428,-0.019722476601600647,-0.03837490826845169,0.003736121580004692,-0.04042268544435501,0.1498081535100937,-0.035053007304668427,0.21844111382961273,0.19490158557891846,-0.16659174859523773,0.029812147840857506,-0.08871041238307953,-0.04365792125463486,-0.17826108634471893,0.004275126848369837,-0.26774370670318604,-0.14178524911403656,-0.12252157926559448,-0.29814860224723816,0.12612468004226685,-0.02226022630929947,0.07450009137392044,-0.08155850321054459,0.057840753346681595,0.08158139139413834,-0.05135298892855644,-0.0785885825753212,0.1164029911160469,-0.12599065899848938,0.015431796200573444,0.16315485537052155},{-0.1002272367477417,-0.07136043906211853,0.012711615301668644,-0.10273950546979904,0.0034607797861099243,0.036525025963783264,-0.08180208504199982,-0.10980870574712753,-0.15336744487285614,0.05178394541144371,0.15089285373687744,0.14001958072185516,0.011793884448707104,0.19665281474590302,0.04124986380338669,0.061130695044994354,-0.03090006671845913,0.27772581577301025,0.002883871551603079,0.08692304790019989,-0.20036953687667847,0.13416330516338348,0.2010396420955658,0.17908695340156555,-0.056731827557086945,-0.11779221892356873,-0.08922215551137924,0.09810563176870346,0.12120196223258972,-0.06643032282590866,-0.07695438712835312,0.11629138886928558,-0.20912399888038635,-0.09333707392215729,-0.06436806917190552,0.06606854498386383,0.13483333587646484,-0.19481343030929565,0.09914667159318924,-0.032119814306497574,0.09985844790935516,-0.05201366916298866,0.06845172494649887,-0.058787476271390915,0.047580499202013016,0.10345130413770676,0.07683783769607544,0.050366222858428955,0.17536993324756622,-0.0003835318493656814,-0.10181548446416855,0.09435240924358368,-0.007941375486552715,-0.11894891411066055,0.21951523423194885,0.047541309148073196,0.09589896351099014,0.16773270070552826,-0.05054675415158272,-0.0015103386249393225,-0.03654513508081436,0.029911594465374947,-0.09903362393379211,0.0003363407449796796},{-0.2962067425251007,0.17917820811271667,-0.1351318061351776,-0.006139625795185566,0.04316769167780876,-0.11592952162027359,-0.24486376345157623,0.009844256564974785,0.03457527235150337,-0.1283140331506729,0.00030142199830152094,0.08104308694601059,0.07966379821300507,-0.08818572759628296,0.149240642786026,0.06722764670848846,0.02244459092617035,-0.09798147529363632,-0.2090744823217392,-0.031388185918331146,0.21191507577896118,0.081231489777565,-0.023105958476662636,0.08095678687095642,-0.015939444303512573,0.20107434689998627,-0.06242590397596359,-0.11116213351488113,-0.09737367928028107,0.08336234837770462,-0.2010040432214737,0.07951441407203674,-0.20874914526939392,-0.20438313484191895,0.12985368072986603,0.024057956412434578,-0.08737262338399887,0.21463987231254578,0.17865070700645447,-0.053034331649541855,-0.13023613393306732,0.061976443976163864,-0.1310669481754303,-0.014039701782166958,0.09586144238710403,-0.017094261944293976,0.1419612318277359,0.07171180844306946,-0.1974240243434906,0.1535196304321289,-0.08674667030572891,-0.08423911780118942,0.015652062371373177,-0.16335363686084747,-0.030810119584202766,-0.023833807557821274,0.04244055598974228,0.06425940245389938,-0.04624570533633232,-0.14843517541885376,0.07028519362211227,-0.2265719473361969,-0.05191590636968613,0.013470221310853958},{-0.057740576565265656,0.05056861415505409,-0.08276483416557312,-0.1770746260881424,0.0679640844464302,-0.04584210738539696,-0.13517990708351135,0.13245005905628204,-0.1620832085609436,-0.05694715678691864,-0.12636156380176544,0.12473001331090927,0.05985492467880249,0.09231193363666534,0.17726269364356995,0.08984842151403427,0.03204986825585365,0.3399004340171814,-0.06720421463251114,0.11546672880649567,-0.12439702451229095,-0.04997061938047409,0.12635575234889984,-0.15688647329807281,0.15749983489513397,0.08876311033964157,0.16156485676765442,0.19250939786434174,0.029543524608016014,-0.0963684692978859,-0.0724862590432167,-0.06702569127082825,-0.16401013731956482,0.0003528888919390738,0.020575804635882378,-0.037692368030548096,0.0194023959338665,-0.036963384598493576,0.014868692494928837,0.14296527206897736,0.15122054517269135,-0.1443909853696823,0.10514776408672333,0.10970886051654816,-0.17670288681983948,-0.05397353321313858,0.09490803629159927,0.07637005299329758,0.1461138129234314,-0.1446647047996521,-0.059152666479349136,-0.026888243854045868,0.11902233958244324,-0.09718663990497589,0.11149409413337708,0.12940776348114014,0.21130181849002838,-0.18987564742565155,-0.09217366576194763,0.26954543590545654,0.12680116295814514,0.1863352358341217,0.2372167855501175,-0.19766312837600708},{-0.17965705692768097,0.054509636014699936,-0.20168131589889526,-0.14788320660591125,-0.01357937976717949,0.38503217697143555,0.13187968730926514,0.40709438920021057,-0.09441954642534256,0.10613324493169785,0.21364709734916687,0.20931032299995422,0.0984092578291893,0.025944171473383904,-0.1265251189470291,0.2371155321598053,0.10873541980981827,0.3239063620567322,0.07486777007579803,-0.20935775339603424,0.18203657865524292,-0.21176032721996307,0.17452389001846313,0.01873655617237091,0.11621895432472229,0.21592013537883759,0.12119504809379578,-0.042010050266981125,-0.19615188241004944,-0.05588284507393837,0.17484545707702637,0.012272103689610958,0.011512333527207375,0.07241621613502502,-0.06451989710330963,0.051834553480148315,0.16560132801532745,0.2409437745809555,-0.07886253297328949,0.013880394399166107,-0.2098546326160431,0.13185660541057587,0.17034973204135895,-0.17777703702449799,-0.20361195504665375,0.12201216071844101,-0.08689293265342712,-0.07817324250936508,0.08539916574954987,-0.14836615324020386,0.19111879169940948,-0.13864532113075256,-0.028753817081451416,0.23582641780376434,-0.04793817549943924,0.16972000896930695,-0.1635613590478897,0.15731927752494812,-0.02368137054145336,0.22541970014572144,0.08467436581850052,-0.17438726127147675,0.0023948075249791145,0.19298893213272095},{0.04647303372621536,-0.19256378710269928,0.08008891344070435,-0.03935369849205017,-0.07330486178398132,-0.03232472762465477,-0.019548989832401276,0.1288280487060547,0.08534883707761765,-0.016127267852425575,-0.18731720745563507,-0.12567828595638275,