-0.1863851,-0.08252947,0.073316015,-0.037180267,0.03884652,0.13771269,-0.049266636,-0.0283719,0.37167135,-0.54602116,-0.24301378,0.1523747,-0.14386278,-0.07985985,0.05953741,-0.5291994,0.059087407,-0.05752653,0.05757568,0.088637464,-0.021152215,-0.11922315,0.103383556,0.009636994,0.044308815,-0.2452478,-0.09463942,-0.32674447,-0.2066363,0.29734772,-0.16388437,0.0950149,0.08263985,-0.16527426,0.014242632,0.10195462,-0.74016887,-0.056359977,-0.25066942,-0.10024619,0.2643701,-0.12175329,-0.115319125,-0.2560986,-0.04698741,0.12846163,0.04103026,0.24978413,-0.021058377,-0.14416389,-0.18978974,0.28467053,-0.20436978,-0.08959609,-0.032749217,-0.06916838,0.17942542,0.06332291,-0.14220658,-0.07142801,-0.20334044,0.024493039,-0.7871081,0.12384629
-0.020201096,-0.0023587928,-0.03765536,0.004532457,-0.004201333,-0.008894401,-0.017840482,-0.0049481965,-0.005188617,0.024555704,0.012616394,-0.024249395,0.0044323867,0.043051574,0.0024032132,0.02151973,-0.006842038,0.08004404,-0.06702867,-0.042316187,-0.24567269,0.06035035,-0.08545079,-0.079709895,-0.07669644,0.03867815,0.036606967,0.34023806,0.051478226,-0.001332049,-0.16469276,-0.018612977,-0.016801085,0.0049945093,-0.010281395,0.039524578,0.098827615,-0.056386888,0.028944638,-0.0015150546,-0.013225315,0.07584186,0.012223491,-0.1973501,-0.029647822,-0.32884043,0.08397789,0.06427376,-0.038022466,-0.04018375,0.04299975,-0.07639229,-0.11493729,-0.07345244,-0.023547417,-0.1205389,0.009321877,-0.07944061,-0.07599491,-0.039874755,-0.025018092,0.20429544,-0.013358796,-0.023493962
-0.01251776,-0.037491553,-0.048874404,-0.006305442