static const float layer_0_weight[18][64] = {{-0.4010074734687805,-0.3861864507198334,0.12545427680015564,0.13809487223625183,0.23721078038215637,0.544942319393158,-1.2570418119430542,0.25728991627693176,-1.1760311126708984,0.30747008323669434,0.2719569504261017,-0.08448228240013123,0.46412935853004456,-0.6028745770454407,0.5105215311050415,-0.12472429871559143,-0.7095702290534973,-0.3586203455924988,-0.0977204442024231,0.15482386946678162,-0.08391202241182327,-0.16682307422161102,0.42224523425102234,0.3408861458301544,-0.7719369530677795,0.5696398019790649,0.5574380159378052,-0.2710668444633484,-0.2800160348415375,-0.3680684268474579,0.09145566821098328,0.1831691861152649,-0.17773038148880005,0.1257483810186386,-0.25577419996261597,0.24821054935455322,-0.2525836229324341,0.7612131834030151,0.13899527490139008,0.3654508888721466,-0.19783903658390045,-0.7783734798431396,-0.5130465030670166,-0.26775607466697693,-0.03349567949771881,-0.427084356546402,0.4387574791908264,0.3155439794063568,-0.05045713856816292,-0.23121124505996704,-0.6719101071357727,0.3426474332809448,-0.569012463092804,-0.6782271862030029,-0.5310829877853394,-0.1194557398557663,-0.285066694021225,-0.35343584418296814,0.08773212879896164,0.0034470970276743174,0.004341776482760906,-0.507334291934967,-0.3221452832221985,-0.2842378616333008},{-0.7803328037261963,-0.4412047863006592,0.15454883873462677,0.1451864391565323,-0.0618257001042366,-0.39847737550735474,-0.07979282736778259,-0.22454488277435303,-0.7727140784263611,-0.24917103350162506,0.04932519048452377,0.33265745639801025,0.1189362183213234,0.3608260154724121,-0.13430961966514587,0.6059427261352539,0.3590439260005951,0.2614682614803314,-0.2718503475189209,0.27822595834732056,0.22251079976558685,-0.2737145721912384,-0.08705780655145645,-0.2531922161579132,-0.060084279626607895,0.5737692713737488,0.16963623464107513,0.6597914695739746,0.47687533497810364,0.022257907316088676,1.0639233589172363,-0.7070124745368958,0.3707660436630249,-0.7414634227752686,-0.4449998438358307,-0.6990506052970886,-0.6611461639404297,-0.18947094678878784,-0.35120221972465515,-0.21313431859016418,0.2706829607486725,-0.04300384223461151,-0.2757459878921509,0.04550004377961159,0.11068382859230042,0.7791259288787842,0.17317131161689758,-0.8434752821922302,0.08263348042964935,-0.9626929759979248,-0.33627745509147644,0.6941704750061035,-0.4300512671470642,-0.09003696590662003,-0.18472251296043396,0.11714724451303482,-0.0892648994922638,0.34471696615219116,-0.43489813804626465,0.12461084872484207,0.3381502330303192,-0.09881887584924698,-0.1442379653453827,-0.576162576675415},{-0.08533704280853271,0.42621955275535583,0.22128359973430634,0.06077831611037254,-0.0426156111061573,2.4902567863464355,-0.08282791823148727,-0.022954538464546204,0.25491201877593994,0.24911557137966156,-0.12383825331926346,-0.0719691663980484,-0.31981274485588074,-0.06532013416290283,-0.19664552807807922,0.09863518923521042,-0.02262089215219021,0.12744863331317902,0.2051166296005249,-0.3222895860671997,0.08414097875356674,-0.38177290558815,0.22017978131771088,0.31634342670440674,0.1345999538898468,0.7178511023521423,0.04328106343746185,0.10077837854623795,-0.07240692526102066,0.7496476173400879,0.14189033210277557,-0.23314723372459412,-0.2623770833015442,-0.44948893785476685,-0.5107995867729187,0.05429336801171303,0.05370967090129852,0.11349761486053467,-0.10376269370317459,0.057127900421619415,0.0377461202442646,-0.1746627241373062,0.3360629379749298,0.034011390060186386,-0.010933421552181244,-0.10326312482357025,-0.1416885405778885,0.0006206956459209323,-0.04958837479352951,0.05900685861706734,-0.19773830473423004,-0.018762772902846336,0.210871621966362,0.25420477986335754,0.47573763132095337,-0.05872514843940735,-0.05908423662185669,-0.17931218445301056,-1.2085766792297363,0.08115724474191666,-0.42985859513282776,-0.16959740221500397,0.19262315332889557,0.08959267288446426},{-0.3263653814792633,0.005316483788192272,-0.216488316655159,-0.17427581548690796,0.35690611600875854,0.3390214443206787,-0.3643184006214142,0.4635562002658844,-0.6463518142700195,-0.022321432828903198,0.30089476704597473,-0.09714794158935547,0.38838109374046326,-0.41863247752189636,0.016322797164320946,-1.132773995399475,-0.6585736274719238,-0.2738165259361267,-0.21093019843101501,0.004715422634035349,0.14368632435798645,-0.34745609760284424,0.024382898584008217,0.3004530370235443,-0.7583262920379639,0.26659634709358215,0.7071347236633301,-0.028490133583545685,-0.39390596747398376,0.24650029838085175,-0.03042863868176937,-0.33937928080558777,-0.0927976593375206,0.2610970139503479,-0.24496613442897797,-0.2736591696739197,-0.49325886368751526,0.6845833659172058,0.05094101279973984,0.3041095435619354,0.28454163670539856,-0.1787768453359604,-0.34021878242492676,-0.6105037927627563,-0.331272691488266,-0.40163224935531616,0.4803650975227356,0.06406955420970917,0.29858067631721497,-0.46421897411346436,-0.13441619277000427,0.2759014070034027,-0.3410065770149231,-0.4948969781398773,0.19495947659015656,-0.28942084312438965,0.2454722821712494,-0.3585110008716583,0.3253069519996643,-0.3263188600540161,-0.4969930052757263,0.12206423282623291,-0.3380349278450012,-0.012424414046108723},{-0.8594514727592468,0.5472763776779175,0.13334394991397858,0.32198789715766907,0.06286647170782089,-0.0135842589661479,-0.173556387424469,0.08012913912534714,-0.08190412074327469,-0.36467596888542175,0.24097760021686554,-0.11834914237260818,0.24974623322486877,0.2551042139530182,-0.14314432442188263,0.23852026462554932,0.3823992908000946,0.23150277137756348,-0.12952671945095062,0.40875935554504395,0.5776605606079102,-0.37906065583229065,-0.18815959990024567,0.32608819007873535,-0.09746547043323517,0.4101353585720062,0.15103860199451447,0.44975700974464417,0.054061416536569595,-0.4359322786331177,0.6856003403663635,-1.1538517475128174,0.4294741749763489,-0.5905147194862366,0.37702012062072754,-0.5422331690788269,-0.571344256401062,0.018682634457945824,-0.3835904002189636,-0.15245980024337769,0.7513065934181213,-0.2649848163127899,0.005941879935562611,0.39161351323127747,0.012601870112121105,0.1755567342042923,0.03836150839924812,-0.5312581062316895,-0.08069747686386108,-0.6254749298095703,-0.0020172784570604563,0.20533551275730133,-0.43250611424446106,-0.2600169777870178,-0.11371220648288727,0.09644307941198349,0.5775880217552185,0.4604065418243408,0.4238276481628418,-0.08944089710712433,0.3996046185493469,-0.050028204917907715,-0.03556801378726959,-0.2318074107170105},{0.14044500887393951,-0.10565280169248581,0.09251192957162857,-0.06501833349466324,-0.1344541758298874,1.0775176286697388,0.08051268011331558,0.05448486655950546,-0.05201823636889458,0.10980983823537827,0.08765066415071487,-0.07380753755569458,0.1455986350774765,0.022292807698249817,-0.1843525916337967,0.2254565954208374,0.07338065654039383,-0.05516970902681351,-0.058626189827919006,-0.1164926216006279,0.1329161673784256,-0.029594415798783302,0.18208026885986328,-0.05794622376561165,0.07209748774766922,0.5899788737297058,0.11958775669336319,-0.043526019901037216,-0.06584189832210541,-0.2623293101787567,-0.07020092755556107,0.10150294750928879,0.1227206140756607,0.014457722194492817,-0.0363357774913311,-0.06457598507404327,0.27692410349845886,0.2427537739276886,0.12596306204795837,-0.005983330309391022,0.07650371640920639,-0.3294590711593628,0.028593754395842552,0.0762326717376709,-0.07784120738506317,-0.06899761408567429,-0.06789646297693253,-0.12498369812965393,-0.11137241870164871,0.09225543588399887,0.1504160314798355,-0.1603449285030365,0.05885438248515129,0.2781333923339844,-0.13000443577766418,-0.0321367047727108,0.17207637429237366,-0.25465211272239685,-0.28919219970703125,-0.06334125995635986,-0.14505471289157867,0.2433549016714096,0.11745168268680573,0.11975079774856567},{0.7635842561721802,0.444402277469635,-0.441588819026947,-0.18163324892520905,-0.4947873651981354,-0.6720863580703735,0.087164007127285,1.0797133445739746,0.03038356825709343,-0.13954409956932068,-0.854926347732544,0.3334391117095947,-0.8866076469421387,-0.6806216239929199,-0.31553712487220764,0.8077651858329773,0.7203278541564941,0.3082403540611267,0.258879691362381,-0.21000784635543823,-0.13978466391563416,-0.17036285996437073,0.38309913873672485,0.2603778541088104,0.3353763520717621,0.1366988718509674,0.7899010181427002,0.5932590961456299,0.22060038149356842,-0.1007346659898758,-0.37424802780151367,0.6290268898010254,-0.0017816186882555485,-0.7630563378334045,0.2759515345096588,-0.13944712281227112,-0.3208453059196472,0.37823429703712463,-0.04206075146794319,-0.536857545375824,0.573911190032959,0.48552390933036804,0.6110496520996094,-0.6789845824241638,-0.2678695619106293,0.38109710812568665,-0.470218688249588,-0.11417587846517563,0.20836423337459564,-0.3358040452003479,0.022807372733950615,1.3077677488327026,-0.42761102318763733,0.1965974122285843,0.45146507024765015,0.15321551263332367,1.0054277181625366,-0.4431173503398895,-0.5460359454154968,0.6902765035629272,0.01249390747398138,0.24919795989990234,-0.8127385377883911,0.12459664791822433},{0.32620149850845337,-0.4217364192008972,0.30751460790634155,0.04424171894788742,0.18687398731708527,-0.2968877851963043,0.4863532483577728,-0.8305513262748718,0.3346577286720276,0.8322152495384216,0.822930097579956,0.11652357876300812,0.6587780117988586,0.3012414872646332,-0.6801400780677795,0.01533850934356451,0.7105039954185486,0.1973605751991272,0.27960190176963806,0.45346376299858093,-0.25130802392959595,-0.695419192314148,-0.7246248722076416,-0.42170822620391846,0.19838878512382507,-0.4702851176261902,-0.7770061492919922,-0.5560956001281738,0.5821385979652405,0.5313119292259216,0.6388391852378845,0.39095935225486755,-0.09982117265462875,0.2987346053123474,0.5818560719490051,-0.39838436245918274,0.1126551553606987,0.3213973343372345,0.401267945766449,0.3985089361667633,-0.028288699686527252,0.253383994102478,-0.3180711269378662,0.6880769729614258,0.22121281921863556,-0.16638118028640747,0.2513010501861572,0.23467250168323517,-1.0292518138885498,0.18101368844509125,-0.27522456645965576,0.46074870228767395,0.9492388963699341,-1.048617959022522,0.6257465481758118,-0.31924504041671753,0.058166053146123886,0.01979345828294754,-0.7889236211776733,0.14373452961444855,0.5485939383506775,0.028231343254446983,0.9456070065498352,0.002714306814596057},{-0.2607019245624542,0.46745145320892334,-0.18456341326236725,0.5051746368408203,-0.0618366003036499,-0.06931982934474945,0.6239687204360962,0.58170086145401,0.3855398893356323,-1.1208598613739014,1.572211503982544,0.6575149297714233,0.11943428218364716,-1.454516053199768,-0.573868989944458,-0.7868551015853882,-0.6579930186271667,-1.6958924531936646,0.8854326009750366,0.0401415154337883,0.6207492351531982,0.1961158812046051,0.031310319900512695,0.0012044277973473072,-0.3366629481315613,-0.19718241691589355,-1.0528508424758911,0.4342491924762726,-2.318023443222046,0.7723574042320251,0.7349957227706909,-1.4852526187896729,-0.7411928772926331,0.28740110993385315,-0.12898603081703186,0.2801169455051422,0.2604832053184509,0.8502339124679565,0.0690094605088234,0.7949336171150208,-1.124401330947876,-0.9745084643363953,-0.7459158301353455,1.2570663690567017,0.3825429677963257,-0.5777906775474548,0.9473006129264832,-0.20120592415332794,-0.5799568891525269,-0.5260099172592163,0.07964342832565308,-0.17630480229854584,-0.003558061784133315,-0.2743251919746399,1.3634014129638672,0.2784162163734436,0.13978195190429688,-0.2890266180038452,-0.40875518321990967,-0.0718519538640976,-0.14490225911140442,-1.336018443107605,-0.2427643984556198,-1.1505951881408691},{-0.33820250630378723,0.3988770842552185,0.14630170166492462,0.4734163284301758,0.65615314245224,0.6578823328018188,-0.16658025979995728,0.9870421886444092,-0.7118692398071289,-0.6825156211853027,0.07493479549884796,0.2316267192363739,-0.5827401280403137,0.1698497235774994,0.3864043951034546,-0.48071932792663574,-0.8963022232055664,0.04576937481760979,0.32613682746887207,-0.16545438766479492,0.974675178527832,0.4447067379951477,0.11240088194608688,0.19631795585155487,-0.4231014549732208,0.22809913754463196,0.4812784492969513,-0.1678236424922943,0.18141335248947144,0.2709801495075226,-0.42678800225257874,-0.47498029470443726,-0.6588592529296875,-0.6104103326797485,-0.18472181260585785,0.2555754482746124,-0.6179075241088867,-0.512133002281189,-0.39879080653190613,0.39892321825027466,0.017109835520386696,-0.007506316527724266,0.16453763842582703,0.45055609941482544,0.13010448217391968,-0.2620578706264496,-0.259777307510376,-0.16753318905830383,0.09116829186677933,-0.3504375219345093,-0.40215450525283813,-0.18717966973781586,-0.6480556726455688,0.6009366512298584,-0.6334994435310364,0.1741054356098175,0.15184730291366577,0.4404849410057068,0.15096332132816315,0.19469265639781952,0.0901426374912262,0.811566948890686,-0.7554846405982971,-0.2778332531452179},{0.3423488736152649,0.2828247547149658,-0.3824453353881836,0.5034744143486023,0.4682348668575287,-0.33125996589660645,-0.00376420677639544,-0.33988314867019653,-0.4660939574241638,0.11764112859964371,-0.14319327473640442,-0.2174438089132309,-0.7492393851280212,0.31285884976387024,-0.08895984292030334,0.9093056321144104,0.2577457129955292,0.17108583450317383,-0.3230813145637512,-0.09247856587171555,-0.518389105796814,0.7430886626243591,0.4901215136051178,0.4527994394302368,-0.5075799226760864,0.08551312237977982,-0.02796006016433239,0.3448579013347626,0.19323605298995972,-0.2918006181716919,0.8694909811019897,0.19212989509105682,0.1312778741121292,-0.0714292973279953,-0.13280484080314636,-0.7585393786430359,-0.8048510551452637,0.5531136989593506,0.5213792324066162,-0.25152337551116943,0.1315428763628006,0.04214481636881828,0.19443105161190033,-0.7756423950195312,0.2965679168701172,-0.43937671184539795,0.21234260499477386,-0.005185150075703859,0.20265911519527435,0.6600145101547241,0.8677554130554199,0.8971921801567078,0.04586807265877724,-0.7751626968383789,-0.3198418915271759,-0.36647000908851624,-0.27997297048568726,-0.5192458629608154,-0.6501191854476929,0.17928601801395416,0.14214137196540833,0.25992196798324585,-0.4427757263183594,-0.11207030713558197},{-0.786511242389679,0.11295566707849503,-0.6367212533950806,-0.5156202912330627,-0.7324430346488953,-0.20457568764686584,0.17188796401023865,0.21772104501724243,-0.3732675015926361,-0.3402806222438812,0.5088205337524414,0.3681180775165558,0.6374104022979736,0.1333482414484024,0.4937731623649597,-0.24429713189601898,-0.1780984252691269,0.9468381404876709,-0.6634595990180969,0.6284060478210449,-0.16777145862579346,0.732302725315094,-0.2394731193780899,-0.042030904442071915,-0.38616350293159485,0.38020947575569153,-0.10654093325138092,1.3078460693359375,0.3366760313510895,1.1585252285003662,1.5751104354858398,-0.14006106555461884,0.29119744896888733,0.44884970784187317,-0.8788884878158569,1.5947515964508057,1.4868723154067993,-0.040153618901968,1.5327123403549194,-0.4277072548866272,0.9216158390045166,-0.6537390947341919,0.24105818569660187,-0.40973275899887085,-0.18120542168617249,0.8021203279495239,0.26877474784851074,1.6843764781951904,0.5452739596366882,-1.1763739585876465,-0.6121750473976135,-0.48363420367240906,0.676761269569397,-0.33997663855552673,-0.006916551385074854,-0.15133629739284515,1.113548755645752,0.22154639661312103,0.02821025811135769,-0.1548626571893692,1.1287696361541748,-0.02449726313352585,0.4395989179611206,-0.3912048041820526},{-1.034699559211731,0.019441651180386543,-0.04264087975025177,-2.4288721084594727,0.9049679040908813,-0.23745830357074738,0.06905403733253479,-0.45131582021713257,-0.019638769328594208,0.8405634760856628,-0.9200535416603088,0.7020137906074524,0.018378347158432007,-0.2588467001914978,1.1441264152526855,0.42949628829956055,1.063852071762085,0.024602077901363373,0.44911378622055054,-0.5282180309295654,-0.2777835726737976,0.3526165187358856,0.6484107375144958,-0.4787432551383972,-0.8277601003646851,-0.11071699857711792,-0.2082889825105667,-0.4382559061050415,0.08064796775579453,-0.6902623176574707,0.0412406288087368,-0.05830727890133858,0.9471778869628906,0.04191850498318672,-0.8253958821296692,-0.36552077531814575,-1.0167888402938843,-0.1377774029970169,-1.545981764793396,-0.35556936264038086,1.1687124967575073,0.5812048316001892,0.34899812936782837,-0.9164255261421204,0.7386481165885925,-0.05080098286271095,0.6061803102493286,-0.01007050834596157,-0.033429667353630066,0.3000408411026001,-0.3427550494670868,0.36749204993247986,-0.48971542716026306,0.6317034959793091,-0.5369309186935425,-1.0751934051513672,0.7344769239425659,1.4838261604309082,-0.29413795471191406,0.3699929416179657,-0.14282220602035522,-0.4364596903324127,-0.549505889415741,0.8778505921363831},{0.534281849861145,-0.7815218567848206,0.4444206953048706,0.03899355232715607,0.4383496046066284,0.8688156008720398,-1.1132198572158813,-0.23440483212471008,-0.10870665311813354,-0.7523720860481262,0.05818560719490051,-0.16914528608322144,-1.1489068269729614,-0.2136358767747879,-0.10511527210474014,0.6701924204826355,0.14273278415203094,0.7237508296966553,-0.49565041065216064,0.27391403913497925,0.4416660666465759,-0.29048168659210205,-0.5166336894035339,-0.4338836371898651,-1.126118540763855,-1.2115402221679688,-0.05811373144388199,-1.0414175987243652,0.4166752099990845,-0.4196542799472809,0.09057527780532837,-0.5905163884162903,-0.930732011795044,-1.1373172998428345,-0.34137600660324097,-0.874531626701355,-1.0520591735839844,-0.6782048940658569,-0.2383929193019867,-0.2914680540561676,-0.07663318514823914,-0.8980997800827026,-0.5424513816833496,0.6305222511291504,0.07167134433984756,0.39816030859947205,-0.6374466419219971,-0.44866856932640076,-0.6767889857292175,0.13068479299545288,-0.2665616571903229,0.7584113478660583,4.125642226426862e-05,-1.1127369403839111,-0.33880871534347534,-0.36876198649406433,-0.7549638748168945,-0.5779229402542114,0.26044073700904846,0.32548388838768005,-1.2396587133407593,-0.05379404500126839,0.3458775579929352,-0.04256404936313629},{-0.27450841665267944,-0.48348861932754517,-0.06779679656028748,-0.44895169138908386,0.3253071904182434,0.12017882615327835,0.4294528365135193,0.4587004780769348,0.5770193934440613,-0.4540252089500427,-0.18816286325454712,0.9198029041290283,-1.06243097782135,0.6526390910148621,-0.6332642436027527,0.05941177159547806,-0.46187832951545715,-0.355416476726532,-0.17875151336193085,-0.3238367438316345,0.45386844873428345,0.1877417415380478,0.4587014615535736,0.20043490827083588,0.43158307671546936,-0.14875125885009766,0.2740823030471802,-0.14170563220977783,0.16216322779655457,0.36310693621635437,0.4830704927444458,-0.2717154324054718,-0.6801728010177612,-0.11288884282112122,-0.08477555215358734,0.5228186249732971,-0.5814435482025146,-0.33778610825538635,0.30771225690841675,0.29979774355888367,-0.4958185851573944,0.39685776829719543,-0.4107971787452698,-0.001874278881587088,0.04215136542916298,0.013912033289670944,-0.10005500912666321,0.22702929377555847,-0.11804365366697311,0.10346630215644836,-0.45867279171943665,0.918780505657196,-0.4520069658756256,-0.47589245438575745,0.11664311587810516,0.06523287296295166,0.4582476317882538,-0.20093020796775818,0.3177391290664673,-0.10774687677621841,-0.070366770029068,0.3778601288795471,-0.2837042808532715,-0.15006163716316223},{0.1738312691450119,-0.3330196738243103,-0.31724855303764343,-0.4651092290878296,0.13867516815662384,0.08762076497077942,-0.019835365936160088,0.2692869305610657,-0.04205967113375664,-0.02320214919745922,-0.3216191828250885,0.0028769506607204676,0.27997955679893494,-0.17283941805362701,0.06772596389055252,0.02265014685690403,-0.014326321892440319,-0.13358110189437866,0.3237365782260895,-0.08332248032093048,-0.20100606977939606,0.2544478476047516,-0.048814401030540466,-0.01196227502077818,-0.15924549102783203,0.036919597536325455,-0.3182913064956665,-0.2120577096939087,-0.04908818006515503,0.22820772230625153,-0.06982740014791489,0.13342659175395966,-0.015150603838264942,-0.04838854819536209,-0.08821611851453781,0.07608988881111145,0.19048666954040527,0.07118260860443115,-0.012153949588537216,-0.6445029973983765,0.238769993185997,0.054270338267087936,0.07914426922798157,0.05791882798075676,-0.18787811696529388,0.25005894899368286,0.25555136799812317,-0.20411190390586853,0.17902357876300812,0.12531183660030365,1.1224479675292969,-0.093562550842762,0.006014714483171701,-0.0972427949309349,0.09438475966453552,0.24919965863227844,-0.14412355422973633,-0.15962596237659454,-0.06195864826440811,0.4599921405315399,-0.2121797502040863,-0.21842634677886963,-0.47999224066734314,-0.17691108584403992},{-0.049547772854566574,-0.2744387984275818,0.08698078989982605,-0.293131560087204,0.31415796279907227,0.017275890335440636,-0.16996333003044128,0.14910808205604553,-0.06410772353410721,-0.16463826596736908,0.0003049017395824194,-0.2648743689060211,0.17639073729515076,-0.023594150319695473,-0.30852946639060974,0.3243686258792877,-0.1914927363395691,-0.22392967343330383,0.07987267524003983,-0.14075039327144623,-0.44376885890960693,-0.3483406603336334,-0.11221946775913239,0.138885036110878,-0.009754554368555546,0.07793749868869781,-0.07129503041505814,0.16968177258968353,0.27274423837661743,-0.2917920649051666,0.20323552191257477,0.16414055228233337,0.23371340334415436,0.1674252301454544,0.20979219675064087,-0.23017768561840057,-0.07067614048719406,0.17774125933647156,0.051923718303442,-0.03268785402178764,-0.20293496549129486,-0.13696399331092834,-0.19613292813301086,-0.08393141627311707,0.23974379897117615,0.16506952047348022,-0.23529531061649323,0.15373490750789642,0.31075000762939453,-0.17172056436538696,0.21790991723537445,0.09918355941772461,-0.45237866044044495,0.16123853623867035,0.2339019775390625,0.16300159692764282,-0.10393009334802628,-0.10005342215299606,0.0025226708967238665,0.07308273017406464,-0.010361935012042522,0.3488430678844452,-0.45300063490867615,-0.10542136430740356},{-0.15207314491271973,0.345686137676239,-0.35000166296958923,0.43545788526535034,-0.12500737607479095,0.37337154150009155,-0.32050520181655884,0.058729372918605804,0.23114526271820068,-0.2662733793258667,-0.3661649823188782,0.27052009105682373,0.2321128249168396,0.28746452927589417,0.1402110457420349,0.13062706589698792,-0.27102258801460266,-0.4627552926540375,0.19351035356521606,0.1031762957572937,-0.153065025806427,0.3358437120914459,-0.16883902251720428,-0.3511179983615875,0.0885433778166771,0.35562774538993835,-0.41300007700920105,-0.5846386551856995,0.24616774916648865,-0.5718064308166504,-0.06556841731071472,-0.39612069725990295,-0.1574717015028,-0.07822848856449127,0.04111185669898987,0.3463255763053894,0.2524014115333557,0.07125558704137802,-0.24403727054595947,0.236468106508255,-0.08044072240591049,0.2868756055831909,-0.20153681933879852,0.09664107859134674,0.004810352809727192,0.11901232600212097,0.3448650538921356,-0.017811931669712067,0.37029558420181274,0.24342143535614014,-0.21926520764827728,0.10181230306625366,0.37890106439590454,0.2878967523574829,-0.5879471302032471,0.24360257387161255,-0.0401286743581295,-0.029010780155658722,0.3127569854259491,-0.6267588138580322,-0.5549207329750061,-0.13737739622592926,-0.07789649814367294,-0.27496492862701416}};
static const float layer_1_weight[64][64] = {{0.10134033858776093,0.1103997454047203,0.02998405136168003,0.02077561244368553,-0.14555899798870087,0.30108827352523804,-0.09306998550891876,0.40610888600349426,0.24880285561084747,-0.055273961275815964,0.1357566863298416,0.0714966282248497,-0.3739731013774872,-0.3433679938316345,0.06992586702108383,-0.0452132485806942,0.05076081305742264,-0.09286665916442871,0.27777138352394104,0.38487884402275085,0.19923174381256104,-0.06387831270694733,-0.23245535790920258,0.12678317725658417,0.023779992014169693,-0.23912681639194489,0.12323477864265442,0.09962773323059082,0.09634602069854736,-0.21037188172340393,0.2190334051847458,0.1103876531124115,-0.1435725837945938,-0.07273776829242706,-0.04710102081298828,-0.24719873070716858,0.15127164125442505,0.03652394935488701,-0.12987269461154938,0.04481421783566475,-0.2513747215270996,-0.05345669388771057,-0.013843651860952377,0.36206257343292236,0.0407642237842083,-0.04430849105119705,0.26208212971687317,-0.12322664260864258,0.25347834825515747,0.41252684593200684,0.2800232172012329,0.21283464133739471,0.08657001703977585,0.1774463802576065,0.12219742685556412,0.15197132527828217,0.1429392546415329,-0.1183590516448021,-0.4115239381790161,0.26356303691864014,0.25404858589172363,0.2903260588645935,-0.22278329730033875,-0.005233523435890675},{0.2095697522163391,0.011518142186105251,0.17519812285900116,0.34433913230895996,0.3515600860118866,0.05320330709218979,-0.00607683788985014,-0.0982840359210968,0.12582899630069733,-0.14760710299015045,0.11641134321689606,0.043507903814315796,0.02992085926234722,-0.04500225931406021,0.11454905569553375,0.258825421333313,0.11090385168790817,0.1321774423122406,-0.15856273472309113,-0.0013954564929008484,-0.28881436586380005,-0.07297145575284958,-0.1841161996126175,-0.06795366108417511,0.19249358773231506,0.11712358146905899,0.243858203291893,0.05796211212873459,-0.04354240745306015,0.2654323875904083,0.15427637100219727,-0.06381378322839737,-0.20973309874534607,0.10648057609796524,0.22032387554645538,-0.005926140584051609,0.17192620038986206,-0.05573092773556709,-0.09597272425889969,0.3331008851528168,-0.04132638871669769,0.37271514534950256,0.22683271765708923,-0.14340068399906158,0.11340631544589996,-0.044626086950302124,-0.1084730476140976,-0.10704633593559265,0.1621210128068924,-0.09971772879362106,0.1548117846250534,0.2100294828414917,-0.03810439258813858,-0.10001323372125626,0.005616266280412674,0.02556416764855385,-0.0011644951300695539,-0.16271771490573883,-0.033983971923589706,0.29953306913375854,0.05087489262223244,-0.011346361599862576,-0.15793506801128387,0.049823466688394547},{-0.056007809937000275,0.19002088904380798,-0.0035862450022250414,-0.012884222902357578,0.14731551706790924,-0.11227913945913315,0.037610940635204315,0.09117625653743744,-0.04893510043621063,0.16053177416324615,0.03324783593416214,-0.12460093945264816,-0.04440075159072876,0.06450459361076355,0.18768726289272308,-0.1416575312614441,-0.2090883105993271,-0.14116542041301727,-0.17410621047019958,-0.041041020303964615,-0.03905939683318138,0.12089299410581589,-0.0786164253950119,0.13257671892642975,0.2213827520608902,0.1041315495967865,0.24749921262264252,-0.03500932827591896,0.02625531516969204,0.27547580003738403,0.3091789186000824,0.18696369230747223,0.023971611633896828,-0.24081026017665863,-0.0674223005771637,0.13107283413410187,0.035322051495313644,-0.07405968755483627,0.037500131875276566,0.08335620909929276,0.04678390175104141,-0.08449475467205048,0.20267605781555176,0.416117787361145,-0.010742628946900368,0.053460054099559784,0.07934396713972092,0.26171407103538513,0.0035852561704814434,0.08776608854532242,0.249892920255661,0.16794338822364807,-0.18893137574195862,-0.14163605868816376,-0.0022550018038600683,-0.24318596720695496,-0.12799647450447083,0.13531148433685303,0.07645350694656372,-0.10582804679870605,0.07954740524291992,-0.1948380172252655,0.2042834758758545,0.007474765181541443},{-0.02441110648214817,-0.29163089394569397,-0.0713956356048584,0.033296141773462296,-0.2752019464969635,0.16863161325454712,-0.07602880895137787,0.06134636700153351,-0.1441175937652588,0.049311961978673935,0.12890450656414032,0.11634880304336548,0.050785623490810394,-0.23055468499660492,0.09334541112184525,-0.08267253637313843,0.11044597625732422,-0.07060763239860535,-0.21963085234165192,0.21714875102043152,0.17042526602745056,0.08557536453008652,0.05885356292128563,-0.11977977305650711,0.24526625871658325,0.15901847183704376,0.01128945592790842,0.17342934012413025,-0.35352420806884766,-0.1585170179605484,0.19933705031871796,0.14695122838020325,-0.008430245332419872,-0.22931037843227386,-0.3952863812446594,-0.19062022864818573,-0.15862902998924255,0.2570980191230774,-0.23528790473937988,-0.053728166967630386,0.1886579394340515,0.0324244424700737,-0.3179280757904053,0.08439809828996658,0.4242091178894043,-0.06131786108016968,0.33897170424461365,0.28562724590301514,-0.21365566551685333,0.12369270622730255,0.09540867805480957,-0.23330539464950562,0.11576611548662186,-0.0018581516342237592,0.02602418139576912,-0.08261880278587341,0.3810884654521942,-0.09590380638837814,-0.2488081008195877,-0.07791392505168915,0.10635893046855927,-0.10954922437667847,-0.04438894987106323,0.06733904033899307},{-0.22156256437301636,-0.1023113951086998,0.10864744335412979,0.16047048568725586,-0.12061640620231628,-0.16989319026470184,-0.4794241487979889,0.053130436688661575,0.2996925115585327,0.07324767112731934,-0.11361930519342422,-0.14904078841209412,0.04937475547194481,-0.15440161526203156,-0.14766903221607208,0.04468991979956627,0.1068878173828125,0.2018907070159912,0.23317204415798187,-0.03573917970061302,-0.010605552233755589,0.2012113332748413,0.03282446041703224,-0.02272866480052471,-0.04469621554017067,0.24517962336540222,-0.22886407375335693,-0.0799357146024704,0.2441348135471344,-0.15920814871788025,-0.16961416602134705,-0.052968088537454605,0.2032850831747055,0.2727276086807251,-0.09475743770599365,-0.12693548202514648,-0.15755513310432434,0.013077927753329277,-0.023363351821899414,0.10431015491485596,-0.03633132949471474,-0.10636104643344879,0.32825320959091187,-0.20255212485790253,0.15155746042728424,-0.030297979712486267,0.2098894864320755,0.24709013104438782,-0.2704887092113495,-0.11086522787809372,0.12687186896800995,0.0172639898955822,-0.11091472208499908,-0.13833969831466675,-0.19464479386806488,-0.21429097652435303,-0.008183234371244907,-0.03826768323779106,0.10661258548498154,-0.04737916588783264,0.14601360261440277,0.025197122246026993,0.0993465855717659,-0.13991624116897583},{-0.7404187917709351,-0.01800987683236599,-0.6096355319023132,0.033187657594680786,0.11698086559772491,-0.1940382719039917,0.2544220983982086,0.46977993845939636,0.2498590350151062,-0.01738068461418152,-0.22864161431789398,-0.1294051557779312,0.15882468223571777,-0.35809823870658875,0.3808952569961548,0.15761497616767883,0.13291820883750916,-0.2242257446050644,-0.17583592236042023,0.0538976788520813,0.25452089309692383,0.019629256799817085,0.005799780134111643,0.1912805438041687,0.6382848024368286,0.11628817021846771,0.8381837606430054,-0.1687372922897339,0.3332976698875427,-0.31574365496635437,-0.0641646608710289,0.40725111961364746,-0.10884140431880951,0.2664858102798462,-0.6152550578117371,0.39799922704696655,0.5055675506591797,-0.5065223574638367,0.26401036977767944,0.31245893239974976,-0.28382840752601624,0.0416790246963501,-0.022583477199077606,-0.16108763217926025,-0.005410522222518921,-0.29485011100769043,0.043060217052698135,0.17809940874576569,0.09385593235492706,-0.5766351222991943,-0.06898964941501617,0.46513471007347107,0.6067189574241638,-0.2139333337545395,-0.26915428042411804,-0.23328587412834167,-0.17242933809757233,-0.4390263557434082,0.16537877917289734,0.43328043818473816,0.21799984574317932,0.08835328370332718,0.38908037543296814,0.12601123750209808},{-0.12814733386039734,-0.3564651310443878,-0.03230426460504532,-0.003482470288872719,0.15993693470954895,-0.058474909514188766,0.4566681385040283,0.124017633497715,-0.21590076386928558,-0.002659605583176017,0.38267379999160767,0.2284611314535141,0.05935633182525635,0.11145500093698502,0.1124526783823967,0.39909815788269043,0.1793936789035797,0.2565196752548218,-0.2979162335395813,-0.11998427659273148,-0.635098934173584,-0.3620656430721283,-0.39622732996940613,0.003714006394147873,0.44023972749710083,-0.12357374280691147,-0.08575316518545151,-0.3696960210800171,0.046132851392030716,-0.07598966360092163,0.05482500046491623,-0.0984402522444725,-0.39608827233314514,0.4658869206905365,0.16416332125663757,-0.10588888078927994,0.28259170055389404,0.032299984246492386,-0.12833444774150848,-0.27152881026268005,0.030618904158473015,0.08702772855758667,-0.08139222115278244,-0.2288343757390976,0.02553807944059372,0.09000058472156525,-0.28896236419677734,0.014581582508981228,-0.031802646815776825,0.271443635225296,0.07766026258468628,0.2901208996772766,0.14487050473690033,0.06570539623498917,0.0457114577293396,0.49443677067756653,-0.15502505004405975,-0.06342900544404984,-0.0014621191658079624,-0.1398521214723587,-0.33331382274627686,0.20258645713329315,0.12248732149600983,0.26168280839920044},{-0.02455068938434124,-0.08252185583114624,-0.006206464022397995,0.5812458992004395,0.10833203047513962,-0.020483944565057755,0.19106626510620117,0.037212174385786057,-0.014099452644586563,-0.1321425437927246,0.01936810463666916,0.0429086796939373,-0.23423440754413605,0.2074604332447052,0.058661121875047684,-0.1943415105342865,0.09719543159008026,0.0354059599339962,0.1361129730939865,-0.058662720024585724,-0.23946568369865417,0.05439475178718567,0.004296363331377506,0.33912792801856995,-0.19165882468223572,0.02182716876268387,0.11823328584432602,-0.13264572620391846,-0.23317751288414001,0.019946271553635597,-0.09315164387226105,-0.3272261321544647,0.17951975762844086,0.047311149537563324,0.17655573785305023,0.2294163852930069,0.15888544917106628,0.22632716596126556,0.10260669887065887,0.07867295295000076,-0.4424579441547394,0.1039787083864212,-0.08431147783994675,-0.16840030252933502,0.35050877928733826,-0.044483035802841187,0.026681583374738693,0.08709275722503662,0.23128002882003784,-0.0787389948964119,0.0710257962346077,-0.20193791389465332,-0.06427410989999771,0.049982037395238876,-0.10555919259786606,0.3704252243041992,0.07295694947242737,-0.16093599796295166,-0.10669239610433578,-0.11641806364059448,0.13852517306804657,0.24409636855125427,-0.013310564681887627,0.025862062349915504},{-0.22085148096084595,-0.23289503157138824,0.09039172530174255,-0.1471708118915558,0.17801180481910706,-0.17947185039520264,0.07510699331760406,0.20364804565906525,-0.04104176163673401,0.23212870955467224,-0.03602104261517525,0.1332082450389862,-0.1260591447353363,-0.07447213679552078,0.1426621377468109,-0.2111067920923233,0.2039499431848526,0.019396958872675896,-0.10939741879701614,0.1867712289094925,0.1955331265926361,-0.19886790215969086,-0.2407286912202835,0.06670879572629929,-0.03131340444087982,0.16416117548942566,-0.44559380412101746,0.17167899012565613,-0.0869852751493454,-0.3530595302581787,-0.017831476405262947,0.03630106523633003,0.001004938269034028,-0.0831599086523056,-0.11141403764486313,-0.003231076756492257,-0.2091766595840454,-0.2418118119239807,-0.1135379821062088,-0.008167146705091,-0.16927549242973328,-0.06999457627534866,-0.18354716897010803,0.12704245746135712,0.09994135051965714,-0.21108181774616241,0.2722223401069641,-0.02526472508907318,-0.027852997183799744,-0.2331787645816803,-0.10209357738494873,-0.005748282186686993,-0.21911108493804932,-0.16915977001190186,0.024564875289797783,-0.15284526348114014,-0.34606480598449707,0.15606236457824707,-0.2964644730091095,0.016717636957764626,0.01081333588808775,-0.04113832861185074,-0.24799637496471405,-0.02935204841196537},{-0.1508651077747345,-0.18564032018184662,-0.1739618182182312,0.06610922515392303,0.12190640717744827,0.0898667648434639,-0.15705321729183197,0.035996995866298676,-0.24797427654266357,0.016397129744291306,-0.06790055334568024,0.146500363945961,-0.017219528555870056,0.10027800500392914,0.14034198224544525,0.10578633844852448,-0.013840639032423496,-0.0032223286107182503,0.16133221983909607,-0.20769166946411133,0.32925280928611755,-0.2594744563102722,0.11366872489452362,0.2107386291027069,0.18343360722064972,-0.035459648817777634,-0.17623481154441833,-0.230634406208992,-0.23184418678283691,0.35144689679145813,0.21894501149654388,-0.15323376655578613,0.10132350772619247,0.02451762929558754,0.11279826611280441,-0.03920780122280121,-0.05438819155097008,0.11334821581840515,-0.11306796967983246,-0.07177141308784485,0.034910425543785095,0.1267089992761612,-0.16379736363887787,0.2042878270149231,-0.21061182022094727,0.01742110401391983,0.07208945602178574,-0.13085108995437622,-0.21000120043754578,0.16807891428470612,-0.18153022229671478,0.015062559396028519,-0.11147789657115936,0.2801041305065155,0.16414906084537506,0.228855699300766,-0.10316649079322815,0.2878612279891968,0.01869487762451172,0.12063536792993546,0.154466450214386,-0.47260716557502747,-0.08628282696008682,0.08445035666227341},{-0.08361159265041351,0.08686188608407974,-0.0064237043261528015,-0.1674206554889679,-0.0721823200583458,-0.08479828387498856,-0.07410130649805069,-0.1151585802435875,-0.14445018768310547,-0.09140732884407043,-0.019564474001526833,-0.13943924009799957,-0.03039061836898327,0.1121349036693573,-0.22438344359397888,0.008887569420039654,0.22046761214733124,-0.06041697785258293,-0.022070564329624176,0.05422026664018631,0.2498530149459839,0.061515145003795624,-0.013274170458316803,0.1971336156129837,-0.10114667564630508,0.0034561320208013058,0.011254572309553623,-0.03163755685091019,0.17378084361553192,0.5831668376922607,0.20792636275291443,0.1487569659948349,-0.15799927711486816,0.1466890275478363,-0.17276635766029358,-0.0164585392922163,0.10963745415210724,0.041183020919561386,0.015488307923078537,-0.15676535665988922,-0.15528284013271332,-0.022173350676894188,0.21218456327915192,0.23795592784881592,0.023673174902796745,0.30903515219688416,-0.16063149273395538,0.023069486021995544,0.18028320372104645,-0.0009021794539876282,-0.19491782784461975,-0.14046037197113037,0.09239133447408676,0.2350573092699051,-0.11110017448663712,-0.01452269684523344,-0.17585112154483795,-0.1265626698732376,-0.10587316751480103,0.10742295533418655,0.16355684399604797,0.18410561978816986,-0.17278920114040375,0.036053646355867386},{0.1462119072675705,0.0174677986651659,-0.06208788976073265,0.29771190881729126,-0.1920405924320221,0.23252719640731812,-0.15372714400291443,-0.09640916436910629,0.17202036082744598,-0.06755717098712921,0.017120273783802986,0.11096510291099548,0.052669402211904526,0.08234617114067078,-0.002320330124348402,-0.11842282116413116,0.1774594932794571,0.29215407371520996,-0.013627700507640839,-0.14923204481601715,-0.1812521070241928,-0.084157295525074,0.13642475008964539,-0.19458377361297607,0.013677798211574554,0.15890474617481232,-0.041312601417303085,0.4154941439628601,0.12629921734333038,0.16797016561031342,-0.13082580268383026,-0.1097949743270874,0.04640788584947586,-0.15237005054950714,0.2085021436214447,0.15417611598968506,-0.06299571692943573,0.058691076934337616,0.13481266796588898,0.018402494490146637,0.04513908922672272,-0.03284651041030884,0.005918281152844429,-0.16353687644004822,-0.1413036584854126,-0.15287534892559052,0.20686842501163483,0.16140083968639374,-0.09493284672498703,-0.16683991253376007,0.19635507464408875,0.04317517206072807,0.05237579718232155,0.15465417504310608,0.0045798467472195625,-0.07143072783946991,-0.08049815148115158,-0.20721015334129333,-0.06088240444660187,-0.12005314230918884,-0.09322414547204971,0.03692077472805977,0.2285740077495575,-0.17400692403316498},{-0.19978748261928558,-0.06469619274139404,-0.0838313028216362,-0.3746652603149414,-0.09384521096944809,0.1329433172941208,0.021177519112825394,0.21018466353416443,-0.11641447246074677,-0.18931542336940765,-0.22105814516544342,-0.14518828690052032,0.0730971172451973,-0.2185390293598175,-0.06909941881895065,0.26397740840911865,0.1885509192943573,-0.1368541568517685,-0.1391465961933136,-0.0020076932851225138,0.22636641561985016,-0.11700518429279327,0.19137272238731384,0.21418412029743195,0.27655908465385437,-0.04536937177181244,0.14126388728618622,-0.07277869433164597,-0.08989494293928146,0.07501744478940964,-0.27442026138305664,-0.006532855331897736,-0.06561946868896484,0.1401222199201584,-0.21547840535640717,0.1992315649986267,0.14610835909843445,-0.034658562391996384,-0.016079457476735115,0.11205848306417465,0.17894130945205688,-0.24680010974407196,-0.057207170873880386,0.04782336577773094,0.10390324145555496,0.08213561773300171,0.08151490241289139,0.20101484656333923,-0.08322709053754807,-0.13865165412425995,-0.21134108304977417,-0.03422616794705391,0.054731111973524094,-0.13049808144569397,-0.042335882782936096,0.06318438798189163,-0.2569104731082916,-0.0016416448634117842,0.03936691954731941,-0.1507377177476883,-0.02778906375169754,-0.07515454292297363,-0.169842928647995,0.026970013976097107},{0.0944654792547226,-0.26517876982688904,0.145250603556633,0.17662377655506134,-0.0515909343957901,-0.2522032856941223,0.5128633975982666,-0.10878846794366837,-0.025112759321928024,-0.35906144976615906,-0.1988682895898819,0.3180486559867859,0.33868324756622314,-0.09842661768198013,-0.10288484394550323,0.2475985735654831,-0.15579862892627716,-0.005393427796661854,-0.24757450819015503,0.4066178798675537,-0.08866555243730545,-0.3295004963874817,0.24839739501476288,-0.07868257164955139,-0.034723006188869476,0.10110386461019516,-0.379129558801651,-0.013147905468940735,-0.16889892518520355,-0.3410886824131012,-0.14216415584087372,-0.21503575146198273,-0.09009870886802673,0.19764021039009094,-0.056663449853658676,-0.10326448082923889,-0.07039102911949158,0.22900830209255219,-0.3466886579990387,0.05022243782877922,-0.06521768867969513,0.3051820397377014,0.321039617061615,-0.2171286791563034,0.2692115604877472,-0.1398494839668274,-0.1527978479862213,0.05445326492190361,-0.2557501494884491,-0.0032504331320524216,-0.32656827569007874,-0.09453835338354111,0.3006451725959778,0.06687437742948532,0.049926821142435074,0.18010897934436798,-0.3122376501560211,0.2761419117450714,-0.10855387896299362,-0.48942580819129944,0.10132043063640594,0.4767387807369232,0.17434921860694885,0.2097627818584442},{-0.17247839272022247,0.07982856035232544,0.015138387680053711,-0.14975647628307343,0.2541908919811249,-0.11734725534915924,0.22044983506202698,-0.34310370683670044,-0.0932779610157013,0.016880547627806664,0.15234430134296417,0.0515502467751503,-0.14895789325237274,-0.05304417386651039,-0.04657747596502304,0.06636667996644974,0.11018475890159607,-0.023014936596155167,-0.07209426909685135,-0.4654444456100464,-0.040989384055137634,-0.05035333335399628,0.05163401737809181,-0.051112525165081024,-0.32134896516799927,0.2739376425743103,-0.07042506337165833,-0.13708943128585815,-0.1216905489563942,-0.02730870433151722,0.006509910803288221,-0.0819564014673233,-0.21960510313510895,-0.1962967813014984,0.2387668788433075,-0.14781226217746735,-0.3430614173412323,0.10288668423891068,0.19619493186473846,0.18228434026241302,0.291843056678772,0.020750079303979874,-0.15337921679019928,-0.3776571750640869,0.2169617861509323,-0.01275983452796936,-0.15370170772075653,-0.19227172434329987,-0.06819157302379608,0.17079980671405792,-0.09354628622531891,-0.2528875172138214,-0.30366629362106323,0.1688995659351349,0.2722305357456207,-0.055474549531936646,-0.09601747989654541,0.29026320576667786,0.1719226986169815,0.06747914105653763,-0.03910457342863083,-0.3337894678115845,-0.11863043159246445,0.33743786811828613},{-0.11231201887130737,0.19651345908641815,-0.017564669251441956,-0.13869550824165344,0.23300044238567352,-0.14935651421546936,0.02005385421216488,0.35296252369880676,0.3982769548892975,-0.17893773317337036,-0.18809305131435394,0.12256936728954315,-0.3260047435760498,-0.3090391755104065,-0.14431072771549225,-0.182704359292984,-0.06026550009846687,-0.14867128431797028,0.1904187798500061,0.0161014162003994,-0.14783598482608795,0.19165395200252533,-0.0680258646607399,-0.10089695453643799,0.17282018065452576,0.07651779055595398,-0.03680971637368202,0.3993009626865387,-0.22610259056091309,-0.08528218418359756,-0.20982524752616882,-0.2194318175315857,-0.17017768323421478,0.2614969313144684,-0.05695302039384842,-0.10516326129436493,-0.06461776047945023,0.08011218160390854,-0.11764229089021683,0.11270122975111008,-0.11097101122140884,0.14298047125339508,0.12239052355289459,0.25156426429748535,0.13564704358577728,0.35757705569267273,0.17183244228363037,-0.1749626249074936,0.17916449904441833,0.1359119564294815,0.030827661976218224,0.04653852805495262,0.32924020290374756,-0.17824168503284454,-0.04021424055099487,-0.07984570413827896,-0.16374708712100983,-0.20340093970298767,0.2315099686384201,0.18818026781082153,0.17357783019542694,0.1907539814710617,0.007636573165655136,-0.17474497854709625},{0.19880075752735138,0.30603715777397156,0.1079074889421463,-0.23292741179466248,0.15334726870059967,0.1137927919626236,0.005929195787757635,0.3448336124420166,-0.07556353509426117,-0.2370021641254425,0.03495346009731293,0.17916619777679443,-0.4453229308128357,0.04227238893508911,-0.09622570127248764,0.0939151868224144,-0.06350838392972946,-0.1733931452035904,-0.20202982425689697,0.11705425381660461,-0.2667813301086426,0.12086016684770584,0.025196081027388573,0.0633106529712677,0.20231491327285767,0.15373754501342773,-0.18530021607875824,0.036984883248806,-0.1941780149936676,0.010093647986650467,0.029311776161193848,0.031161103397607803,0.020110225304961205,0.11799207329750061,0.13596385717391968,-0.14966550469398499,0.11334303766489029,0.05315439775586128,0.12395813316106796,0.042739324271678925,0.2781389057636261,0.07973065972328186,0.008103318512439728,-0.0037770841736346483,0.31087610125541687,0.5725139379501343,0.19544151425361633,-0.24204006791114807,-0.0415646955370903,-0.04612366110086441,0.1250673234462738,0.010911602526903152,0.17735423147678375,-0.08480927348136902,-0.05560816079378128,0.1616685539484024,0.040201954543590546,0.3857128620147705,0.09738881886005402,-0.16296623647212982,-0.07177206128835678,0.02086716704070568,-0.14482468366622925,0.0375259667634964},{-0.23408442735671997,-0.127601757645607,0.06360742449760437,-0.24406416714191437,0.10311988741159439,0.18168146908283234,0.5058746933937073,0.43947920203208923,0.032870128750801086,0.03142586722970009,-0.30047762393951416,-0.10451031476259232,-0.052110008895397186,0.14543892443180084,-0.005784866400063038,0.33531317114830017,-0.2606397271156311,-0.04105782136321068,-0.2896595299243927,-0.10377419739961624,-0.2507754862308502,-0.03634404018521309,0.022377919405698776,-0.11877128481864929,-0.08264932036399841,-0.04264868050813675,0.30229616165161133,-0.24002201855182648,0.28398627042770386,-0.12587930262088776,0.06425175815820694,-0.10680395364761353,-0.08932605385780334,-0.2559405565261841,0.04185602068901062,0.10800585895776749,0.0930420383810997,-0.15610648691654205,0.11113858222961426,-0.31573447585105896,0.3289763629436493,0.255664199590683,0.19524282217025757,-0.18220646679401398,0.15000446140766144,0.034042440354824066,0.2829757332801819,0.03841027989983559,-0.15391366183757782,-0.23857523500919342,0.1339206099510193,0.3094380795955658,0.2137179970741272,0.41046014428138733,0.15402033925056458,-0.05140838772058487,-0.17720630764961243,0.5916082262992859,0.1985614150762558,0.07757748663425446,0.07260620594024658,-0.4170069694519043,-0.1494937688112259,0.25991177558898926},{-0.30899953842163086,0.2564138174057007,0.19693835079669952,-0.16206330060958862,-0.05942540243268013,-0.15592005848884583,-0.01911713182926178,0.13408949971199036,-0.14773248136043549,0.09131363034248352,0.285340815782547,-0.004754406865686178,0.18215428292751312,0.19495613873004913,0.19540315866470337,0.09992358833551407,0.15316128730773926,0.10844508558511734,0.22841833531856537,-0.16139653325080872,0.44440585374832153,0.18597503006458282,-0.1408006250858307,-0.11531589925289154,0.25625306367874146,0.07987628132104874,-0.02868449129164219,0.11139707267284393,0.04467493295669556,-0.029385240748524666,-0.12810052931308746,0.026751793920993805,0.2128247618675232,-0.25693750381469727,-0.2130124568939209,0.025114363059401512,-0.17875313758850098,0.11526937782764435,0.32722046971321106,-0.38751816749572754,-0.14903812110424042,-0.1736244261264801,-0.32484158873558044,-0.30943989753723145,-0.24691392481327057,0.011551323346793652,0.24226504564285278,-0.11054225265979767,-0.16511636972427368,0.028004243969917297,-0.21542061865329742,0.18823868036270142,0.008947504684329033,-0.18638570606708527,0.061019860208034515,0.0274944044649601,-0.11111760884523392,0.07014923542737961,-0.17285539209842682,0.11016629636287689,0.046792495995759964,0.23219887912273407,0.13243575394153595,-0.015536881051957607},{-0.10172926634550095,0.18224208056926727,-0.19553914666175842,-0.39029940962791443,-0.14569418132305145,-0.20862798392772675,0.2878630757331848,0.15822462737560272,-0.3390878736972809,-0.031049711629748344,0.0020160877611488104,-0.11728537082672119,0.23165318369865417,0.046416107565164566,0.10083671659231186,0.352546364068985,0.20118509232997894,-0.013154319487512112,-0.17669148743152618,-0.20838865637779236,0.09477923810482025,0.2603689432144165,0.1563478261232376,-0.2159123569726944,-0.12310932576656342,0.17791667580604553,-0.21435034275054932,-0.22317026555538177,-0.1375511884689331,-0.16781699657440186,0.10965747386217117,-0.1730005294084549,-0.310870885848999,-0.08850807696580887,-0.08781155198812485,0.06594295799732208,-0.10693251341581345,-0.15153269469738007,0.0427209809422493,-0.013859338127076626,0.026785720139741898,-0.321826696395874,-0.04067071154713631,0.28028035163879395,0.058762818574905396,-0.0040925778448581696,-0.20573271811008453,0.24617765843868256,0.20913992822170258,-0.1858333796262741,-0.1307803839445114,0.11276095360517502,0.06034228205680847,-0.008483282290399075,-0.04661574587225914,-0.3163280189037323,-0.21039976179599762,0.08755779266357422,0.09824743866920471,-0.1264793425798416,0.034885063767433167,-0.054855745285749435,0.07207102328538895,-0.04146256670355797},{0.04242141917347908,0.0645526647567749,0.29086700081825256,0.4403734505176544,0.1378328502178192,-0.10326682031154633,-0.019210131838917732,-0.13579986989498138,0.14373697340488434,-0.06810913234949112,-0.14015498757362366,-0.08269117027521133,-0.21755161881446838,-0.15064947307109833,-0.06265733391046524,-0.053049396723508835,-0.1356756091117859,0.11176526546478271,0.06992565840482712,-0.24597550928592682,-0.07897652685642242,-0.020062679424881935,-0.026553981006145477,-0.020058460533618927,0.03748957812786102,-0.053413715213537216,0.12491299211978912,0.05638858675956726,0.17459110915660858,0.3081150949001312,0.1488749086856842,-0.19591476023197174,0.030652832239866257,0.04954267665743828,-0.019475728273391724,0.020106015726923943,-0.13614751398563385,0.06153136119246483,0.1063946932554245,-0.03910486772656441,-0.018303409218788147,0.37566938996315,-0.09672729671001434,-0.10328797250986099,-0.18467162549495697,0.09740133583545685,0.185822531580925,-0.06635258346796036,-0.06548124551773071,-0.05547982081770897,-0.05002283677458763,0.17248322069644928,0.3069442808628082,0.03089686669409275,0.03682256117463112,0.12460950762033463,0.21431586146354675,-0.2067173570394516,0.07871857285499573,-0.14627017080783844,-0.1124848797917366,0.11106850951910019,0.08833331614732742,0.1670697182416916},{0.1520739048719406,0.1603395640850067,-0.11799833923578262,0.16818004846572876,-0.10863547027111053,0.015540456399321556,0.10259850323200226,-0.0002594942634459585,0.24737828969955444,0.0974796786904335,0.16275914013385773,-0.16502472758293152,0.07312637567520142,0.018876874819397926,0.08785531669855118,-0.19198007881641388,-0.14778470993041992,0.23372846841812134,-0.1695704460144043,0.04440382122993469,0.03471104055643082,-0.08933005481958389,0.10249442607164383,0.14483052492141724,0.14154207706451416,0.09215457737445831,-0.04298751428723335,-0.1191738098859787,-0.06037316843867302,-0.1284642517566681,-0.22827006876468658,-0.08104536682367325,-0.13249242305755615,0.13985003530979156,0.23759965598583221,-0.13832508027553558,-0.0729614794254303,0.14247657358646393,-0.11530520021915436,0.06629359722137451,0.05115379020571709,0.2508630156517029,0.04322259500622749,-0.13744871318340302,-0.11846201121807098,0.11131524294614792,-0.20116715133190155,0.033725615590810776,-0.20653080940246582,-0.03397272899746895,0.0855916440486908,0.051811471581459045,-0.024678440764546394,0.14184904098510742,-0.015824073925614357,-0.07209987938404083,0.05001484602689743,0.10649505257606506,0.07405446469783783,-0.19496729969978333,0.12067447602748871,0.1939176619052887,-0.10026644170284271,0.09505711495876312},{-0.06504818797111511,-0.23242881894111633,-0.08168043196201324,0.2764052450656891,-0.0558696985244751,0.266992449760437,0.17112861573696136,0.09517094492912292,0.10190998762845993,-0.23585373163223267,0.11388541758060455,0.2759774625301361,0.02831554040312767,-0.12237754464149475,0.2122400403022766,0.03220699355006218,-0.03533170744776726,-0.16450640559196472,0.12506228685379028,0.010148829780519009,-0.20455840229988098,-0.255914568901062,0.11111114919185638,0.1402832567691803,0.11692944169044495,-0.053072646260261536,-0.031148845329880714,0.08088875561952591,-0.06256112456321716,0.2809692621231079,-0.0009419928537681699,0.09485290944576263,-0.14790911972522736,0.34295135736465454,-0.0037388985510915518,-0.13689225912094116,-0.006285540759563446,-0.15198063850402832,-0.14501182734966278,0.030642187222838402,-0.013858062215149403,0.1994519680738449,-0.013464517891407013,-0.285466730594635,-0.09058652818202972,-0.20765377581119537,0.339089035987854,-0.19412833452224731,0.031255003064870834,0.12144745141267776,0.19102096557617188,0.14487077295780182,0.16553844511508942,-0.06642647087574005,0.17486509680747986,0.1505364179611206,-0.2121497094631195,0.02266327477991581,0.18107911944389343,-0.21175715327262878,-0.12522991001605988,0.08806119114160538,-0.03381848707795143,0.013610698282718658},{-0.3427971303462982,-0.04303187131881714,-0.26332294940948486,0.27908146381378174,0.029973026365041733,0.10762597620487213,0.10902000963687897,0.050377439707517624,-0.09730613231658936,0.07158713787794113,-0.12407884001731873,0.0911419615149498,-0.17418426275253296,0.004341069608926773,0.16033600270748138,-0.15423308312892914,-0.158135786652565,0.021456275135278702,-0.0986841470003128,0.27163568139076233,-0.13579002022743225,0.049578212201595306,-0.1866651177406311,-0.22478793561458588,-0.18021096289157867,0.1392337530851364,0.11783760040998459,-0.09364551305770874,0.012063574977219105,-0.0018552615074440837,-0.22112642228603363,0.022482862696051598,-0.1597176492214203,-0.14942403137683868,-0.1900012195110321,0.22312305867671967,-0.17875467240810394,0.07726588845252991,0.152281254529953,-0.11453359574079514,-0.16692744195461273,0.14142188429832458,0.14457611739635468,-0.209947407245636,0.04102679342031479,-0.020476270467042923,0.0832623839378357,-0.10544409602880478,0.1905486136674881,0.05442187562584877,0.10462862253189087,-0.04141168296337128,-0.02085994742810726,0.08051468431949615,-0.1560065746307373,-0.12692654132843018,-0.013028532266616821,0.13529852032661438,0.12177973240613937,-0.10652817040681839,-0.07508500665426254,-0.011932507157325745,0.07025217264890671,-0.30433371663093567},{-0.11837317049503326,-0.201931431889534,-0.020496878772974014,0.028463544324040413,0.07948684692382812,-0.30682608485221863,0.20573045313358307,0.1621629148721695,-0.20340795814990997,-0.054042089730501175,0.1443331241607666,0.2941877841949463,0.197024866938591,0.2189549207687378,0.3872157037258148,0.23627375066280365,0.12451083958148956,-0.430127888917923,-0.17055270075798035,0.32189619541168213,-0.005370583385229111,-0.3771085739135742,-0.10623928904533386,0.14465822279453278,0.20998139679431915,0.27591291069984436,-0.2672261893749237,-0.05524548888206482,0.010360040701925755,-0.08997806906700134,0.07112788408994675,-0.043933287262916565,-0.13393770158290863,-0.03829500451683998,-0.03152963146567345,0.05816911160945892,0.10661481320858002,-0.14555829763412476,-0.0959833487868309,-0.2321520298719406,-0.14461325109004974,0.241203173995018,-0.32527151703834534,-0.16802270710468292,-0.20900771021842957,-0.2788730561733246,-0.09421096742153168,0.09345858544111252,0.1957576423883438,0.04273891821503639,-0.1479490101337433,0.10561234503984451,0.14087098836898804,-0.22586268186569214,-0.09197767823934555,0.1426759660243988,-0.19905801117420197,0.25871172547340393,-0.259244829416275,0.2202310562133789,0.09784532338380814,0.06978466361761093,0.016126548871397972,0.22856245934963226},{-0.1105513647198677,-0.22583384811878204,0.0834619477391243,0.17543520033359528,0.34005919098854065,-0.37284547090530396,-0.03275863453745842,-0.03269548341631889,-0.09472263604402542,-0.01938001438975334,-0.07227230072021484,0.08741698414087296,0.0883936733007431,-0.10726200044155121,0.08230571448802948,-0.14952203631401062,0.07023049145936966,0.12263808399438858,0.0033271422144025564,-0.20858514308929443,-0.15433934330940247,-0.17881105840206146,0.06024480238556862,0.2075590044260025,0.16694572567939758,0.2689555287361145,0.042965009808540344,-0.11645907908678055,-0.016548505052924156,0.10320527851581573,-0.42043977975845337,-0.13481254875659943,-0.08214768767356873,0.0069808391854166985,-0.0694713145494461,0.06958933919668198,0.11297816038131714,-0.06203233078122139,0.19909822940826416,0.18167607486248016,-0.11342547833919525,0.19380921125411987,-0.1983041912317276,-0.11912630498409271,-0.1302649974822998,-0.3522616922855377,-0.07862093299627304,0.3734005391597748,0.355194628238678,-0.33687061071395874,0.11892377585172653,0.3472616970539093,0.036239515990018845,-0.04613843187689781,-0.31100744009017944,-0.2800089120864868,0.04512908682227135,-0.19624297320842743,0.2589707672595978,0.21146079897880554,-0.04991719126701355,0.24664375185966492,0.13890160620212555,0.12121690064668655},{-0.16624189913272858,0.08972133696079254,0.08082417398691177,0.08978954702615738,0.3063405454158783,0.25866764783859253,-0.16275523602962494,0.12789995968341827,-0.031430210918188095,-0.25821009278297424,-0.2755010426044464,0.05008340999484062,0.14125360548496246,-0.11723220348358154,0.09559276700019836,-0.1693200320005417,0.024562247097492218,0.06982007622718811,-0.14917045831680298,0.0013526788679882884,0.05510338768362999,-0.1687423586845398,0.20941367745399475,-0.006684089545160532,-0.004514710977673531,-0.016068870201706886,-0.13183552026748657,0.16640955209732056,0.07054352760314941,0.03213708475232124,-0.11646197736263275,0.044440072029829025,0.1351713389158249,0.044213395565748215,-0.20891177654266357,-0.053913526237010956,-0.1111847534775734,-0.15335333347320557,-0.2902693748474121,-0.0718613788485527,-0.08033068478107452,0.3114831745624542,0.11241716891527176,-0.35252025723457336,0.022700438275933266,0.18241363763809204,0.22914138436317444,0.09840001165866852,-8.353701559826732e-05,-0.06471000611782074,0.17969924211502075,0.008932016789913177,-0.23203226923942566,0.20935019850730896,0.10620322078466415,-0.22818417847156525,-0.11733921617269516,-0.03642762452363968,0.18609130382537842,-0.17437879741191864,-0.21509139239788055,0.1267254501581192,0.13202127814292908,0.20224209129810333},{0.049740538001060486,-0.1564347743988037,0.20168736577033997,0.5251581072807312,-0.15582679212093353,0.01640651747584343,0.5041437745094299,0.1238873302936554,-0.24977363646030426,-0.16633935272693634,0.011098393239080906,0.25862592458724976,0.04348006844520569,0.10529722273349762,0.18159721791744232,-0.1783343404531479,-0.1686163991689682,0.07014399766921997,0.03713752701878548,0.18685324490070343,-0.32529881596565247,0.10483259707689285,-0.05186116695404053,-0.06985019892454147,0.15586717426776886,-0.1772146224975586,0.001955609302967787,0.3797883093357086,0.06334926187992096,0.25570642948150635,-0.2874336242675781,-0.29894405603408813,-0.13320372998714447,-0.026391886174678802,0.13926321268081665,0.06363814324140549,0.03209398686885834,-0.031236927956342697,0.05730194225907326,0.014405019581317902,-0.28725379705429077,0.2810983955860138,-0.3844987750053406,-0.2010677456855774,-0.018494203686714172,-0.19638553261756897,-0.05110893398523331,0.0033451428171247244,-0.21158252656459808,0.03933979943394661,-0.04627694934606552,-0.18907228112220764,0.12191630154848099,-0.06728644669055939,0.17305277287960052,-0.062977135181427,0.4336225390434265,0.08468515425920486,-0.03536514937877655,-0.18241894245147705,0.1946406066417694,0.1295500546693802,0.010508151724934578,0.1037038117647171},{0.0662417784333229,0.14023414254188538,-0.2626936435699463,0.06397470831871033,-0.135711669921875,-0.06915102154016495,-0.028338085860013962,0.04609018936753273,-0.2586643397808075,-0.06437573581933975,0.24368421733379364,-0.01811082474887371,0.2081519067287445,0.2072971612215042,0.09243712574243546,0.1241253986954689,-0.15824520587921143,-0.33760422468185425,0.33304470777511597,0.21709316968917847,0.08429647982120514,-0.059368204325437546,0.24566607177257538,-0.19616447389125824,-0.23241716623306274,-0.1605803668498993,-0.16739597916603088,-0.045190099626779556,-0.020512718707323074,-0.41585201025009155,-0.15753860771656036,-0.1964384764432907,0.011361786164343357,-0.14176614582538605,-0.2559787929058075,-0.22286933660507202,0.1563405692577362,-0.08517038822174072,-0.1192363053560257,-0.06158827617764473,-0.32120540738105774,0.02558152750134468,0.32115209102630615,-0.008147410117089748,-0.1392783671617508,0.11005473136901855,0.1129300445318222,0.21401868760585785,0.23825635015964508,-0.17287306487560272,-0.04702682048082352,0.3219144344329834,-0.017615800723433495,-0.14387713372707367,-0.1687774360179901,-0.39041775465011597,-0.06316306442022324,0.10878075659275055,0.04433837905526161,-0.18707595765590668,0.2696853280067444,0.08244872838258743,-0.06404148787260056,0.014673329889774323},{-0.06948475539684296,0.23557732999324799,0.10229120403528214,0.10952770709991455,-0.3035828471183777,0.16898110508918762,0.021398575976490974,0.03136148676276207,-0.08397352695465088,-0.1482461392879486,0.1294984668493271,0.029070673510432243,0.1652081310749054,0.19133366644382477,0.26138031482696533,0.2121235877275467,0.1734921634197235,0.04832271859049797,-0.12431394308805466,-0.14064450562000275,0.49566736817359924,-0.013810554519295692,-0.25865286588668823,-0.22172491252422333,0.0956791490316391,0.3314605951309204,-0.048746589571237564,-0.3332872688770294,-0.05517818406224251,-0.08791713416576385,-0.18486997485160828,-0.06980469077825546,0.0026611778885126114,-0.13629589974880219,-0.2514761984348297,0.04164918139576912,0.21392643451690674,-0.17885614931583405,0.22897806763648987,-0.13348452746868134,-0.21422837674617767,0.2090211808681488,0.10974986851215363,-0.26431626081466675,-0.10665839910507202,-0.2850273847579956,0.018359024077653885,-0.13967838883399963,0.005935894325375557,-0.0561867281794548,0.07199054211378098,0.03843455761671066,-0.2443588674068451,-0.0026787593960762024,0.06657245755195618,-0.07510186731815338,-0.21118144690990448,0.009977776557207108,-0.11564473807811737,0.13752804696559906,-0.16372573375701904,0.004242345225065947,0.049028705805540085,-0.09588773548603058},{-0.20595702528953552,0.32280829548835754,-0.012554418295621872,0.3045214116573334,-0.16904790699481964,0.048725537955760956,0.03701881691813469,0.010676742531359196,-0.3264194428920746,-0.1756083071231842,0.16911034286022186,-0.3191021680831909,0.0964842289686203,0.32489749789237976,-0.18502187728881836,-0.07199187576770782,-0.20081257820129395,-0.23794673383235931,-0.22841762006282806,-0.27111148834228516,-0.1943611055612564,-0.11651729792356491,0.3005989193916321,-0.5373634099960327,0.2739403247833252,-0.15490807592868805,0.24621404707431793,-0.13045984506607056,-0.1203901618719101,-0.008368144743144512,-0.07694506645202637,-0.43714284896850586,-0.10154669731855392,-0.3072693645954132,-0.10477878898382187,-0.09373969584703445,-0.24270643293857574,-0.12841126322746277,0.25659599900245667,0.4577997922897339,-0.30642005801200867,0.1799888163805008,0.34371432662010193,-0.11393781006336212,0.14021094143390656,-0.2749151885509491,-0.25823891162872314,0.3140970766544342,-0.31683066487312317,-0.20330537855625153,-0.040710315108299255,0.16613703966140747,0.6743696928024292,-0.07974724471569061,0.002050049602985382,-0.21918803453445435,0.00025085051311179996,-0.23112033307552338,0.13370290398597717,-0.09068235754966736,-0.11688157916069031,0.2759975790977478,0.26346367597579956,-0.08769425004720688},{-0.0323060043156147,-0.06311790645122528,-0.04230424016714096,0.08001367002725601,-0.006052739918231964,0.11658992618322372,0.10278873890638351,0.11725566536188126,-0.08820334076881409,0.20436693727970123,0.024497080594301224,0.1492588073015213,-0.26675859093666077,-0.04616916552186012,-0.2960796058177948,-0.29190415143966675,-0.18870913982391357,-0.1849728673696518,0.036952562630176544,0.16452409327030182,0.21671131253242493,0.2972269654273987,0.015840161591768265,-0.16497717797756195,-0.2783207595348358,-0.22861626744270325,0.1304115653038025,-0.365005224943161,-0.053831905126571655,-0.3062913119792938,-0.09684719890356064,0.01947876065969467,0.17696797847747803,-0.147360697388649,0.42976856231689453,-0.4145408570766449,0.360099196434021,-0.17929160594940186,-0.2081449180841446,0.284919798374176,0.16055551171302795,0.16338792443275452,0.07038763165473938,0.11271663755178452,-0.18311567604541779,0.02197088673710823,0.2207913100719452,-0.049345556646585464,0.03286118432879448,-0.10259220749139786,0.042601365596055984,-0.1980888396501541,-0.5348432064056396,0.2066345363855362,0.2775423526763916,0.09059401601552963,0.07916413247585297,0.17289386689662933,-0.23600392043590546,0.23380090296268463,-0.006076882127672434,-0.06233111023902893,0.1743505299091339,-0.007489725016057491},{-0.014972728677093983,0.08408035337924957,0.02146732620894909,-0.39723098278045654,0.1227424293756485,0.06415688246488571,0.035907499492168427,-0.042883940041065216,0.17620526254177094,-0.07242539525032043,-0.03138382360339165,0.24613404273986816,0.13414929807186127,0.10500805079936981,-0.2273525595664978,0.11213889718055725,0.018548229709267616,-0.14781349897384644,0.11210955679416656,-0.17805331945419312,-0.005835011135786772,-0.20065052807331085,-0.02289855107665062,0.13356532156467438,0.21776974201202393,0.07261209189891815,-0.056546930223703384,0.10237207263708115,-0.1334485113620758,-0.013450483791530132,-0.0049675037153065205,0.05506587401032448,-0.09427884966135025,0.07809685915708542,-0.06059960648417473,0.1396722048521042,0.0013204165734350681,-0.2450217753648758,0.012920672073960304,-0.13790695369243622,0.4519246518611908,-0.26390334963798523,-0.23139815032482147,0.4917997717857361,0.06817425787448883,0.04445777088403702,-0.06342891603708267,-0.16472743451595306,0.22329308092594147,-0.30457454919815063,-0.02118612267076969,0.13149598240852356,0.047081273049116135,0.11689835786819458,0.2056223303079605,-0.20361599326133728,0.030792247503995895,-0.1786414384841919,0.14985130727291107,0.03073601983487606,-0.249192014336586,-0.058588020503520966,0.11557251960039139,-0.057260043919086456},{0.13627691566944122,0.11025681346654892,0.055282168090343475,-0.07699967175722122,-0.18300332129001617,0.07308369874954224,0.17626391351222992,-0.0627252459526062,-0.33183419704437256,-0.1675526648759842,0.09618882089853287,0.20106662809848785,0.21299299597740173,0.00248486059717834,0.12429635226726532,0.04185795783996582,0.23558251559734344,-0.29555395245552063,0.0007228028262034059,-0.012777556665241718,0.6342374682426453,-0.061753202229738235,0.2046131193637848,-0.16573555767536163,-0.15250514447689056,0.08666665852069855,-0.037173155695199966,-0.5571100115776062,0.03187289834022522,0.18158726394176483,0.002678089076653123,0.2690563499927521,0.24932754039764404,-0.21998979151248932,0.030125567689538002,0.16627517342567444,-0.09025841951370239,0.1657545417547226,0.15107691287994385,-0.08947305381298065,-0.013909655623137951,0.006113599054515362,0.1408567726612091,-0.26852354407310486,-0.29119202494621277,0.05724632367491722,-0.5185184478759766,0.12732218205928802,0.09106114506721497,0.003932350315153599,-0.13321664929389954,-0.03961582109332085,-0.04700375720858574,0.034087516367435455,0.2068907469511032,-0.03782673925161362,0.1395111232995987,0.19048181176185608,-0.19711880385875702,0.1265788972377777,0.01755293644964695,-0.05790778249502182,0.17792338132858276,0.20279233157634735},{-0.1851445734500885,-0.1688888967037201,-0.2128594070672989,-0.2591586709022522,-0.05147398263216019,0.0288106556981802,-0.10858975350856781,0.1090526357293129,-0.21181738376617432,0.2080729603767395,0.13260702788829803,0.13367493450641632,0.15451885759830475,-0.07999550551176071,0.037257615476846695,0.15217430889606476,-0.14012028276920319,0.01698085479438305,0.10783285647630692,0.27471598982810974,0.49738457798957825,-0.021928152069449425,0.1885899007320404,-0.15325230360031128,-0.010655204765498638,-0.24774834513664246,-0.09779179841279984,0.06289920210838318,-0.11901573091745377,0.059712525457143784,-0.06551127135753632,-0.04649043828248978,-0.037287455052137375,-0.14596132934093475,0.19905920326709747,0.03885072097182274,-0.07183318585157394,0.17219576239585876,-0.21633580327033997,-0.15172968804836273,0.0550549179315567,-0.2705442011356354,-0.06244668737053871,-0.028162112459540367,-0.03188754990696907,-0.12729808688163757,-0.35361388325691223,0.17932243645191193,-0.10785671323537827,0.047681260854005814,0.03758736327290535,0.15164142847061157,-0.18690185248851776,-0.23588497936725616,-0.10831573605537415,-0.13006718456745148,0.19627578556537628,-0.12874354422092438,-0.026390142738819122,0.14341327548027039,0.25917747616767883,0.1577843427658081,-0.11809517443180084,-0.1358669549226761},{-0.055027805268764496,-0.2566089332103729,0.013004513457417488,0.10879881680011749,0.19106203317642212,0.010168919339776039,0.034616619348526,0.0923868864774704,-0.031097767874598503,0.12686404585838318,0.01991330273449421,-0.14053356647491455,0.17323905229568481,-0.11407739669084549,0.22255727648735046,-0.12278050929307938,0.04015514999628067,0.05518103018403053,-0.08510732650756836,0.10657014697790146,0.20001719892024994,0.09469736367464066,-0.03148229420185089,0.09066810458898544,-0.12149946391582489,0.04897236078977585,-0.32466769218444824,-0.09083347022533417,-0.08949647098779678,0.11144869774580002,-0.19537684321403503,-0.00605396181344986,0.18970894813537598,-0.1830415278673172,0.32048317790031433,-0.20194396376609802,0.12877802550792694,-0.20416800677776337,0.026075420901179314,0.09019673615694046,0.03034103289246559,0.2698347568511963,-0.16421087086200714,-0.35461583733558655,-0.029180454090237617,-0.46897682547569275,-0.043036431074142456,0.017338335514068604,0.024629967287182808,-0.07652392983436584,-0.1956133097410202,-0.08333465456962585,-0.34675514698028564,-0.14534534513950348,0.23225189745426178,-0.15383315086364746,-0.12269003689289093,-0.15731306374073029,-0.06516162306070328,-0.1681462824344635,0.008595363236963749,0.0638679787516594,0.1654432862997055,0.21844887733459473},{0.021824976429343224,0.02413945645093918,0.09500724822282791,0.07409738004207611,-0.17904624342918396,-0.29001909494400024,0.26929330825805664,0.012651649303734303,-0.18928425014019012,-0.011645715683698654,0.0626169890165329,0.03292519226670265,0.14790235459804535,-0.1285606175661087,0.05680924281477928,-0.24388118088245392,-0.1076543852686882,-0.09787115454673767,0.24598221480846405,-0.0006812942447140813,-0.025347135961055756,-0.234390527009964,0.15402111411094666,0.00844811275601387,0.07105417549610138,-0.1946980208158493,0.2108728140592575,-0.3669676184654236,-0.23821914196014404,0.13496488332748413,-0.01607276126742363,-0.14002037048339844,-0.1575464904308319,0.045147549360990524,-0.022977035492658615,-0.1271580010652542,0.10837274044752121,0.23554736375808716,-0.1808551549911499,0.12858028709888458,-0.032204143702983856,-0.012372937984764576,-0.2482830286026001,0.0963984951376915,0.11547169089317322,0.10694248974323273,-0.16469897329807281,0.03765131160616875,0.04831648990511894,0.09222067892551422,-0.020039444789290428,0.2066020518541336,0.013407089747488499,-0.10277263075113297,0.08032754063606262,0.05501696094870567,0.15847696363925934,-0.04145466536283493,0.23107361793518066,0.011647640727460384,-0.05917234718799591,-0.24464669823646545,-0.13008321821689606,0.05949980765581131},{-0.09613380581140518,-0.014674280770123005,-0.2877279818058014,-0.24019643664360046,-0.027448095381259918,0.009585644118487835,-0.23949429392814636,-0.21518638730049133,-0.10788672417402267,-0.28317058086395264,0.06587439775466919,0.019604558125138283,0.15023458003997803,0.13109581172466278,-0.08290456235408783,-0.2417512834072113,-0.04854476824402809,0.3187866508960724,0.2436343878507614,-0.10806926339864731,0.1576860547065735,-0.05948005989193916,0.296868234872818,-0.13923245668411255,0.12930409610271454,-0.32995864748954773,0.3192508816719055,-0.34003952145576477,0.12308326363563538,-0.10654439777135849,-0.19273239374160767,-0.0763002410531044,0.3415919542312622,-0.15762124955654144,0.27724504470825195,0.0335569903254509,0.06361845880746841,0.136769637465477,-0.06155480071902275,0.4086478054523468,-0.21367639303207397,-0.060523733496665955,-0.01764688454568386,0.09899728745222092,-0.06819018721580505,0.08952611684799194,-0.2636496126651764,0.021230505779385567,0.1279791295528412,-0.3093479871749878,0.037299346178770065,0.04416877031326294,0.1605318784713745,-0.04160375893115997,0.07559502124786377,-0.12536875903606415,0.08432771265506744,0.13166049122810364,0.10454032570123672,0.1359059363603592,-0.009354530833661556,-0.2748256325721741,0.25810760259628296,-0.2607192397117615},{0.2440820038318634,-0.1135755106806755,-0.22173632681369781,0.3024647831916809,0.12664563953876495,-0.13136447966098785,-0.29860806465148926,0.1822787970304489,0.050915032625198364,-0.16481666266918182,-0.12876586616039276,-0.18199680745601654,0.07735618203878403,0.18709109723567963,0.08995430171489716,-0.03768789395689964,-0.17847834527492523,-0.29018232226371765,-0.05909523367881775,0.032943230122327805,-0.017487850040197372,-0.1035650447010994,-0.09208795428276062,0.020619245246052742,0.21530044078826904,-0.36924025416374207,-0.28891125321388245,0.0029733118135482073,-0.16967880725860596,-0.19801025092601776,-0.26214542984962463,0.02324850484728813,0.08727597445249557,0.003967634402215481,0.20882786810398102,-0.4358294606208801,-0.1202777698636055,-0.06102094426751137,-0.13124601542949677,-0.18474705517292023,-0.250302791595459,0.21301783621311188,0.3158147931098938,-0.2973991334438324,0.22481076419353485,-0.13505005836486816,-0.031131014227867126,0.0741262435913086,0.14595869183540344,-0.1755567491054535,-0.0068735782988369465,-0.0010814275592565536,-0.403865247964859,0.14156745374202728,0.4422729015350342,0.2381947636604309,0.12234662473201752,0.01613006182014942,0.15497733652591705,0.16579651832580566,0.006443251855671406,0.0064980811439454556,-0.12085897475481033,0.2901860773563385},{-0.12644731998443604,-0.20550744235515594,-0.04948374629020691,0.027794504538178444,-0.03425774723291397,0.14767110347747803,-0.19944864511489868,-0.06290153414011002,-0.18442051112651825,0.07258175313472748,-0.25492846965789795,-0.0008963886648416519,0.139600932598114,0.1359742134809494,-0.0631275624036789,-0.10766465961933136,-0.1809927523136139,-0.06020477041602135,-0.1335778385400772,0.14244961738586426,0.3515932857990265,0.04333445429801941,0.2958908677101135,0.18486258387565613,0.039760712534189224,-0.07361364364624023,0.15460050106048584,-0.39231252670288086,-0.06408607214689255,-0.18551000952720642,-0.27452507615089417,-0.15560394525527954,0.136094331741333,0.087046317756176,-0.286588579416275,0.15084631741046906,-0.09247273206710815,0.23659802973270416,-0.008044276386499405,-0.11678306758403778,0.11865203082561493,-0.08641749620437622,-0.03419685363769531,0.0876067653298378,-0.12326455116271973,-0.1542355865240097,0.06962871551513672,0.1870664805173874,0.1608254760503769,-0.1738908588886261,-0.2129794806241989,-0.3730723559856415,0.09815724939107895,0.32648807764053345,-0.25756481289863586,-0.0834641307592392,0.17264562845230103,0.27228933572769165,-0.36127838492393494,0.10497274994850159,0.33829501271247864,-0.3186852037906647,-0.15540745854377747,0.03214694559574127},{-0.09860913455486298,0.28734999895095825,0.20922984182834625,0.038491521030664444,0.23815828561782837,0.1561434119939804,-0.0003008767671417445,0.014499522745609283,0.22081932425498962,0.13480575382709503,-0.12270468473434448,-0.11512690782546997,-0.06994348764419556,-0.16109760105609894,0.11782863736152649,0.039022114127874374,-0.00556618208065629,0.10809379070997238,0.0024112265091389418,-0.1607314944267273,0.03696415573358536,0.32733216881752014,0.21253442764282227,-0.1153809204697609,-0.13308210670948029,0.14807501435279846,0.0697176605463028,-0.21164096891880035,-0.1710851788520813,0.11943081021308899,0.19478431344032288,-0.024300632998347282,-0.1869245320558548,0.17837639153003693,0.09051068872213364,0.17124560475349426,-0.16650615632534027,-0.16651543974876404,0.28046509623527527,0.20417119562625885,0.07918088883161545,-0.10674446076154709,0.1557731330394745,0.33187785744667053,0.29951679706573486,0.08393976837396622,0.31860020756721497,-0.06917169690132141,-0.045677367597818375,-0.08025757223367691,-0.1004253700375557,0.03244573995471001,-0.0289180725812912,-0.03017345443367958,0.13994859158992767,-0.05662696436047554,0.03507967293262482,0.13303795456886292,0.3987080752849579,0.14897535741329193,-0.343938410282135,-0.2525590658187866,0.04715052992105484,0.23463888466358185},{0.006504251156002283,0.1265340894460678,0.055150121450424194,0.08005652576684952,0.16924230754375458,0.21263176202774048,0.17976407706737518,-0.19626231491565704,-0.18304556608200073,-0.16025814414024353,-0.2896308898925781,0.2674613893032074,-0.3229609727859497,0.21176478266716003,0.052412740886211395,-0.022668911144137383,-0.08054117858409882,0.1402958482503891,-0.06321969628334045,0.05255020782351494,0.07336010038852692,-0.01393714640289545,0.09122895449399948,0.005888865329325199,-0.0023335430305451155,0.20505376160144806,-0.33921441435813904,0.10158104449510574,-0.15727759897708893,0.10262135416269302,-0.07816075533628464,-0.2058815360069275,0.03158088028430939,-0.10944560915231705,-0.1401989459991455,-0.05724047124385834,-0.10227721929550171,-0.06603986024856567,-0.1220221146941185,-0.14762917160987854,-0.06652069091796875,0.1606059968471527,-0.0831020399928093,-0.010155051946640015,0.03055761568248272,-0.008759688585996628,0.07659154385328293,-0.15116257965564728,0.007674577180296183,0.2190316617488861,-0.184287428855896,-0.10828465223312378,0.1662524938583374,-0.13288819789886475,0.03765247389674187,0.049243319779634476,-0.09406384080648422,0.37072014808654785,0.045793838798999786,-0.10776044428348541,0.010462005622684956,0.19859693944454193,-0.02587282657623291,0.010248871520161629},{-0.08379525691270828,-0.15966488420963287,0.090876504778862,0.05733875185251236,0.17641155421733856,0.17089815437793732,0.059615254402160645,-0.19862401485443115,0.08158963918685913,0.14474353194236755,-0.1508358269929886,0.15713432431221008,-0.3227890431880951,-0.2623186707496643,0.06728098541498184,-0.06721945852041245,-0.13566742837429047,0.27598974108695984,0.05950231850147247,0.10120062530040741,-0.2868961691856384,-0.13268576562404633,0.08146476745605469,0.023140016943216324,0.1318759322166443,0.2331443727016449,-0.11879681050777435,-0.16883879899978638,-0.04312223941087723,-0.17905540764331818,-0.027297616004943848,0.018725315108895302,0.06674840301275253,0.03860997408628464,0.17407208681106567,-0.08669931441545486,-0.14032448828220367,-0.02875334396958351,0.08835834264755249,0.21731892228126526,-0.24281179904937744,0.11129172146320343,0.07925475388765335,-0.13827595114707947,0.06478162109851837,-0.2558840215206146,0.16976796090602875,0.032481659203767776,0.21965819597244263,-0.13578163087368011,0.1108541190624237,0.06881514936685562,-0.014762614853680134,0.10346502810716629,0.21410627663135529,0.21482542157173157,-0.12423579394817352,0.09392287582159042,0.04661330208182335,0.14032915234565735,-0.16048265993595123,0.012643625028431416,0.11935378611087799,0.2485276162624359},{-0.038037609308958054,0.02783212810754776,0.1471339762210846,-0.037841085344552994,-0.24283143877983093,-0.028555219992995262,0.06236759200692177,0.065171018242836,-0.15157881379127502,-0.17335492372512817,0.2507810592651367,-0.19931012392044067,-0.0923304557800293,-0.06883542984724045,-0.07176770269870758,-0.2485029548406601,-0.1528940200805664,-0.15519216656684875,-0.031989675015211105,0.09277059882879257,0.07422947138547897,0.10584714263677597,0.0934479609131813,0.030242329463362694,0.04380805045366287,-0.3061951994895935,-0.12694890797138214,-0.043163906782865524,-0.19643893837928772,0.22250038385391235,0.24365180730819702,0.10619407147169113,0.2703803479671478,0.05413493886590004,-0.053447842597961426,-0.24540938436985016,-0.16758179664611816,0.2746906876564026,0.04654707387089729,0.14264024794101715,-0.13783884048461914,-0.30322253704071045,-0.03480033203959465,0.06580548733472824,-0.1289720982313156,0.14219021797180176,-0.1273101419210434,0.029674921184778214,-0.1940298080444336,-0.1629508137702942,0.009477972984313965,-0.15123656392097473,-0.10856837034225464,0.04767010360956192,0.04695639759302139,0.014938806183636189,0.17024357616901398,0.20097900927066803,0.036169618368148804,-0.19158518314361572,0.029725322499871254,0.08781225979328156,0.17184476554393768,-0.14081153273582458},{0.1005629301071167,0.30876612663269043,0.020533546805381775,-0.03851429000496864,0.05693440139293671,0.02665088325738907,0.4819469749927521,0.08873812109231949,-0.11643457412719727,0.3704538345336914,0.09827522933483124,-0.07252669334411621,0.15258920192718506,0.027452392503619194,0.11978825181722641,0.0962279811501503,0.0021116319112479687,-0.011882336810231209,-0.07897358387708664,0.19406118988990784,0.035923536866903305,0.31224504113197327,-0.06140604987740517,0.0839710459113121,-0.008579949848353863,-0.07499667257070541,0.12637214362621307,0.4671785235404968,0.09253900498151779,-0.09962456673383713,0.21440570056438446,0.08477333188056946,0.24970491230487823,-0.07715754956007004,-0.17407505214214325,-0.03540617600083351,0.12693436443805695,0.11601400375366211,-0.017092475667595863,0.019306514412164688,-0.02521676756441593,-0.15728594362735748,0.33780437707901,0.40861353278160095,-0.269599586725235,0.29320818185806274,-0.1452554166316986,0.16348575055599213,0.1758415400981903,-0.46531960368156433,0.32799458503723145,0.06630926579236984,0.18329556286334991,0.21503430604934692,-0.13636085391044617,0.037299994379282,-0.05110206454992294,-0.12085162103176117,-0.1320892721414566,-0.15692265331745148,0.4190596044063568,0.24561350047588348,0.11955555528402328,-0.24067434668540955},{-0.28848856687545776,0.35541093349456787,-0.03408747911453247,0.08786600828170776,-0.06965170055627823,-0.08097415417432785,0.5217970609664917,0.2766174376010895,-0.2637740969657898,-0.2514817714691162,0.21485480666160583,-0.1645791083574295,-0.023131104186177254,-0.07463287562131882,-0.19716615974903107,-0.20406542718410492,-0.22433824837207794,0.23634202778339386,-0.062226586043834686,-0.014128349721431732,-0.36689189076423645,-0.3343923091888428,-0.11728435009717941,-0.2749912142753601,0.03634968400001526,0.09202572703361511,0.021107370033860207,-0.10570500791072845,-0.10735228657722473,0.3432583212852478,0.08732389658689499,0.048776160925626755,-0.24921686947345734,0.07901380956172943,0.287789523601532,0.3266243636608124,-0.24108006060123444,-0.29695925116539,0.09370866417884827,-0.32834434509277344,0.14494681358337402,-0.2409137636423111,-0.05444210022687912,0.09208732843399048,-0.1701992303133011,0.30433714389801025,-0.029447412118315697,0.10248056054115295,-0.16661900281906128,-0.059252794831991196,-0.02191394381225109,-0.12236769497394562,0.37162742018699646,-0.284230500459671,0.08859847486019135,-0.10180103033781052,-0.13095909357070923,-0.18415315449237823,0.10165780037641525,-0.3285316824913025,-0.09228530526161194,0.6200466752052307,-0.041598036885261536,-0.03322158381342888},{-0.01414524670690298,0.100692518055439,0.021380743011832237,-0.05609634518623352,-0.13864178955554962,0.029880527406930923,-0.20467959344387054,-0.13324899971485138,0.0788111612200737,0.06385349482297897,-0.03127419948577881,0.07949754595756531,-0.03877732530236244,0.1890428364276886,0.16446256637573242,0.040918752551078796,0.35003402829170227,-0.039744116365909576,0.06486821919679642,-0.3803054392337799,-0.03839792683720589,0.21441201865673065,-0.019957823678851128,0.28041183948516846,0.19899046421051025,0.07452630996704102,-0.01775062084197998,-0.15361185371875763,0.079353928565979,-0.07639142125844955,0.04571253061294556,0.19211958348751068,-0.08393499255180359,-0.08579621464014053,0.03188050538301468,0.28675681352615356,-0.02389424853026867,-0.14367558062076569,0.18622474372386932,-0.11257456988096237,0.2972830832004547,-0.1924230307340622,-0.006769606377929449,-0.09051564335823059,0.013666655868291855,0.5724101662635803,0.02015363797545433,0.22571712732315063,-0.08794601261615753,-0.017322856932878494,-0.34607455134391785,-0.07902838289737701,-0.4932062029838562,-0.050287771970033646,-0.008470363914966583,-0.43067753314971924,-0.2775115966796875,-0.12463242560625076,-0.12927834689617157,0.1289716362953186,0.12433192133903503,-0.3061443269252777,0.16516810655593872,-0.038981255143880844},{-0.011350685730576515,-0.24514253437519073,-0.2663153409957886,0.22349438071250916,-0.0538204088807106,-0.2009221315383911,0.1489037126302719,0.043855126947164536,-0.23418670892715454,-0.012082976289093494,0.14204446971416473,0.07500562816858292,0.23075932264328003,-0.1600659191608429,-0.09913258254528046,0.0558345764875412,0.03763115778565407,-0.022333910688757896,-0.13293732702732086,-0.06404074281454086,0.021737411618232727,0.18063078820705414,-0.0022691418416798115,-0.19314269721508026,-0.07298478484153748,0.16744402050971985,0.11866118758916855,-0.419952929019928,-0.1242927834391594,-0.017812544479966164,-0.1314118504524231,0.1715722233057022,0.2922089695930481,-0.07475558668375015,0.119649738073349,-0.3166145980358124,-0.23243583738803864,-0.23320478200912476,0.052458930760622025,0.18197345733642578,0.1968499720096588,0.22189223766326904,-0.009403475560247898,-0.2195557802915573,0.16478480398654938,-0.5385372638702393,-0.2336551994085312,-0.08982182294130325,0.02276589535176754,-0.33909115195274353,-0.11223968118429184,-0.23024097084999084,-0.6382739543914795,0.215687096118927,0.11054245382547379,0.05044824257493019,0.08235466480255127,-0.14106974005699158,-0.4923039674758911,0.056464266031980515,0.06871254742145538,0.03194035217165947,-0.18160168826580048,0.1737566590309143},{0.07906351238489151,0.001970889512449503,0.3153936266899109,0.48679447174072266,0.09874756634235382,-0.15159185230731964,0.10574761778116226,-0.397022545337677,-0.07127827405929565,0.019480884075164795,0.03856530785560608,-0.1203722283244133,0.16772747039794922,0.1786198914051056,-0.21395151317119598,-0.18902121484279633,-0.009927555918693542,0.25571176409721375,-0.16769301891326904,-0.0267756599932909,0.012011115439236164,-0.1178964227437973,-0.14880172908306122,0.06178450584411621,-0.1543666571378708,0.18521703779697418,-0.13648824393749237,0.3046688437461853,-0.05206899344921112,-0.26266762614250183,0.15646344423294067,-0.0678175538778305,0.08210546523332596,0.0024374050553888083,-0.2899600565433502,0.06819189339876175,0.007648158352822065,0.14746785163879395,-0.12988492846488953,-0.324757844209671,-0.4130595028400421,-0.008255173452198505,0.3331020772457123,-0.1965043693780899,-0.3722003400325775,0.15417230129241943,0.26837456226348877,0.23005788028240204,0.24715660512447357,0.232550710439682,-0.010966307483613491,-0.1729104220867157,-0.15493327379226685,-0.050949230790138245,-0.23658710718154907,-0.11466246843338013,0.13814111053943634,-0.04524856060743332,-0.1980057656764984,0.043662525713443756,0.07754954695701599,-0.10833626240491867,-0.24446715414524078,0.32060179114341736},{0.22935818135738373,0.11804522573947906,0.0004431634733919054,-0.001347989309579134,0.1513957381248474,0.26886773109436035,0.014121890999376774,0.005170754157006741,0.3976629078388214,0.098935067653656,-0.07064779847860336,0.0019199429079890251,-0.43014228343963623,-0.15270841121673584,-0.06787848472595215,0.015834301710128784,0.21735000610351562,-0.24838978052139282,0.30975791811943054,-0.0634833574295044,0.3693850338459015,0.1046951562166214,0.135671466588974,0.4784780740737915,0.2333231419324875,0.33855023980140686,-0.4956936538219452,0.32315054535865784,-0.24947117269039154,-0.08133572340011597,0.0189800001680851,0.5386567115783691,-0.1732596755027771,0.08301706612110138,0.056815069168806076,-0.10133546590805054,0.10289966315031052,0.1791304498910904,0.16908365488052368,0.1123470589518547,0.21529828011989594,0.011039271019399166,-0.11573149263858795,0.10006675869226456,-0.041452907025814056,0.348782479763031,0.28905510902404785,-0.05892156809568405,-0.1449001133441925,0.01658371090888977,0.07918844372034073,0.16824482381343842,0.06613831222057343,-0.02193847857415676,-0.046475041657686234,-0.12157166004180908,-0.18040475249290466,0.1498643457889557,-0.6243014931678772,0.34903764724731445,0.2635593116283417,0.23323196172714233,-0.1984086036682129,0.05408507585525513},{-0.25800830125808716,0.1219109445810318,0.19066402316093445,0.285481721162796,0.0029729041270911694,-0.1479383111000061,-0.06385119259357452,0.15671265125274658,0.06806232780218124,-0.22206419706344604,-0.03561452031135559,-0.17169629037380219,-0.24375545978546143,-0.0012671322328969836,-0.07921284437179565,-0.07955045998096466,-0.025679640471935272,-0.0034448723308742046,0.35636982321739197,-0.272706001996994,0.40556997060775757,-0.19398756325244904,-0.041694071143865585,0.18800348043441772,-0.001954128034412861,-0.0831870287656784,0.045227497816085815,-0.25863686203956604,-0.11402811855077744,0.2772909700870514,0.09878291189670563,-0.04128348454833031,-0.12441953271627426,-0.1641811579465866,0.31562313437461853,0.21291576325893402,0.1504669487476349,0.14374428987503052,-0.14668507874011993,-0.20740413665771484,-0.06721152365207672,0.17536942660808563,-0.019111836329102516,0.024586260318756104,0.035183098167181015,-0.01399229746311903,-0.11814294010400772,-0.17152626812458038,0.18872816860675812,0.14546899497509003,0.18753986060619354,0.22317825257778168,0.1918109655380249,-0.13505831360816956,0.34492504596710205,0.3084053099155426,-0.2041916400194168,0.2631285488605499,0.04417678341269493,0.004441843833774328,-0.09795067459344864,-0.045637354254722595,-0.12160120159387589,-0.0317719504237175},{0.17200449109077454,0.1389804184436798,-0.15704600512981415,-0.04967402294278145,-0.16469746828079224,0.2083863615989685,-0.07536282390356064,-0.0473836287856102,-0.14383913576602936,-0.15467935800552368,-0.22242286801338196,-0.16163241863250732,-0.38246679306030273,0.13586272299289703,-0.09039270877838135,-0.03827814385294914,0.14351338148117065,0.00762955192476511,-0.21719807386398315,-0.14672870934009552,-0.26053759455680847,0.17962461709976196,0.04228099063038826,0.021416576579213142,0.22714051604270935,-0.019366169348359108,-0.06188798323273659,0.42100468277931213,-0.008305884897708893,-0.30517521500587463,0.15467281639575958,0.04048711806535721,0.03689975291490555,-0.08205783367156982,0.011587101966142654,-0.04289117455482483,0.17787297070026398,0.0717976838350296,-0.11087196320295334,0.16524581611156464,-0.06059688702225685,0.21625080704689026,-0.16847474873065948,-0.1178070455789566,-0.12474212795495987,0.006086322478950024,0.3180848956108093,-0.16422715783119202,0.07409057766199112,-0.030136555433273315,0.05096055939793587,0.0113914106041193,-0.22520175576210022,-0.06480042636394501,0.1324322521686554,-0.09964233636856079,0.21129438281059265,0.1272737979888916,-0.07711005955934525,0.1816355437040329,-0.1680206060409546,-0.11253651976585388,0.03966491296887398,0.033272456377744675},{-0.008159397169947624,0.15378901362419128,0.0017826708499342203,-0.10160566866397858,-0.2272135615348816,-0.029898883774876595,-0.03155054524540901,-0.01578492298722267,0.030989671126008034,0.10257292538881302,0.20706018805503845,0.06429973244667053,0.09676560759544373,0.09458036720752716,0.04212392494082451,-0.08563011139631271,-0.1475541889667511,0.18557260930538177,-0.008580475114285946,-0.15082129836082458,0.16918084025382996,0.08821422606706619,0.12492334842681885,-0.06023038923740387,0.08944853395223618,-0.2358999401330948,0.19360019266605377,-0.21407648921012878,-0.24658820033073425,0.2981186509132385,0.08894386142492294,0.09871795028448105,0.19594228267669678,-0.045482050627470016,-0.11925913393497467,-0.24287602305412292,-0.045388221740722656,0.14302417635917664,0.0652456134557724,0.13329587876796722,0.01131036039441824,0.13087686896324158,-0.27790653705596924,0.19388823211193085,0.09019831568002701,-0.14671409130096436,-0.14331720769405365,-0.15182192623615265,-0.19079087674617767,-0.0323924720287323,0.17031492292881012,0.13010278344154358,0.17739303410053253,0.09511709958314896,0.09273172914981842,0.03931136801838875,-0.12441183626651764,0.23043617606163025,0.1464698612689972,-0.03458204120397568,0.1952497661113739,0.03259970247745514,0.13402606546878815,0.011611778289079666},{0.11589298397302628,-0.25755128264427185,0.009299328550696373,0.3060194253921509,0.11788488924503326,-0.15021663904190063,-0.0008248500525951385,-0.2243984043598175,-0.18706443905830383,-0.10656220465898514,-0.115180604159832,0.25021886825561523,0.3858121633529663,0.08099626004695892,0.21497537195682526,0.0009878637501969934,0.21350914239883423,-0.01598384603857994,0.4171474874019623,0.17588694393634796,-0.30878567695617676,-0.3249739110469818,0.009021034464240074,0.15361639857292175,-0.18248791992664337,0.16458624601364136,-0.10760916769504547,-0.11989591270685196,-0.04852747544646263,-0.17319265007972717,-0.16624882817268372,-0.03715764731168747,-0.07220996916294098,-0.06835030764341354,0.03773723170161247,0.059499211609363556,-0.15143421292304993,-0.21674209833145142,0.09269445389509201,0.23537836968898773,0.1893729269504547,0.04816575348377228,-0.06922055780887604,-0.2102099508047104,-0.06588505953550339,-0.10629546642303467,0.08747199177742004,0.12921155989170074,0.31044453382492065,-0.06024941802024841,-0.2381572276353836,0.43683791160583496,0.0949271097779274,0.1733608841896057,-0.27338430285453796,0.07120756059885025,-0.2219015508890152,0.017035095021128654,-0.20869867503643036,-0.2412230670452118,0.037996020168066025,0.02427149936556816,-0.29736998677253723,-0.06042089685797691},{-0.21835052967071533,-0.1869863122701645,0.10334891080856323,-0.3450944125652313,-0.3456571102142334,0.0784190446138382,0.02306913211941719,-0.023955924436450005,0.04842371493577957,-0.137361541390419,-0.14143794775009155,0.05452186241745949,-0.09103446453809738,0.29743343591690063,-0.08779824525117874,-0.12920036911964417,-0.0905759260058403,0.1041126549243927,0.164311021566391,-0.2365846037864685,0.2507360577583313,0.1772925704717636,-0.10319066047668457,-0.07441149652004242,-0.0028859383892267942,-0.04786698520183563,0.10746978223323822,-0.19968952238559723,0.02934378571808338,-0.07404442131519318,0.16065604984760284,-0.15878722071647644,0.015035215765237808,-0.024951981380581856,-0.0312118548899889,-0.0022524907253682613,0.3906513750553131,0.12585487961769104,-0.03109315037727356,-0.12118035554885864,0.1355985850095749,-0.24507467448711395,0.03411891311407089,0.22143715620040894,0.2627227306365967,0.009584398008883,-0.02914726547896862,0.02996755950152874,-0.022038737311959267,-0.10729977488517761,0.1849668323993683,-0.01440780982375145,-0.026269234716892242,0.07817744463682175,-0.06298396736383438,0.20459972321987152,0.19769760966300964,0.1557818353176117,-0.24764490127563477,-0.08522398769855499,0.12639497220516205,-0.08757613599300385,0.17126530408859253,-0.15333233773708344},{-0.36704325675964355,-0.027770135551691055,0.20407281816005707,-0.19663040339946747,-0.1852799355983734,-0.31487447023391724,0.1591832935810089,-0.09366501867771149,-0.1342855840921402,-0.14515630900859833,0.23314610123634338,-0.09388269484043121,0.28341665863990784,0.1683705598115921,0.1944393813610077,-0.07288166880607605,-0.12126509100198746,-0.10252540558576584,0.24738086760044098,-0.1563601791858673,0.019472947344183922,0.12253865599632263,-0.0681133046746254,-0.1250637173652649,0.15585431456565857,-0.15599676966667175,-0.17097295820713043,0.1512576937675476,0.1595039814710617,-0.1387682408094406,-0.050218768417835236,0.0674399733543396,-0.3447049558162689,-0.021922744810581207,-0.24888980388641357,0.053533606231212616,-0.22876772284507751,0.25263655185699463,-0.07629796862602234,-0.35257187485694885,-0.09607645124197006,-0.21745212376117706,-0.16148042678833008,-0.24059422314167023,0.06695970147848129,0.06950262933969498,-0.14790034294128418,-0.04575870558619499,0.18813234567642212,0.20363974571228027,0.17377302050590515,-0.10570847243070602,-0.005673030856996775,-0.3642129600048065,-0.05239402875304222,-0.23809894919395447,-0.10245971381664276,-0.2847971022129059,-0.33169931173324585,-0.007865085266530514,-0.25909867882728577,0.4441245198249817,0.011034569703042507,-0.09957534819841385},{-0.09997957199811935,-0.14875303208827972,-0.022171633318066597,0.4867483973503113,0.22145885229110718,0.050027888268232346,0.03151175379753113,0.043138399720191956,-0.1269422024488449,0.0954839214682579,-0.05234254524111748,-0.07539618015289307,-0.4072917699813843,0.18530140817165375,0.05468336492776871,-0.09341634809970856,0.11032029241323471,0.16976071894168854,-0.19539828598499298,0.19137240946292877,-0.4028637409210205,-0.13548687100410461,0.03538479283452034,0.26491791009902954,0.21392908692359924,0.2325344681739807,0.09080301225185394,-0.2741656005382538,0.146066814661026,0.08360191434621811,-0.22361792623996735,-0.18246343731880188,0.08303491771221161,0.14088870584964752,0.09244097769260406,0.12085110694169998,0.1965208202600479,-0.15649688243865967,0.036488957703113556,0.10043628513813019,-0.2531675398349762,0.2604508101940155,0.03103403002023697,-0.030489251017570496,-0.12644454836845398,-0.13122452795505524,0.2632642686367035,0.02749272622168064,0.3418560326099396,-0.2586207985877991,0.29720285534858704,-0.05350065976381302,-0.07942504435777664,-0.1216551661491394,-0.043169692158699036,0.0508466474711895,0.008521055802702904,-0.2980997860431671,0.13038811087608337,-0.13070058822631836,0.11021281778812408,0.1220933198928833,0.027310771867632866,-0.14963729679584503},{-0.15080422163009644,-0.00043342128628864884,-0.06194781884551048,-0.23111629486083984,0.19574736058712006,0.08911971002817154,0.19211797416210175,0.08501498401165009,-0.3396409749984741,0.047134190797805786,-0.012989192269742489,0.1420413851737976,0.03262332081794739,0.19195684790611267,0.04356521740555763,0.2687402665615082,0.2810102701187134,0.08030661940574646,-0.2968970239162445,-0.2522953748703003,-0.10894238948822021,-0.07503186911344528,0.06524954736232758,0.15478776395320892,0.10433466732501984,0.2988418936729431,0.03818579018115997,0.07495424896478653,-0.0677371472120285,0.17251093685626984,0.2041376382112503,-0.134388267993927,-0.21724559366703033,0.056916654109954834,0.1878696084022522,0.029209040105342865,-0.33493995666503906,-0.1399354189634323,-0.1452120989561081,0.05668701231479645,0.38551074266433716,0.04208241403102875,-0.12520939111709595,0.018732527270913124,0.22277769446372986,0.17643366754055023,-0.024418141692876816,-0.28843167424201965,-0.49564337730407715,0.2673661708831787,-0.2016698122024536,0.18370044231414795,0.057482700794935226,0.11600032448768616,0.2691945433616638,0.1218605637550354,0.04289824515581131,0.13444116711616516,-0.1092471331357956,-0.2450217306613922,-0.31907227635383606,-0.11474841088056564,-0.19581636786460876,-0.09387391805648804},{-0.035068295896053314,0.024272076785564423,0.21718730032444,-0.3885326683521271,0.002959219506010413,0.06071693077683449,-0.19540248811244965,-0.2385619729757309,-0.18437962234020233,0.3005874752998352,0.16377077996730804,0.023460738360881805,0.10471643507480621,-0.06587415188550949,-0.1972922384738922,-0.2819218039512634,-0.0802946612238884,0.013157548382878304,-0.09936396777629852,0.15712063014507294,0.005183784756809473,0.03670455887913704,0.06200455501675606,0.10241997987031937,-0.275119811296463,-0.08975604921579361,-0.5842263102531433,0.12257692217826843,-0.05738402158021927,0.23669900000095367,0.3659226596355438,-0.08066562563180923,-0.11276865005493164,-0.08199552446603775,0.12444628030061722,0.04202772304415703,-0.3137124478816986,0.3049914240837097,0.04139835387468338,-0.1538768708705902,0.09392314404249191,-0.29701170325279236,-0.007376622408628464,0.03455260768532753,-0.10558613389730453,0.11059174686670303,-0.11953435093164444,